{"layers":[{"numInput":784,"numOutput":64,"weights":[[0.01625454857377629,0.01308739083998896,-0.01366289604766716,-0.015922964994704525,0.01182492512818383,0.0288123046194413,-0.009372649042049597,-0.0160179950398784,-0.002596173156489047,0.02020726991357398,0.02995198449062263,-0.004536358969765246,0.01785044151824625,-0.008102366117189381,-0.023044394435044403,0.006739279349263152,-0.020730887938119138,0.023283276563415785,-0.02341300445086768,0.006244812984735401,0.017948600483390007,0.005074310601061941,0.00571606317871862,0.018036424899332215,-0.03347012579810137,-0.010148577180205096,0.022699780773974235,-0.005879460946220089,0.033859691535420094,0.015243304130230648,-0.0013875345316832607,-0.014881678756299706,0.03213286676139047,0.02289227309902476,0.009760324846877284,-0.009348464718435898,-0.009981794616704636,-0.004667065347099264,-0.0030487789682307554,-0.0019508270802960437,-0.0022126770988879574,0.02338017314392822,-0.024926317533660123,0.023847588246011835,-0.0028352590956313467,-0.01567342916622784,-0.021716842326917427,-0.022909039937505902,0.02612048545195373,-9.578098695575687E-4,-0.005644878097783666,0.009490699382377073,0.014275617504798006,-0.013190824995880502,0.005115736109284047,-0.009213407879731366,0.026558185426059904,0.021837924475856998,0.008300977502512763,-0.008974331707928265,0.014089194947837818,0.029186755729112213,-0.021703780579867746,0.022080344051981383],[0.009138091100962331,-0.0026143377836896353,-0.013887203166610795,0.0028506738756692374,0.009650786746884861,-0.0266958697643739,-1.90936251719961E-4,-0.03376327383671673,-0.03310824880783931,-0.0011540103604067748,0.011075241507844358,-0.007445265702054131,0.03144089040609865,-0.00824208257733633,0.010445141342688773,0.019318974126710065,0.028145913987029203,0.007059788367501263,0.03400246225845774,-0.03020820621891057,0.01965147828051254,-0.015798406964373735,0.028514666409254118,-0.009011704027104113,-0.004906460347467064,-0.011976837258232247,-0.013203752045191586,-0.00409028985098426,-0.02882493457994114,0.01751095044395611,-0.023510018722650173,0.021813622851527308,-0.02572931462236708,-0.0290752273613246,-0.03378358093699047,0.003452477980839395,-0.015557265276382275,0.03339252300060793,0.028892934214397266,-0.011146989539680519,-0.03471029868194763,0.02211386605786161,0.0015353074064111286,0.02393968250055007,0.005961546327937066,0.013446147810536775,0.004027300094217994,-0.027446419734312433,0.006322045492449278,0.028224448954066804,0.00903394037171229,-0.008387072058451009,0.02883036391073161,0.023835685792596595,-0.017129026345276157,0.033016872874980195,-0.007318845998885493,0.005252479905468629,-0.017273928497202422,0.022981825568119927,0.011370248165656174,0.008150482485170385,-8.430446816481893E-4,-0.009894956221987041],[0.016998688020849084,0.025382963641545193,-0.011446635100410146,0.018430704616784286,0.016148443210064825,6.115882052165146E-4,0.019672137042318905,-0.008850908004701752,0.025916011342697266,0.01407809385447,-0.024276374693701364,0.021432919714821932,0.016103539544338723,0.0210624803015405,0.023088636826795492,0.02502024644560367,0.03464137181046564,-0.026490950963958797,0.008149630299923034,0.0030624772272392986,-0.024806304065632945,0.0024697149925852952,0.0034995523449569367,-0.012245716825322129,0.015723191100087533,-0.008014560140128404,-0.03462524132461151,-0.028364402354681278,-0.028295935911335644,-0.023341025137602847,0.02840241596649625,-0.005795827203809603,0.02481853476773488,-0.011677831987406928,-0.005485594136367598,-0.031970946751858687,0.007349604971183278,-0.023845202819898333,-0.0012691627615717008,0.005196553555203962,0.001235733645649709,0.01508340023238251,0.012599373560621819,0.025079325125092936,0.020309424123591775,-0.01500769746588611,-0.009322401402946148,3.817219979077421E-4,-0.015398374313849739,0.03392911311782574,0.005135941350253819,-0.02696198157491366,-0.004671178243529948,0.0035120793938824358,0.005481101384260151,0.016252607387791773,0.006861012383235229,0.022718251930329367,0.027411647079896396,-0.009083886436006812,0.010453753750846125,0.024292230170336358,-0.02879582956649034,0.02952246389455316],[0.008101607586324602,0.006165328452065235,-0.02420990595045212,0.0356925247192632,0.006391036332640582,0.019943049372258537,0.0012485338229886336,-0.030377571481615524,-3.0218573732460063E-4,-0.023152628429877285,-1.9051704784392838E-4,0.01350524645306726,0.010916155238139531,-0.010081669617379203,0.003633971692290643,0.0190801174588658,0.001838040384098405,-0.02307046415783804,0.015185361946462417,0.00337196548044428,-0.002820871086822686,-0.011502677874513026,-0.03278597093292595,0.02125470471689869,0.014643148067399175,-0.014022359430475162,0.009960845602032038,0.004701318673576617,0.0011874437902676235,0.002519944554283972,-0.016856969856078968,-0.024381797945188393,0.014226481120703816,-0.00763117640448861,-0.0032380583841004457,-0.016572636408275655,-0.0012549221747230291,-0.0061136064384227275,0.006337665929385917,-0.024227301976869817,-0.017096927956510893,8.114719608796775E-4,-0.018027318890365674,0.009456998623169248,-0.011444798765733604,0.011118028358883496,0.022390779098455556,0.03467898041772254,6.127417846803246E-4,0.03205700867809263,-0.016640914614297904,0.010262941071260911,0.03176557965922886,0.006419279011578024,0.017537782643109907,-0.026285152643910292,0.01390754778857183,-0.025542445632957305,0.002670994837511899,-0.03097375712172941,0.016092832149154784,0.012537429392342876,0.024276136375339444,-0.0013899991138667878],[-0.011860248525499526,0.02202348063234009,0.020465044014329303,-0.014981877682310907,0.0019474172808765747,-0.005568547014487533,0.0330955091412244,0.03173294935375525,0.023486442502497023,0.022920607901429767,0.026820671532329775,-0.011089194897795767,0.025838372382327435,-0.005667517732652536,0.007204753920275784,0.03091965202339789,0.03330414500385958,0.008775315725927236,-0.023378960047635143,-0.005007154295849137,-0.03152031389893836,-0.007650059616576023,-0.030715268517116985,-0.028537766507966925,0.029735269654827843,-0.021272679073639746,0.004499302860359972,0.0044072102619546905,-0.029979844975347034,-0.005936957792403005,0.004295998321800593,-0.028552547038064112,0.007916864196099627,0.030027005053839595,-0.03330646704615217,-0.02289811124048048,0.03553291532276805,0.017251723838231894,-0.0312010622466794,-0.012936704173422336,0.009427807200995342,0.016259853134192037,-0.03366067753995116,0.022325579618070055,-0.008242067585749968,0.024920968317785442,8.153717236211007E-4,0.022349067229865523,0.034896356600946865,0.0035663323659587765,-0.03484235151510779,-0.024641779758572534,-0.02605209754063129,0.012486879264111897,0.013546364961577644,0.0300073460059311,-0.006452984999850721,0.027368368114658606,0.030924161200822285,-0.025405361497972977,-0.003331987707095482,-0.02515009218186218,0.01697524890202581,-0.0165325074202496],[-0.03324849455642758,0.027113556717539723,0.002248913383290609,0.02809964618893164,-0.034028565684376656,-0.003062136607829248,-0.013615114381026099,-0.024609534656017933,0.009077111238483933,-0.002737409381250896,0.012909844301160878,0.005181438395804935,0.00822956214814134,0.014872673876185794,0.014675327680919503,0.0013761065131904543,0.013897141030436837,-0.017968961989934876,-0.021302420306270966,0.0063873293661528665,0.008753165776736785,0.027057833320198493,0.003225182542976593,0.03406260354206693,-0.025800329145076205,-0.012174780415043551,0.02472918114585292,0.011754395076747064,-0.014516516829021085,-0.019088078790005687,0.021039973326713406,0.010665037050880097,-0.012912134540284408,-0.023402391301154377,-0.008097326318272058,0.010719057866197772,0.012317946909422362,0.007402260906857828,-0.020212040300209906,0.017714155770224584,0.011179462915805079,-0.021652764222650476,-0.035264313065722204,-0.022196087955719358,-0.004078954884717029,-0.020895869361290016,0.0044667112384808505,-0.02538632402283436,-0.024601254432837116,0.02170479886815853,-0.0050256388542988285,0.004628654726073187,-0.015129273136863828,0.0282252796288727,-0.03127055340581658,-0.007365572358551889,-0.0016314330317509346,0.027970789051045608,-0.0010699061652387368,-0.01192226844654587,-0.006437770627528903,-0.035393105402333605,-0.03252839915445579,0.032392214585885384],[-0.004532829002429659,-0.025310757569227117,-0.03278396634973346,0.006600124993827973,-0.0159944969432643,-0.019859234502230743,0.017135199931845906,7.133937664358578E-4,-0.03152831541245523,0.009839671099110674,5.551600766892491E-4,0.034473882638388575,0.023652385217752314,-0.02752906621397209,0.006331481665359509,0.01707792526034033,0.004853012276198443,0.0013012309242479425,-0.011096722835597601,0.01886797573774697,0.012389684085162023,-0.018437564910467004,0.008667940788280004,0.026258188571772634,0.0316440081669287,0.024100245192721588,-0.01672692293635727,0.0052483578069147776,0.032548617687827845,-0.03513743810639222,0.016094522754048917,0.023057577544999208,0.029517084734208464,0.020095148880539822,-0.029640292328895295,0.014532250091661876,-0.034933221696011256,0.011780108333984208,0.026083681599641653,0.03005290347103414,0.001993133529281884,0.025467101066793077,-0.007788825575708821,-0.0353196249829307,0.032795907622237504,-0.026791970360789077,0.0052447914318484645,-0.012898245383467732,0.012560774898767548,0.022098921385819266,-3.845922749209838E-4,0.018702592449540152,0.0212345248719483,-3.278772407367323E-4,-0.015883843719863667,0.014947408399819173,-0.02251503313239841,-0.013217985637594219,-0.01140978223753616,-0.026804762824311282,0.01625010832204754,-4.545551558672787E-4,-0.015693447091736524,0.033111031304717604],[-0.008630322556449339,0.015762490328215042,-0.01278063035403013,0.03367132298979439,0.01621274711169375,-0.024803225039265502,-0.00298472213681258,0.015832319816663765,-0.019603471607226988,-0.008576651306480632,-0.02206470887636611,-0.016340942688694873,0.008104951571520476,-0.0014871318248453097,0.03553116593255401,-0.026608826981922795,-0.0039815968811350135,-0.00995756601514381,0.0010631004445098647,-0.01331303340154492,-0.02782761716274313,0.03366277386096315,0.01645389288294834,-0.02171414872489112,-0.020255810474769216,0.00456592002879078,-0.010987868567825083,-0.007583201252039841,0.011823084842324543,-0.02431315261260337,0.027952264806969582,0.002171634370132125,-0.009634892729589235,0.0027656206186830097,-0.03021316964237457,0.02175679112206376,-0.03380291224361321,0.005635859793779119,-0.010197161649813926,-0.009821735422073714,-0.02574121981529608,0.001862712046101619,0.010631759802007201,-0.019212109018440185,0.023542546432153665,0.0236999726714676,0.01352355232647503,-0.025775483138866222,0.0344071925307706,0.0014147335370638787,0.004768290400517675,0.02833551536951253,0.01424886553186153,0.011053004679247865,0.003060021462278033,-0.026623262321833468,0.02876473511221913,-0.008737228718989052,-0.006533716638794682,-0.031551982299994924,0.008815825120191292,-0.02529112737078939,-0.01708940663305998,0.018583954216396033],[-0.010673267900464736,-0.01652148216332134,0.019265517841653867,0.014043024314866726,0.0067520032976616,0.004687071187594466,0.015576371207414412,0.014122142292761247,0.01396323505306327,0.03510811419932718,0.02401870184949782,1.2563294232408633E-4,0.020252954730403963,-0.009358765453147835,0.016650920913110035,0.023080245687495178,0.015225626916674045,0.03208106062598651,-0.0338577416316809,-1.745810784319663E-5,0.0172238728827063,-0.008466665549154158,0.008007238081236474,0.010649098598910634,0.013905092742769099,0.022509647790352194,-0.007824683505737213,0.02989892127907319,-0.008217108468136796,-0.015921012966959556,0.010253876179391186,0.025402999082328615,-0.031306637080859366,-0.0231099266735972,0.015604509229899024,-0.025626471530026205,0.019666905275996006,0.019260739962762664,0.007774948218860076,0.03090649404169816,0.00829622540563611,0.013430683092133815,0.0023407193454615632,0.024521773974762674,0.03096178475412289,-0.0230795122043476,0.00895445523312626,-0.025020992078751095,0.021635911603516245,0.001732781008369179,-0.00562318316997317,0.0116421713245962,-0.020992571329420284,-0.01655781182899455,0.02775681628302167,-0.012478709067454248,0.008207143933767964,-0.02409338639051743,-0.007558909340166714,-0.03564977379855019,0.030756677054242485,0.003964604034733682,-0.026450240374034394,-0.027192276412579475],[-0.03434847616324537,0.0203479534701696,-0.020824570417824404,0.02125517335022914,-0.006847184844509191,-0.004436180315497188,0.02534144923854052,0.02286279390142156,-0.03338496503514324,0.02354360459173894,0.025081510637299607,-0.008130679288481974,-0.0063381865510513625,0.025702369402779,0.013032305348743159,0.024968587430496274,0.02338194842977543,-0.0011544587770977918,0.008764057035128725,0.019153997232475413,0.022381219109015017,-0.007615236804936865,-0.011003781088856999,-0.002935504952720166,-5.072917316081123E-4,-0.025275127418372588,8.572934923443845E-4,0.029248999732720216,0.032433233083825196,0.02888766047275818,-0.023122631376649525,-0.011628317206082666,-0.01173230466874859,-0.025126108631056368,0.021735064205416422,0.028932401472706884,0.02749246967472845,-0.02049553710665956,-0.026225535352281747,-0.02813933747219821,0.02458729585328848,-0.016475439975143707,-0.027609235550967875,-0.0279281214969469,0.01172738845975228,-0.006541673925024352,0.014127193211221878,0.030180251253007526,0.014135867505755675,0.02349455561414527,-0.01569817342169677,0.005614439326248348,-0.01899415296063454,0.01628045901972573,-0.02138043266140498,0.011666222197451582,-0.0035399191891471128,-0.007670805171038813,0.023379196606301045,-0.005052844174758375,0.009215225477682172,-0.02419224486621363,-0.007870783535449542,-0.0062377633238063935],[0.018906299730278003,-0.008806738689851315,0.029530827317400386,0.032032882869286655,0.0014047249504335652,-0.022189111362001888,-0.013105521529349358,-0.01952862370137867,-0.012212474390767772,-0.029547550310709537,0.03408248708486714,0.004725008556316849,-0.01097117807677309,-0.013021670862320343,0.02492832103863115,-0.007400594346003295,0.023844580527340585,0.03374132325834082,8.706177204883774E-4,-0.03362045932024175,0.0032852313778518683,-0.01316112017661486,-0.00843474617973376,0.013122386180740853,0.009780570851606551,-0.0255425008633417,0.011821980271978996,-0.008688611391914887,0.008969209570246113,-0.012794693276992475,0.004170237560391008,-0.017845931755910108,0.03550479575111892,-0.006378202576919638,0.007120516690858256,0.005213156276528678,-0.02944819797544712,-0.02013548104123454,-0.03067566359365102,-0.017582917506841416,-0.0354206074090657,-0.005527327905334826,0.022204756341553,0.02608330814016535,-0.0028103583305739144,0.03252545642014998,0.025373260801069518,-0.011735186765126573,0.006076304553516923,0.00987749439867458,0.024553329084429965,-0.01664653327179961,0.031231003635596513,0.014607273294534269,-0.01777501944586859,-0.002270609837367575,-0.020376384459670525,-0.020642437505351035,-0.02892665379976672,0.015047392921724054,-0.008788562496877967,-0.03369244778650921,0.030996828962063117,0.02778553991656319],[-0.02072262865455926,-0.03247625882816069,0.010477784978122255,0.01780428123532768,0.012475124329003256,-0.0026097180897853844,0.013969711997692352,-0.02912283495441293,0.016855096830444012,0.005005282963842711,-0.012819092548642701,0.028170340749151708,0.017843854397449604,-0.02286667909414213,-0.008264434291725424,-0.028532190756281675,0.0289385465524785,-0.03490270313285567,-0.007473556584673413,0.03141986593250873,0.011469758654500235,0.00901795695385134,0.00513851116551279,-7.666710494703529E-4,0.006753319163311272,-0.021361964157242477,0.012734698828864457,0.026309797275791736,0.006865119937266168,-0.012685449216516287,0.01889589108539155,0.027657909433024104,0.02599005367350213,-0.02108715054968014,0.02652617208675262,-0.02225680057947003,0.017959704493341513,-0.020853113887945886,-0.019786130575394013,0.030366027427840215,-0.028510932265459737,-0.01376115462996073,-0.005335002445156675,0.021459995104836656,-0.011535379341248358,-0.02081078393657866,0.014998100506513337,0.025380095966633865,-0.016146797666988462,-0.025972880533543706,-0.012763069463032406,0.017016098496378407,-0.018749688004576333,0.030578610400182615,0.016402722008512012,-0.013220776534979946,0.03005356943735362,0.033119438794559745,-0.0019519567104714203,-0.00825933362723476,-0.03269660087613462,0.009196620848706061,-0.030253274155947592,0.03252026670269231],[0.017950101865635906,-0.00237517912896731,0.013387439501072,-0.035210193735117766,2.556913055677718E-4,0.029188558197300547,0.018540977768898712,0.02932517854275258,0.03536306720706838,-9.471271440229284E-4,-0.00831700888833522,0.015414997924020726,0.008907230721987782,0.016874413880092563,0.008512076747961108,-0.01231847325849913,0.02647453523657095,0.004826510352649693,-1.3514791274622199E-4,-0.022578275545550267,0.029450956528092057,0.018062573144460747,-0.021347944304253897,-0.004996915053494897,0.021910282025743067,-0.013457687614363627,-0.01560568672346351,0.016793724569667694,0.0026780226902304778,-0.03550822902547604,0.014751503284348304,0.024283038091141,-0.014718870763301369,0.02406115940639758,0.029915604254344974,0.010172602792593315,-0.00641438048332,1.2674540237668706E-4,-0.029840555296171623,-0.026570416689794277,-3.2298096886133686E-4,0.02651168755376472,-0.02365463010859343,0.016882549587207044,-0.005619363833004059,-0.014109838518478173,0.004941815384310718,0.022616475503191107,0.03546427879395599,-0.01656795865838008,-0.0026425921363374644,0.012189880036132455,-0.01027042782752536,0.03355626321511621,-0.016103857768202254,-0.013733145334953534,-0.012834905885250983,0.03427536676607548,-0.024636875439932038,-0.0040842903094183225,-0.019037680628402744,0.008817417832870449,0.006022875600693208,-0.0029970815200065183],[-0.0292303680137008,0.019504473253768796,0.02594527378249674,-0.03447994438150959,-0.030491189780955757,0.03282041433235233,-0.0012319009223326388,0.019608320521025124,0.03354554748128805,-0.019927435714844646,-0.0288688239405789,-0.025081442953424626,-0.01086671551094639,0.029326544739788754,-0.028933368803756417,-0.003378379734860532,0.01769532704217922,0.01851545606728219,0.007320115712630232,0.018150062643946425,0.0086737359062563,0.02536376549594026,-0.03435687594521462,0.0164647660815211,-0.020073818045279006,0.0241664788513437,-0.02560604798493671,-0.005129400850726844,-0.026577261012989475,0.002524963696852789,-0.016828411775916548,-0.01570362710745405,0.015425817716197847,-0.0028519647996407033,0.007539957627813485,0.03250624505629048,-0.014571374559391859,-0.028933660651409246,0.025893798077314154,0.00792236465547637,-0.004548336683648473,0.009365307756800223,0.01402919306405612,0.029183264704785928,-0.0020039202035283927,0.0282456399905487,-0.0024172569661592026,0.014668020031874578,0.031312558385252605,0.0014418162770901053,0.0064794234495612136,0.013696630383668536,-0.011049165832861394,-0.034088598828595794,3.086956297397303E-4,-0.009884586954366526,-0.004620907495929455,-0.01046343665236364,-0.015154104625323088,0.008063825694220959,0.023661813802148282,0.010211512801120037,0.014894090112292258,0.033181718329003164],[0.019044440600009243,-0.011874628007789259,0.0058118356537485505,0.02463936637834637,-0.00618599447361366,0.008432248365344388,-0.030199525062519057,0.011299525726157451,-0.02315670239803521,-0.027313878942276604,0.02467912678997492,-0.00952022536620785,-0.021360355610273066,-0.032735344627415265,0.006762303764118658,-0.02553966090774089,-0.016206340278934108,0.009799075900706278,-0.030140394305153938,-0.019065542509861286,-0.021113253050195457,0.0075094509389002475,-0.016374859885033424,0.004739550640001453,0.02231185466741911,-0.014255141222043933,0.027924567883961603,0.019437925184272984,0.00594685466695684,0.03237445043302333,-0.01301128426527215,-0.018507376204451673,-0.02423438659711269,0.02539697447465683,-0.007829923332980897,0.004050238792065635,0.026421014236618752,-0.004195743244534145,0.0022553116788489986,-0.025444910164094954,0.006444136414606108,-0.0032228304500328936,-0.025915777000422278,-0.017993173835185013,-0.005454142193975791,0.03228193809125816,-0.02203040749956484,-0.00436394225797036,0.0192956640557026,0.014499087149299688,0.009245378454792286,0.011396003689425385,0.0084731035975467,0.013113867843387963,-0.03223534054063204,-0.0011906953612415877,-0.029359914522005225,0.016039928059997606,0.035608997992068805,0.009796753930228734,0.0013957626029358586,-0.030791124824749272,-0.02034241306905864,-0.03256552267831992],[0.013207069626103907,0.00263702290003996,0.02571202189923265,0.007566519388817972,-0.03219991544005742,-0.01892284027056326,-0.03399078407913084,0.014126757424133836,-0.013292705139679728,-0.01696526012998885,7.524447610314947E-4,0.027040163138510563,0.028693674393654466,0.011774407326373897,-0.023251380296112692,0.009678983887875667,-0.004712786686750839,0.03330717830950657,0.029501648310840765,-0.030384460543350183,0.014660245695121477,0.03351657138602228,0.016319842301155144,-0.011016889580876972,-0.026067893874560932,-0.0247321892777829,-0.024278621125919813,-0.018013146582868605,-0.022265707355945415,0.030833599650019795,0.019808506520277522,0.02842644943508888,0.020882137010327997,-0.020451327777963792,-0.010099914830942627,0.004929786209847107,-0.010482431398790444,-0.01901242532723469,0.024420146588562324,0.021381002900116075,0.005269007325064562,-0.011282622091088688,-0.026733772042824677,0.011613888648806192,0.029387819582676278,0.0016664181063038097,-0.012517831427190223,0.010547035730735264,-0.022962050632322158,0.016514582560128728,-0.025821012131356156,0.03170335876747881,-0.0012069366639177062,0.0166785969129934,0.005712704625593835,-0.03194507066160233,-0.004494516371971418,-0.03141982780711252,-0.005146028280239055,0.003935948570477148,-0.013089549842783463,0.022517160044311535,-0.005928857850622003,0.0035150152763764554],[0.01076054822484966,0.005036487963796029,-0.01004706736144165,0.017726891327030796,0.0022344178201141713,-0.014910047399611428,-0.02820927759340811,-0.0019377061860523473,0.02140230628309165,-0.016845959104677555,-7.191893821733812E-4,0.02220184027583297,-0.026055396266015756,-0.014801384131115702,-0.02180630828751443,-0.033985672540632866,0.03567934136283099,-0.03524626622290096,0.017547669065014537,0.027491428137718668,-0.012381764252845451,0.034920378548283865,0.01588943965271253,0.03504632571302203,0.023809280670491022,0.005142443775928041,0.007724571137658691,-0.01616568060309649,0.023423166756890122,0.0049038173862471935,0.008241780769979548,0.025073157205784694,-0.0043135712601639065,0.029664589187310724,-0.017620472570936272,-0.029535814830617402,-0.017215140721560454,-0.022410281102483085,-0.009865597912000248,-0.018971976485047972,-0.00110072081379193,-0.02104775344849219,0.023808268288944594,-0.01302963990341787,0.02166347076318834,0.0020825204752816157,-0.016793643750065042,0.032584663558438885,-0.007305918466037056,-0.0067578798036819765,-0.011225433343751128,0.014821893071858525,0.01214864058069326,0.029969193343927874,0.024586608270586903,-0.028272888765184166,-5.0829698648748226E-5,-0.004586595763321211,0.018674832225626315,0.0346018658893111,-0.028063290069818413,-0.027903293797825135,-0.021129059474338414,0.028356736078007354],[0.028510532361693913,-0.021170909784419323,-0.006201122919217919,-0.01192969490636334,0.03339794632615106,-0.022966435365705615,-0.004772609217196006,-0.015159414131049494,-0.014618108274147064,-0.03322235636371144,0.016787273532918066,-0.022254606749314444,-0.029630038234778465,-0.02163061550382024,-0.01062649072872406,0.0025479064910945504,-0.03202308481135412,-0.01468812821306734,0.028242905278605002,0.014549866234516855,0.03295631893627456,0.004435152644454915,-0.023402684102076306,-0.020149718246188764,-0.022644594089510764,-0.019432389718325265,0.03245430793567668,-9.305229933695741E-4,0.0013236398760922974,-0.023830444067211843,0.028422410411745716,-0.006796292846472865,-0.02663462856971629,-0.013355189759105632,4.740797652215689E-4,-0.003029606143278058,0.030204805745029283,0.022428312768228438,5.17671555564433E-4,0.033645169849182234,-0.0048157547454592475,0.010847878047688886,0.03565284292252153,0.029836684925947668,0.016530114927048613,0.002747624257000623,-0.016976572889274757,-0.016820804595740636,0.017181175660164295,-0.021917822640020502,-0.023985117988001133,-0.022310924840425326,0.02617972529829632,0.01685864464059614,0.013751683841971863,0.007672664355417127,0.013593643293804096,0.022632119405009983,-0.017138362987347142,-0.006982464673757,-0.023435072437721572,-0.016178743014229603,-0.0302819944486295,-0.010695230895051826],[0.00908316717218089,0.004831995971623339,-0.03143934990822501,-0.013125394867017089,0.003888748687464186,0.03435977716213132,-0.0011088083057615675,-0.0033810298076788954,-0.01847945762710133,0.005140736391010005,0.020048961666825047,-0.02028083908687861,0.033222007499241535,-0.022159742464571704,0.014761220535258253,0.0223667322711336,0.00120818731354532,-0.005439692568511734,-0.0075628770634614175,-0.015299632631742006,0.01595955981192894,-0.019670808076281233,0.008468748429585749,0.022904134003509703,0.008604338670016325,-0.03037679870726112,-0.03504284774453,-0.03392844263094298,0.03136435237597637,-0.03482669132213274,0.02252517881614673,0.025045433345899988,0.007613834379825815,8.887545733490661E-4,-0.01635944372699466,0.004709464311612264,-0.033236036046400595,-0.020316952753523757,0.005152334999414515,0.01270613176493483,-0.03063265405233774,0.01888801154929096,0.03296974906507667,0.034857132574204926,0.008821573104245957,0.003645184831090101,-0.0035864111767310936,-0.03361756604241509,-0.026446200033231202,-0.03497168348677359,-0.017682410186047184,0.0340659289746581,-0.01812540768979088,-0.02103854038592382,-0.02769164598183157,0.017799687592472316,-0.010629278414760404,0.02425449296595898,-0.014867363840933337,-0.005259294829675203,0.01576289365480858,4.2438049787194406E-4,-0.02342679585852355,-0.014366175058353628],[0.00172865403326384,0.03126348794045059,-0.03045802602952486,0.02354922849580715,-0.028002955803053134,-0.017358637529315806,-0.026495618432785615,0.004638385065640143,-0.00808274367649457,0.017069360004912507,0.019757797950510914,0.004242806949752407,0.0035455823908873297,-0.006881649604071298,0.015830709515884157,-0.02163313824603068,0.014083505650327581,0.02342977227875205,-0.034468957501847156,-0.008422210728370278,-0.0014796583786544518,0.030799825604403697,-0.017619804483937875,0.03210866857305094,-0.016127527209958914,-0.02664057499688925,0.014752501136402425,0.02188485890143724,0.03303885060618814,-0.02420938759810402,0.015283639436037768,0.017657034991353467,0.02772396108913876,-0.024758390245035858,-0.003555241050143186,-0.027738462195853422,-0.02360003561636754,0.02527067150389498,0.01860141556835136,-0.003472869212216892,-0.026538830191148142,0.02733474256391975,0.013531070927659657,-0.024636635696626663,-0.019005395203666682,0.019899734064307173,0.02668814652863764,0.0032427289878277127,0.009236115353396166,-0.035529240998210275,-0.03451834595165244,-0.013945105117384575,-0.03562652099285099,0.011437246363210148,-0.01724713989533795,-0.020404590227956137,-0.015674875881111137,0.006599374022138916,-0.009776451114300437,-0.02881830492034618,-0.0055349095512025204,0.011588757616428112,-0.014070619655430794,0.00292319927021939],[-0.014018032057659247,9.75121018760556E-4,0.03541448398012609,-0.0027040833696625227,0.0067944741880013315,0.022804222568521326,0.011600216263382606,0.02074122616150206,-0.012729467894064697,-0.03235886703354453,0.0013240751394603043,0.009025175596361202,0.014695974831623024,-0.030389206791992123,-0.015282694522672105,-0.03522874034068022,0.021513164158598313,0.004292301317177513,-0.013148660670403718,-0.03422552691304607,-0.00862949412621491,0.024062690175258337,0.03229143639771922,-0.007582974278561717,-2.9482814296292813E-4,-0.018399621657631798,-0.026220992776886592,0.022308045436367035,-0.022362267157831888,-0.02039495255621976,-0.026634888018516354,-0.02126785036936374,0.019388738461469775,-0.022059242719613483,0.01650791095648806,0.02804370799795618,-0.012909216180818384,-0.011637151897394964,-0.02021641682267472,-0.028786654880808574,0.03133673699283226,-0.008253616542778959,0.02237191040884311,-0.005107699379143357,0.012503912134117785,-0.005276684565515071,0.001793060865065294,-0.019534306607001204,0.033968305999180284,-0.012428614778674352,0.011205213964172669,-0.012953749574599683,0.02662929740642549,0.0016514235335203162,-0.001076303640324429,-0.002355941860978396,-0.016724817077077316,-0.007338711129888336,-0.02502314391111344,-0.024593027534089228,0.031233408139661505,-0.03310738394585824,0.03447207751155125,0.004574627518697749],[-0.018962141518161547,-0.021316146393181967,-0.023835829875470893,0.002912289638093154,0.011794817284837118,0.0012166814527998346,0.024040809719351026,-0.025396510965218833,-0.03517519327160215,-0.004582623663684757,-0.0014628379831560432,0.02488214841488143,0.030285340106228565,-0.012714568561749786,0.01787849659023167,0.02293336421298751,-0.001731869132507169,-0.030378055785398577,0.010454217693536834,0.020643814428881396,-0.007972217059077595,-0.03013040690917168,-0.013950858980839729,0.025923982011048015,-0.0077482298324332444,0.028747626021136317,0.004341012026821015,-0.009445148373327383,-0.0023763540077390167,-0.02828819602604378,0.02188854105938436,-0.02473992549278633,-0.008780149347396404,0.012705058449214053,0.008167370270626868,-0.02960070115196094,-0.005484530885881768,-0.021381692273281783,-0.03150899536788812,-0.006394661093564307,0.0338127902021141,-0.0023618348675213713,0.01116537369032989,-0.001296033651631913,0.03203428369938755,-0.001923812161132267,-0.00917318594184601,0.027646343562236837,-0.027961278944241195,0.030638735848091958,-0.021825140423830665,-0.009621167243799751,0.01306834514476396,-0.029306923437994837,-0.008909109180988544,-0.033426720887906,0.008187840881929698,0.00648544223106412,0.00200250973673657,-0.012057277507314279,-0.003796428779885333,-0.025529561575720075,-0.002974033764902549,0.02333014057363681],[0.012268701540441889,-0.007510086567431398,0.01818064945793614,-0.006261725520563548,-0.022813860389590046,-0.034506951810804605,0.027963561886144413,0.019538341249695015,-0.013683123299886546,-0.031753299756574614,0.02436908164070183,0.03296878784903257,0.02498627385032387,0.0307601213494088,0.0326117917644372,0.018569232831231637,-0.011644967125269672,-0.03505880700838873,-0.021213877725830024,-0.02761044488098723,0.022742219464121836,0.003883504422814662,0.010476160433385473,-0.01661619397975895,-0.010502287707466203,0.035298047196565596,-0.0015164547066469397,-0.00551376817711145,-0.0039937134377002114,0.026521265297324546,0.018085210891589154,0.010757899479215816,0.012694119250561717,0.0031098545323031135,-0.0038626555948692415,0.0019728738142009944,0.0285719910420985,0.013414976240258296,-0.006664225238122331,-0.0029173656303332586,-0.009112068941857763,0.03057153781236886,-0.016688136230149513,0.031013641628145783,-0.0016958341463012242,-0.003243876817240246,-0.008013166397140812,-0.03407018883309157,0.014516017404631487,-0.011925562616421826,2.97782404953579E-4,-0.016284965983914792,0.026108171036327517,-0.013678612520755829,0.019616723207271734,0.01971485965416625,0.01326793735141749,-0.013885857204561614,0.007624368259172731,0.008292699530615311,-0.02239700447675878,-3.2632330730425485E-4,0.017358410888782958,-0.03292435989971389],[0.00631379024943859,0.018251792396102876,0.02077503643273055,0.016031099285852668,0.017777209421273206,0.006011480607278907,0.006156158097235472,-0.018843159442883426,0.0016366132816117665,-0.03236000233492771,0.0017780810761770197,-0.015131373169796403,0.02247825010133076,-0.026322275155130238,-0.016427424968863315,0.018989682483296633,1.054472829583359E-4,0.033195988574064875,-0.03222697567609585,0.0030122018121324485,0.025585468226412975,0.014910709462842111,-0.029253474894545564,-0.03570045311512206,0.006353841884790196,0.0065045552461970935,0.008795895799749629,0.023842495113943284,-0.02999688941593904,-0.0035802925958889737,-0.01789768175976363,-0.026068772674512804,-0.03361436780383188,-0.008752317711840858,-0.003687545181622382,0.035513797344432455,-0.02296203938876952,0.0022249908189985734,-0.0060179381625399654,0.025938711436033577,-0.0017415196625256621,0.031957731990153095,-0.0038287805067689757,0.0093668551708641,0.00944065625237906,-0.018369461240711094,0.006230209110341072,-0.029042220118890856,0.014338450593504597,-0.006108938407592396,-0.011066088684021678,0.009130087746785285,0.035532563264877214,0.004483490089825308,0.02290215287731774,-0.02223456945148866,-0.00566678981323462,-0.017752483389414986,0.01839804347950272,0.003598951720906811,0.03398293310859123,-0.0076970994768778235,0.010411617174100487,-0.003926963223619144],[-0.028117094752863146,0.03538982135764152,-0.021587921261610788,0.014768878259437313,-0.017627489155414105,0.026003265859266565,-0.01928271621334106,0.02031435352080818,0.029630537006624505,-0.012568837927976917,-0.019773513157964693,-0.03445991046757582,-0.009463110116924371,-0.008347460729242924,0.00786338956082091,0.0274752957117476,-0.027306233242225433,-0.01515500184126559,-0.025233148268442203,-0.033887393361778734,-0.02817421939787444,-0.013581342483325343,0.0040461585662315514,-0.020130537496129298,0.011174254464734246,0.016751101127376027,-0.035070528941742694,0.010332601319254722,-0.0224427997623452,-0.003855691284507848,0.02780654213998731,0.015906315172484076,0.014483609341071131,-0.020753870856635926,0.01799989404060084,-3.201823543415345E-4,-0.01934009064326805,0.016703970929893903,-0.013764606281947294,-0.030243990497455985,-0.010449376077754853,0.026289905710602815,0.020437720244267685,0.030442964897646186,-0.016216913118630428,0.023440075230497775,-0.031922739024170255,0.0215291907865519,0.024260290535511056,-0.02248430290278359,-0.007729077468749004,-0.03108435898224592,-0.012133439007957292,-0.0034533838110985854,0.033904672128052406,0.01173290950548304,0.026760724214868428,-2.386292238602935E-4,0.010485911690505103,1.5966710863202227E-4,0.017879186448110342,0.013839933914410525,0.021677628295385457,-0.02837903153054589],[-0.03372583147116765,0.011261166046368239,0.022942297397919087,-0.0034029760870818277,-0.008281335100823921,0.011642110558087773,0.015288769907291451,0.010342711845480182,-0.018237468131984805,-0.010419350555913294,-0.00494429465693503,-8.799322430973318E-4,0.021837550628843436,-0.024783273846331243,-0.0013053454898693329,0.003365697465929946,0.02836932631955533,0.025091763558600162,-0.007793798388263875,-0.02159017921366915,-0.028696986092314546,-0.01908902941452762,0.021805016444454022,-0.026923698305514172,0.0351313037067379,-0.02035804712836687,0.032972789233779685,-0.00941942038503588,0.032426540951077436,0.030015292042676903,0.007873327915974464,-0.0011092115858878846,-0.006118315130861402,-0.014928593083807316,-0.0052770163019320105,0.001983481052497912,-0.028900274736844977,-0.010648254444473473,-0.007153778802772308,0.012066637098427535,-0.011447452957424505,0.034089571178998426,0.013800795340997436,0.03300157869503531,-0.01645627133616315,-0.0285406910493718,0.033557972575559564,-0.008881893399872085,-0.022344592260841487,0.005307801365975037,-0.01672934201052463,0.002811895853066142,-0.012819981764471482,0.005101665028331949,-0.03191525734117086,0.020168633010095503,0.017719011862758396,-0.017917813840249715,-0.016682181206774543,0.03208989927062003,-0.029098609152465076,0.007537145338598386,0.015144758221118913,-0.023855913350385536],[-0.009536664552478749,0.02839197434135485,-0.002737291063448047,-0.021511027302451982,-0.023549138839709143,0.016419140943692748,0.00300201661283669,-0.014289088604532658,-0.014225444753765748,0.03140763513035694,-0.0017102020758460773,-0.002415364083767619,0.014758884737740736,0.014195310302615765,-0.0352403345457435,0.02500599182247054,0.01040284671626077,0.023973984954706522,0.009848484658742314,0.011258948088458143,0.02466077203023565,-0.01855471103309904,-0.002356474950121891,-0.01836626440899788,-0.004123689696766765,-0.010480446041781943,-0.025173511908773583,-0.01664231833111116,-7.266865990761459E-4,-0.023689078439891605,0.01601903260208135,0.01626292712450399,0.025552910389779304,0.026903348789814246,7.39038474549639E-4,-0.008261423801654717,-0.005404638371527389,-0.016398372633355886,-0.025686498428038294,0.007584520762613439,0.004303730534760059,-0.015146974372397187,-0.0053942591174505694,0.0322575561778554,-0.03296006258936294,0.009300321432263003,0.011015555741528389,0.0251058509720669,0.012177980043678418,-0.020780076321040626,0.004758416814580303,0.008096898837300612,-0.024108820544624477,-0.014518937245414976,-0.017219215706203595,0.006399498813289352,0.02982879053663947,0.00984783291346727,0.03325180140130238,0.018553698098668144,0.018822304318367875,-0.00292184100017446,0.01838687250876977,-0.0238605217911141],[0.027050216799332265,-0.01686191034078548,0.02897753371364645,0.007835466094039028,7.53566623682795E-4,0.0026607527416367006,0.025852994754593715,0.01925726852278745,-0.004938357932990942,0.03567929121485645,0.0037247606307632525,-0.004875951460222532,-0.0029564419819000137,0.02493832496120986,0.03246673554774402,0.024121757361926302,0.021032856508866913,7.385221268382654E-4,0.017002066307382886,-0.017830989688524954,-0.010135741786765746,0.018865425986637388,-0.030395285980864842,0.01521850652218874,0.021200279343748105,0.020125240959227266,0.00757832329917561,0.009671654216507397,-0.01124682619495419,2.1393047883136053E-4,0.03209021215199673,-0.015910478229368853,-0.018932390147721783,-0.03534673124980544,-0.032442779506529656,-0.005564876994192677,0.03562155550748273,0.035338278546273805,-0.026026026918733576,0.0022946882634024795,-0.0023872016949779773,-0.01285936386811406,-0.027342708389883823,-0.0028868466907855063,-0.030502274850897133,-0.0035694390870346327,0.006195746487500946,-0.010558278658594045,0.00770892002630146,-0.02168444394829644,0.028797952555013516,0.016818678284964052,-0.013001183010524005,0.0044194683458100605,-0.020558670020504415,0.02718869155982452,0.03339510112177191,-4.317086880223126E-4,-0.0013366333985589396,-0.001860878858279656,-0.01904719571501193,-4.7571536356116087E-4,-0.01806160913406813,-0.01487689994702839],[0.006776540124073868,-0.0013685256300053586,0.03263034134096807,-0.031751875131636555,0.014592679106654776,-0.031239235169783185,-2.084637143828703E-4,0.02799298580799281,-0.030524527062975156,-0.010728501160178617,0.017732101391741726,0.02537488382930775,0.02088753743071803,0.020410095559519528,0.019599911306976612,0.020194047867276195,0.030840689842843785,-0.03464075036605205,0.004758410022510333,-0.01082206278806622,-0.022710431878463815,0.013319216792585431,-0.029042207565822542,0.00413112596561296,-0.013019673342187121,-0.01959719018736027,0.020021022812024825,-0.030001103546613162,-0.033109742984126785,-0.03324204489392837,-0.0042756691645146295,0.018358018896675907,0.020539805888703203,-0.015661039311965122,-0.028115031678263076,-0.011028483757662156,-0.01659232056696215,-0.005584435094219028,-0.022622836146462495,-0.03217173815362182,-0.009567473190953602,0.02723755086944081,0.022880334560698934,0.013104448477319253,-0.0018589510693494521,0.0239764075639459,-0.004092490916563655,-0.009267723586864134,-0.018554837254504044,0.02885842124433061,0.030352190030592988,0.0015988206250284265,-0.03225704624554745,0.010143073329223642,0.034428589130882876,-0.001460759985817628,0.015782314268899436,-0.02628507194611951,0.03360621305773919,0.006090368646552855,-0.020483111450765517,0.00968951768729976,-0.004187853145681787,0.012290496214197515],[-0.010670478965978843,-0.01941620902862618,-0.00234952457095717,0.028220159798485134,0.03451908580442303,0.004983981256033403,0.03409632724253625,0.007477149565556149,-0.015300620634016548,-0.0010275748775763441,-0.029937593441546322,-0.0013478138497351386,-0.013399196853951467,0.023135669516174826,0.008979682006446197,-0.0023084630560753967,-0.011874508329785847,-0.025659369462227702,-0.03177577834706566,-0.026200993550326058,0.030527255848336772,-0.02708076080689052,0.03243029211182085,0.03367089334039919,-0.016302463077598344,-0.015412192975246437,0.003455858730962229,0.021516591882762264,0.007309318213403787,-0.00336889888172812,0.022867622006750885,0.026494376836643248,-0.012283488185381893,0.011031129265245465,0.0235744302310415,-8.276091878325817E-4,0.02702703341675793,0.009031551793702186,-0.014053898697174636,-0.03559109972324876,0.032377693580103374,0.02495727710107444,0.0018377634492586859,0.016776348515810224,-0.0012903374479906748,-0.029473246400109048,-0.02688767354035182,-0.032240801742975174,-0.017011044387056338,0.017258900434919906,-0.01048463563542505,-0.032849674950825754,0.0318369974880672,0.031030302396338843,-0.027320835521819298,0.0014975977025783141,0.0193605524796813,-0.026333069678734007,-0.0328127781352311,0.022968502799455004,-0.022401891980475208,-0.015484459477539323,0.006017238014437273,0.01117750112766327],[-0.012997426857629064,0.030232818053974105,-0.009414793543982176,0.018358517358731737,-0.032670612944635274,-0.007873087927776277,0.005035628849881052,-0.019522549850079854,-0.015519518797881706,-0.009856765586313114,0.0017917731017133168,0.0077530402875628825,-0.03373193833423698,-0.021852760345739693,-0.006447725659612023,-0.0024116273320555054,-2.92214114765575E-4,-0.02776442841674041,-0.019817836914832774,0.02682440400683067,0.021471621658410267,-0.02188219575597579,-0.02984550658553292,0.0070823103759883555,-0.0027594618161748924,-0.02056032837073219,-0.01750377977069353,0.026763425428480408,-0.02796069363727277,0.02197951834907664,-0.02056420037055615,0.013166633583949506,0.01935272301434895,-0.021057330590673082,-0.003573973520485282,-0.02897924426737979,-0.020942446186883092,0.01010351384137072,0.019209453289640473,0.01808493175130778,0.024385795672452693,0.03230238923661777,-0.021465944148469418,0.030057578758567183,-0.035165880351457283,-0.013492008262785038,0.020584913860549937,-0.002717146209004817,-0.010562865571276954,0.0315918883999347,-0.03482625791202017,-0.029633113268537813,-0.0025858254572913492,0.017129679227079253,0.012793338213563177,0.016528643611453776,-0.03483359144990336,-0.02734226441817925,0.020084325830888847,-0.005259273311573791,0.03137170095326444,-0.029696137726490646,0.031076890891430484,-0.02882189188372214],[0.002641741856729052,1.4603466866393498E-4,0.014474716234531122,0.022901733303669077,0.005155179826781803,0.014464198883092177,-0.013329158069527176,0.017059460917694454,0.03286183258265865,-0.023192622627814317,-0.03244605022740995,-0.009097003541965742,0.02740946426615521,0.023073441789963532,0.021478931118885332,-0.005403675665181851,0.011733044524444187,-0.009693861285039731,-0.020962720881485018,-0.020156912648973003,-0.026018575954697816,0.02322482526581461,0.030756715654263942,0.022787233182721887,0.018280495371733985,0.014331014681663834,0.01729975471331198,0.0023003048054177234,-0.021968783000376815,-0.014931886887383155,-0.016453792047583658,0.028945626033103234,0.011729284627743086,0.030089389280341303,-0.012436542805293865,0.007032996961343256,0.027813961398644265,-0.018642790864545313,-0.025823463996066266,-0.0020385004172186073,-0.02905080651692945,0.003553815779887662,0.02236169582164034,-0.03393573844701559,-0.02401779676973873,-0.021440971867208034,0.027431076419911864,0.0284173008014587,0.014756132860842557,-0.011171054947378268,0.025809185549982943,-0.002444951101082845,-0.003597470214392257,-0.03260803261550788,-0.016447073626692985,0.01503352832077,-0.023436341307994504,0.0030071692904346603,0.02106435534544593,-0.004273178976322852,-0.029091828263785882,0.015662250764411093,0.021403454016891445,0.009062322974634107],[-0.003836439642185726,-0.021404386957714832,0.01108425610241563,-0.028762204168706472,0.020552341200664872,-0.013019243196807861,-0.03262563126184434,-0.03103835575200905,-0.005014008866120784,-0.025402984555692808,0.009201050756153866,-0.033868928991078295,-0.0147872534376066,-0.027485657873541194,-0.01591765972830188,-0.011317368214163015,-0.00952473026086037,-0.011958586678177055,-0.014665141766559886,-0.0032413588520144227,0.030397739967507886,7.828073662569497E-4,-0.03498197457499266,-0.034097277357389766,0.008788972664034967,0.011336913654747878,-0.008485201045265376,-0.004057510826045964,0.006533098516988594,-0.034487309837408345,-0.020821476544587856,-0.023891438957600087,0.015742166520983748,-0.001334997013360801,0.03395155675573517,0.029205308794964278,-0.010420103321297287,0.01513046039215394,-0.01528769837492766,-0.00656729530888068,0.01806153603018765,-0.006068441961816582,-0.008952392846592747,0.00633206194434281,0.021119636674646256,0.02247770154237386,-0.02296586077094199,-0.02585185421533436,0.004871264866635892,-0.02364386214898513,-0.03398298950682869,-0.015476522463749254,0.01247135187737546,-0.014526261283478614,-0.030989430758048296,-0.020561024682053078,-0.01138173863100431,-0.0023606924797909185,-0.019356241581267402,0.03440271307158708,0.009548288653967825,0.013022584498830194,0.004387688313025995,0.03192258472397987],[-0.006069953693432217,-0.011780868034693763,0.005993422425697947,0.015136283816823533,0.03301888648113439,-0.0031103661047720316,-0.005081101959886686,-0.01031536736664195,0.003612876078541335,-0.014871981098178626,-0.013392872467553432,-0.020069536469178275,0.01190822840873585,0.016702158092140974,-0.024778360461862912,0.025159301400197103,0.03171197773005916,-0.019610365803723707,0.032563998066320904,0.02244999650320957,-0.010509604551146055,-0.028343860292775913,0.03010638308478995,0.028330337208322436,0.011412931258368808,0.03532418980429513,-0.028344623669874492,0.03542031689660264,0.012465046743209885,0.021797814258907835,0.024121198754056238,-0.014128844203549262,-0.010865386505471015,-0.033155292498418004,-0.028228707903046466,0.013388691374477624,-0.010588499204407036,0.01103386408737868,-0.004801932058884929,-0.022871967255334396,-0.008835807381960761,0.0011125399808709158,0.03288529347678076,-0.02195168260534783,-0.034772056037171734,-0.009547072591590504,0.020715657797505616,0.01713611500939939,0.01847029069970554,0.02206334257968955,0.023023851079381208,-0.020470606151112354,-0.009593823634675598,-0.021601907934495766,0.02500758679881902,-0.005284876061948971,3.3050218247836807E-4,-0.011256814971733316,0.02189216828548343,0.0020611852526982006,-0.0038647744150574082,-0.03126985507306479,0.015202337889254758,-0.028451219852497416],[-0.016162006155133735,-0.02960541984876418,-0.032028839775895844,-0.0225909182030942,0.03265568657347639,0.0022927256220769488,-0.03557616694367113,-0.01684805314290704,-0.0029338000993570246,-0.019625023412493454,-0.02009968357650105,-0.0155093059728925,0.03185809951303196,-0.008409458971887163,0.007810268720477536,4.8666970711343433E-4,-0.029900785386871288,0.022133203022379835,0.026532610099325827,0.017146418888050675,-0.01273847054329568,0.00654895281385019,-0.00819121289008757,0.01455969651530021,-0.02686455537759131,-0.007387867799610473,-0.004952374175340699,0.005611342707433107,0.033794205906747046,0.03279465896189522,0.006489306338319225,0.009905495647531737,-0.022699285516838814,0.03487446109355458,0.01008047955479662,0.009378234969284614,-9.161645147514527E-4,0.01746864670154556,-0.02295063897709204,-0.03214121124807512,0.004521252737080459,0.021034187284842257,0.017538410118811732,0.016998481953732856,0.01582230459392242,0.03543970228382693,-0.020032438657492227,-0.013050809377969255,-0.020764427560295062,0.007290661443812454,0.021776934328328435,0.02051072314044376,0.016912357012255574,-0.0019274936801388126,-0.03287959760000183,-0.017249459294026128,-0.030275721578179503,0.020719232508436967,0.02552169487340391,-0.021384545280640495,0.024389564029331155,-0.012581387645768088,0.027605698710078397,0.018803231716397195],[0.02454587849894196,-0.01554516996298382,0.025501798429709406,0.014881173713535254,0.018053600572355614,0.03133464982403565,-0.022226611080301936,-0.019036104302615577,-0.028596468840734482,0.029939490533307526,0.007028555450766181,7.76804931196095E-4,-0.025936705003516143,0.006127239318828825,0.015991637372429285,-0.03207991795610653,-0.011039284041804149,-0.02199196030722738,0.03336303389347467,-0.023366757266233832,0.03476451685319323,0.02701567860473074,-0.01592439672226129,0.0046172629246777445,-0.0024744534218276073,-0.027542967329151763,1.1685470763570388E-4,0.02527954605246143,0.01522092455788572,-0.03186326763764768,0.0040988286404242185,-0.01671738709521698,0.008639936985501738,0.019454678854112013,0.01986945836592813,0.018142532670746284,0.01828390343330429,0.0017857602462311181,0.0024411534167162294,-0.020724945785585706,-4.0214169253719004E-4,0.03189656221629484,-0.03388455518646265,0.016576792176642957,-0.024789106130177728,0.004263130486901558,-0.008447257395363353,0.023145499202721926,6.746209021700546E-5,0.00835976596332196,0.020049000183927117,0.012374726540778924,0.001004512793070718,0.011370093602698948,0.016596036529207936,0.008162608509284514,-0.005226394152060482,-0.008062711237557469,-0.01093919389825031,-0.03297171882384754,-0.029483307103742765,-0.029324363379289415,0.02773521383532483,6.439029426203708E-4],[-0.007113219539867091,-0.022521545579062597,-0.03099907889919682,-0.003256835633338502,0.03473190594946572,0.030176851283058803,-0.012024661938498575,0.02000461151008063,0.01824586970834976,3.1652407769462674E-5,0.02747075448589277,-0.0017731488835333118,0.02567981487861992,-0.002211487820444441,0.0026435576447156567,0.01341659089672829,0.020186543237986205,0.006914617621094278,-0.004128284480783322,0.024062881050331015,-0.016662962960056184,0.003649577281891083,0.00975406973834423,0.01700634581019265,0.025058234810021594,0.01884387082240752,-0.03524367534199609,-0.036152666694911816,-0.00859326997196414,0.012872028543125549,9.632606211039045E-4,-0.012588589891800917,-0.014212508042611535,0.005978671970171635,0.04316381915228667,0.011920227483678832,-0.03081321850529734,-0.023109447268445906,0.03021614082731932,-0.03133280665614453,0.0013901126736138205,-0.024335899006060865,-0.02007631443637039,0.012483603702527704,-0.007615852326206828,-0.010766469195702228,0.009679389578610111,0.023193645097876803,-0.00773867313816759,-0.005659402675141292,0.02480475614900778,0.03215434203829677,-3.9819889288067987E-4,0.027374267089528434,0.01521326674234905,0.012641593365735759,-0.005214445324030769,-0.0016554864051685477,0.025111370232044725,-0.015302598110471565,0.027868668493413053,0.031906142932614616,0.01650994932303122,-0.030922116587673184],[-0.007260125118244782,-0.019931831022139676,-0.03267782538812934,0.021503237690915385,-0.0021142157488209593,0.04123824568703283,0.0173331080685663,0.01853410922917766,0.00630352679032177,0.036753153707148815,0.005015266588710463,-0.021159097783880615,0.021874126281384985,0.0031143896948548295,0.03557076631588844,-0.005428549393397622,-0.019056597515107482,-0.02489972543768717,0.021556214021372155,-7.863815638652404E-5,-0.004622569234219409,0.016506999131861436,0.01710550344475512,0.028797864820184982,0.015084856193732732,0.03913240256549051,0.001264875947202239,-0.026433446158254867,-0.024544221252587643,-0.014639189908192698,0.03244409869025634,-0.015540856652173704,0.017763705989228856,-0.012928067679685218,0.05536174213055063,0.025736716251630074,0.018894714073077686,-0.013178983224734353,-0.015469550770734083,-4.367523132654306E-4,-2.352579838966067E-4,-0.033168079334972345,-0.03273212643950669,0.03780814728811285,0.03026279124525999,-0.034543122049287237,0.022597386044562132,0.020765698038013064,-0.01404014717035268,0.02799704092726075,-0.005268575227012136,-0.006701333175933527,-0.03262968038129335,0.010345229123018815,-0.002272362079717144,-0.022066064660788767,0.03170637327985403,0.024981278825428884,0.018330148534262417,0.01210884038328872,-0.02985018952483815,-0.024415949851221124,0.01052852227808893,0.01516234481342596],[-0.040944888027432354,0.02165574575011575,-0.0012267070143386668,0.013590864956847767,0.014860844270237655,0.05162505863259816,0.017084523812656252,0.010511758080472647,-0.024113465274947704,-0.02037352553699578,-0.013533879322298386,0.004734224668964038,-0.013522424821976665,-5.505964820186627E-4,0.03734654402726449,-0.011106138253311259,0.02851957965566478,0.01213197011190821,0.02779108445215593,-0.014723051560197266,0.011359975016586286,0.023569520110281288,-0.02517522227740699,-0.004124345961068651,-0.017207377131972883,0.0032832777651963276,-9.095626968723325E-4,0.007092229685900014,0.002649025385201674,-0.03430500000024394,-0.027031997830185322,-0.020041772180426586,0.030691087657155232,-0.013049625369629909,0.0482663811342268,0.035069783704925264,-0.025370101717727057,0.02007157692999272,-0.028782472258953046,-0.02433168951019701,-0.01270661917417853,-0.009504498761859095,-2.1144726551822391E-4,-8.021125891837771E-4,-0.024879122513291784,-0.01046336774306755,-0.016487590524169007,-0.007493611112027885,0.027346030636434454,-0.035253856799985085,-0.01522223214777525,0.020974693756141957,0.010791028487080263,0.006971276780938342,-0.018153018209504417,0.017200428721675813,-0.00773493740618562,0.0022892419752375466,-0.019330356926002854,0.01680660949604106,-0.024358643903613905,-0.0012660484890128119,-0.026099958768087916,0.0038406353869690213],[-0.04173812552740403,-0.02190326291489556,-0.004233264601092908,0.03092259384686924,-0.002029296198698617,0.013283158227964042,0.009478547083684832,0.025171948034793726,0.03281430172315557,-0.008911974150952377,-0.016417564620001466,0.010234464511828975,0.03577590235630039,0.03156242594360036,0.014081452438230925,0.018619425226967582,-0.012655184915396045,-0.0047013503452013675,0.02938717688641348,0.03657122848071689,-0.0062152501036766596,-0.021584772889539812,0.011385161866113633,0.015459112427562349,-0.037781052535400754,0.007899374975655798,0.011018281356737335,0.03003317220970943,0.032515231714444585,-0.015359050703486091,-0.03314353483627429,-0.02838296172126398,0.0017476742959019781,0.02452043508403101,0.008522589878183866,-0.023556655966714433,-0.032453393500487135,-0.008390805869987349,-0.01492734365075511,0.01961956557795931,0.028932161223696927,0.00847439089170354,0.007110198813932207,0.032399218901850574,0.029310629229767213,0.02087199556393713,0.026834732248170845,0.01914744995335405,0.009476540919040781,0.003960078455193596,0.004969189701749524,-0.03009475176074435,-1.7506472278172152E-4,-0.012321675893171714,-0.025489880597148153,-0.03285267376532125,-0.013006218886353968,0.019391036718172546,-0.043510260415481734,0.04166877942972297,-0.003132249581585446,0.040263831385924154,0.03735625017398416,0.0048885294679444375],[-1.4785412598893326E-5,-0.027546712644883557,-0.010277007354965008,0.024312740958186613,-0.007509656723055358,0.04437444088724214,0.017808489455907,0.03529491297884741,0.03371101090942191,0.03289825192475146,0.008031502918088214,0.04817937106656298,0.037244817359729794,-0.020218136474110398,0.021659790561515183,0.005765440063775675,-0.00785358148489021,0.031033721169416283,7.642425147062267E-5,0.03926694468992649,0.028782021804880847,-0.03518564664949039,-0.017911540901170524,-0.010911060922159412,-0.006324360627960862,0.03465922456650866,0.014049628483259474,-0.013516407405755576,0.003759102712430422,0.010002447737135272,0.004340424637761439,-0.027421603782858718,0.0075066342758292265,-0.010720638583150343,0.045900320144861846,-0.026930531658375355,-0.002040713520034922,0.012365524373510616,-0.008883184726700492,-0.005686961038226842,-0.00333369292790422,0.024277942497840443,0.02132069677379612,-0.002500861034728988,-0.030472806479025116,-0.0034621330570748284,-0.029905330202504153,0.013027169005232356,-0.015419479850664945,0.029703895904365847,0.031228278775610567,-0.031040934105549516,0.0038853946013179606,-0.025929223773058695,-0.026111056092067157,-0.02119061046862252,0.0192777018980966,0.015560150052478674,0.020347330008899305,-0.02110496804906756,0.02144826207065528,0.019326648763511728,-0.008502669198438131,0.029416502338501113],[-0.03465984140575266,0.015709817039168943,-0.028062208855411126,0.05365241539630138,-0.018422215159856856,0.02686619563041681,0.005281056265378909,-0.02695133575359428,-0.027290973620943987,0.008864511271763005,-0.02678507140473625,0.029261695769999277,-0.03129431392336706,-0.020884628297987717,0.01900561812745904,0.01258851662724384,-0.007205848993398386,0.017613934271634255,0.012311159832521025,0.007176263545164759,-0.025165182656885592,-0.026003908917462355,-0.0012726463740320175,8.546256828575342E-4,-0.030093042838013395,0.024480926922100656,-0.034331045019060265,-0.03065674885576261,-0.004272704166021645,0.014217096170686772,-0.01103742012904803,0.02246210867581108,-0.016088360548539796,0.01602510795673297,0.020959661458774686,0.0202040978744438,0.0023948458246835767,0.020982320873478778,-0.0029222336826095654,0.016545581474521228,0.006996105230968281,0.020918473056764555,0.019322923314105483,0.02242617965278006,0.032454855452753874,0.017385690626923953,0.03192586212028413,-0.02757899352704409,-0.004656900275975417,0.035396138821727444,-0.013791774886682841,-0.05668590388133794,-0.012628722571986117,0.023682507315456854,0.022589034251377503,-0.0336983859158816,-0.028039387719155193,0.034995846288194896,-0.05782796789416274,0.04063845060741019,0.0034896947951428858,0.027577450946619276,0.019460525796049257,0.014728393119557603],[0.016330377016576282,-0.026212487094869192,-0.03462740441450604,-0.016246746272832457,0.018284160171876822,0.03395863035412818,0.00886443739055223,-0.028638100603190112,0.02951731591067282,0.016317019871749012,-0.0011088009992505426,0.03952788964753175,-0.011574048929346914,-0.03406189365885344,0.012076086317272243,-0.034067359356731365,0.04370962228348218,-0.02173453232751235,0.03345072778539781,-0.001274194007393273,0.02287483274829333,0.018592197158387513,-0.030618438865653533,-0.02087535006786342,0.028245561223279453,0.03195391637329677,-0.01214737502649162,0.01073035385676739,-0.00627257694717497,0.020526365070116747,0.0333798937595579,0.005858208670463903,-0.020691171552469686,0.002320375304998665,-0.0012966327315815207,-0.023383324865467105,0.004217849008432561,-0.02014827728636995,-0.013617743786265723,-0.015908658277453688,-0.004612223181375389,-0.01390788921966558,0.01341628123168589,0.008531785918986031,0.030072736267245534,0.007415701662771724,-0.02528436806644557,-0.021835288643325523,0.03618662269423368,0.021303641643514164,-0.019515145410253426,-0.022396412173322146,-0.006228792149960151,-9.96894194403774E-4,-0.03508062075291502,-0.01651604047446581,-0.01780755953862129,0.016900331744607328,0.019138064925299746,0.0059741623873484735,9.083198471769504E-4,0.024496008379845717,-0.034360767304121916,0.009258033994831378],[-0.0382061441355272,-0.007555460906981104,0.022861971368737733,0.05521186508885355,0.03183673845245755,-0.00310625389187776,0.010596101215044324,0.014990830367207497,0.024778422960035247,-0.013659366524831514,-0.02568289456719512,-0.010411176669716585,0.004527789511461507,0.02533862040181153,0.03942724463346415,-0.023187454833426963,0.021184498384639382,-0.013553014840108138,-0.01772063303501807,-0.019893022117218506,-0.007202623466120791,-0.002709513316731568,-0.013609497855898932,0.0010014456912104677,0.017757325066236306,-4.979285657835944E-4,0.01839889947091281,-0.013920352247536934,0.006624239194933333,0.014405890313584385,0.026671186783881414,0.018649994502658647,0.02740621154888582,0.010092059553772353,0.04584673143969654,0.0450017363029921,-0.0429495363167406,-0.0016546281966763473,-0.013787617304657315,0.02043174730925742,0.006067755992331269,-0.011718638382296852,-0.015303227595081846,-0.019651133730208378,-0.03840152974482224,-7.896840229010798E-4,-0.034093750756496385,0.01835699752966539,0.012374438502584368,8.434033920814884E-4,0.001993134934179485,-0.062263600265225774,0.007329538572791079,-0.01776677568462224,-0.035122977882386795,0.031693420139696026,-0.009555459380856038,-0.033385357314805374,0.010522428261753489,0.009159966160199682,0.038311032732844245,0.027066443613979006,-0.0025207795546798896,0.05342988680756457],[-0.0424630313237535,-0.04017201451611302,-0.06032692927688595,0.03545257699192712,0.024203893411333686,-0.010324947515959448,0.0070582235559233635,-0.02465064821842321,-0.022192717271886948,-9.515031575482813E-4,0.01026595623477714,0.03342140538302069,0.020755932842973925,-0.004758089080584988,-0.005497844165016735,-1.6258859340007343E-4,0.006786138369259592,-0.01545081089667943,-0.0650473668023786,0.014106630678508411,0.05884770073519196,0.014104834878088737,0.02465299586938999,-0.05487789598785514,0.020408273714088834,0.02381277619637411,0.03311616384792975,0.060380518702660035,0.03837875269802596,0.007702162478815974,-0.0024244381596887125,0.049472465768569444,0.006720934316244905,-0.015412448457249263,-0.025915854198043032,0.0692574525157141,-0.04360250355461572,-0.02766091542944493,0.010842009026050044,-0.004857878783195816,-0.08813906154587355,0.0199950881532079,0.08538997816531872,-0.052541885615032716,-0.022627414908854813,-0.0365389615762042,5.556970099157508E-4,-0.001993853954243238,-0.048791698942789875,0.022904643051085763,-0.05901722169213401,-0.04497090380363358,0.03031175344376453,-0.027936265663422277,-0.01840314832952878,0.0052512160787251475,-0.02311246938466374,-0.02933889036906381,0.037083879904472865,-0.020619504166647203,0.034619219614481375,0.023010423233203042,0.023724002917269414,0.07891673036121737],[-0.02602068870768576,0.0033247336313998394,-0.010335261763809478,-0.022277320153457892,0.021829121477411343,-0.006306843757148537,-0.013116637919828701,-0.006738652835548823,0.032871941115032076,0.022907031136652933,-0.009496244836721957,-0.020608044431763266,0.017714507288705914,0.022143835292705916,-0.02486353141231986,-0.01768887865393487,0.01397224333651517,0.003708741707264064,-0.03623657721589914,0.023258898924657708,0.00918308716397531,-0.021169993619278755,0.022712441761561872,0.014315214791380735,0.02256225078368176,-0.009481722806846874,-0.015618159704115812,0.00770175567201622,0.016604082888582533,0.02139771559221509,-0.02729229837088967,0.0016729302574747097,-0.0030677370516521284,-0.006450999895509161,0.03763094040850417,-0.018863857013432128,-0.020503178965364337,-2.2430353971147232E-4,-0.02655780779503522,-0.016941310990764243,-0.012017314994282427,-0.027950455733207622,0.021755529565560722,0.03432328635056463,-0.008188735892774239,-0.018204878705620965,0.0128344936968547,0.03611173226926111,-0.020898036053394815,0.010999936848014391,-0.03848440253256614,-0.008733879527843212,-0.021128976638650952,0.005658599604599473,-0.02059526010187192,0.008104551246201791,-0.014378132009298447,-0.004049645903330571,-0.005274320419130264,0.013949909961449668,-0.04080079917883993,0.03098334151172716,-0.0071924327847481765,0.033819828631362556],[0.00814644178575988,-0.032661468956836415,-0.007196410330287963,0.03100601665709146,-0.023068647951523896,-0.006271359670999255,-0.012796590620897264,0.027684125086778037,-0.017005593659479852,0.03427649289894288,-0.0016210974275229363,0.022346246344827486,-0.011665741137127143,0.01710218089676354,0.021377492554942982,0.027547074941643844,-8.749861916508998E-4,0.01175505881670317,-0.02083010208023663,-0.021420225354982014,-0.017429247408525188,-0.02541007546056403,0.015297738158480572,0.02993958934274221,-0.021489835427603503,0.013165945605548771,-0.0012022430378879683,0.01208976474783904,-0.005890588030325219,-0.02522305824144299,-0.02259028866028095,-0.007938011654241989,-0.024547298514249607,-0.03046130000467013,0.005068950322115185,-0.022994341364876075,-0.014493964002239115,0.02609703404911864,-0.016843083819199096,-0.027434248141417955,0.046015796412666364,0.007318911609205806,-0.009313209507422317,0.015633954110942993,-0.014050111957290687,-0.03307671862473076,0.024918321348986347,0.014625962073086913,0.005856564506407216,-0.016284651682690384,0.01811038454002926,-0.001226154310437074,0.014717849629275602,0.019050764471392506,-0.02357891396592458,-0.005570588485718508,-0.015449264990958314,0.03265390355486874,-0.001278346126192512,-0.02049154916861352,0.00919485384688218,-0.013517970486361695,0.026018766325056477,-0.023787370692073366],[0.004766712820166931,-0.010849701805060664,-0.030206996976706164,-0.022718489487285613,0.023708718168115015,0.005957631655427164,-0.022418125243406677,6.068088370338417E-4,-0.02275996486747457,-0.0011268337502989203,-0.024753703599350647,-0.01158426818698499,0.02885042923295808,0.027348827410176947,-3.9534927265374184E-4,-0.021730844483106786,0.011412652010368627,0.010688605971525664,0.034161861687406564,-0.003507409477538975,0.005106301487268483,0.03228923145103968,0.017518342001715738,0.0242353673287058,-0.02182776250087148,4.386890776004831E-4,-0.022386661610329952,-0.03666786884080564,0.018029848791541802,-0.0015378571590564437,-0.03137424298169107,0.031573180267217074,0.016204471253399546,0.03112714905964099,0.01236133897544781,0.007811114229970908,0.019291305922820814,-0.020950545357631082,-1.284390516475272E-4,-0.017114263743374318,0.021841525909100178,0.021031362378071797,0.016134691462859726,0.034912427007302946,0.0065369384497781175,0.029201361757076855,-0.006159069731519983,8.821188868423502E-4,-0.030892716910265367,-0.016747170213321904,0.01947328995063633,0.03018811662818447,-0.01826661512121502,0.02304025721092687,-0.03054847158980926,0.025148702895486992,7.2890149729862E-4,-0.03124650942988847,0.021926735998202537,0.01595267772156526,0.023862857390398173,-0.01658652718788544,0.003535538829261481,0.01977729017422756],[0.029177130312182623,0.02500608866171641,-0.02427087174088006,0.002400585266842086,0.011482174829860971,-0.011843257030477934,0.02012121184178981,0.0033986606404079406,-0.0033629682967841875,-0.020562822526270685,-0.0285365227934342,-0.012887092048918962,0.018031288746978482,0.0054294853044763525,0.023816428846992848,-0.03277878909745026,0.01758028856832088,-0.02715539318933668,-0.011008213102212177,0.004116588620771767,-0.013113840233161303,-0.00328621941829592,0.006548377361541558,-0.008799621735679828,-0.030388762670063546,2.883627448129746E-4,-0.009928503440208182,-0.020942438983136042,-0.010611139701753113,0.026811708059033657,-0.01957806802347139,0.020472723604047748,0.01729575686643757,0.026503302587869433,0.02937300166256792,-0.02326416302803916,0.03514368390138302,-0.006996470378826727,0.03132719072173272,0.007507953901135977,0.007257965161787516,-0.014823898567253385,0.009212686270805393,-0.02988214542244169,-0.031324278942218675,-0.0318917549627409,-0.007623661181691684,-0.01155372989574635,0.029014207534886437,-0.021224949200829166,-0.027614278511307707,0.01739272962670895,0.008937678755248452,0.030103395488550806,0.0021923583543799856,-0.011083029352720314,-0.02160424948419391,0.029844651233109327,-0.008541934082020117,0.020362889885819458,-0.009793084439561874,0.010971361152978722,-0.011318042314727257,0.008506665918938002],[-0.018591415504882015,-0.009164221746842307,-0.03358426360565124,-0.026356810194445603,-0.029179265094167902,4.595874765987932E-4,-0.012043968368476115,0.032400453450208394,-0.024362955684874045,-0.014811754409197752,-0.007877150698668872,0.03379604977500632,-0.004079197159778523,-0.03405244521714303,0.014055407783261309,-0.002555605896520526,-0.01928193573003459,0.03263725887644393,0.030733235385963308,0.030244522334852947,0.03400001696302958,-0.001493860355021501,0.003782562231701892,-0.02230575749506458,0.02005559448539672,0.017396596029995985,-0.014916312650193306,3.564478079736457E-4,0.027592225532745204,0.018353544888657737,-0.022061246379696794,-0.014016764248828407,-0.03565344550131227,0.02714424584469651,-0.023403293761205823,0.022671390315791084,-0.024052105364004147,-0.02638369924001271,0.010692516404519195,0.022609252918128812,-0.010209957102777455,0.0025864419996696787,9.366296609684196E-4,-0.01502053029192141,-0.01415315309767766,-0.01145181739797121,0.02739675068570145,-0.006444467376960521,-0.00638453023855847,-0.0051487811020062306,-2.3508186721859646E-4,-0.02909112579512261,0.004590267820456193,0.030763736292997067,-0.016423232113108404,-0.01299573097565548,0.02783041776182855,-0.008023488584488397,0.0039126002260638625,0.02644520009081984,0.027611575198948274,-0.019148949655123284,0.015713649030209415,0.002957473844724644],[-0.03559662966134269,-0.023803976659337443,0.019766240025925596,-0.031293260693329925,0.01104592842726193,0.031234283988151982,-0.0052388699678999,0.019774985175545174,-0.026770833506282954,0.031713599839652315,0.015817563028156855,0.01668633119136752,0.012134634694027589,0.012259704342055595,-0.005822850427943024,0.030452325820549304,0.005413228712397184,-0.02836870731510719,-0.030769114380663622,0.012144575780820939,-0.019503217219823735,-0.002417974321929622,7.849447424526124E-4,-0.03529777501255301,-0.007078831637621948,0.014596699783946213,-0.03008493462572116,0.0038039170752101445,0.01936275894821293,-0.009101314909095845,0.012139680142946778,0.024368573558279868,-0.03391082606042047,0.009991373764910804,-0.02660178199735343,-0.030445066793572673,0.02174920126880431,0.010474675117295955,0.00186977314718801,0.019997824917375465,0.016644446364028332,-0.020998335486346623,-0.007839776375075335,0.032925537706307594,-0.021256222510620027,-0.032335883758703256,0.013288292644608214,-7.341717039524358E-4,0.002835303786955335,0.01358649654669725,-0.008845879853062925,-0.0043978871057758235,-0.013159720360167269,-0.01359609460488732,-0.025172462709969607,-0.006648581858281149,-0.030782049230688793,-0.025268154354113864,3.701934987599772E-4,0.008153955669098273,0.01358790021246945,0.02039017620627708,0.022234113495856,-8.934527326048096E-4],[-0.024530089982353277,0.007249108500608574,-0.019824549168967625,0.006022904874475836,-3.1583410909405814E-4,0.02311624280142722,-0.03235582318915409,-0.014656886572224064,-2.383310557890761E-4,-0.017818978634352847,-0.006330726611797256,0.0013487299781437098,0.010965698994648783,-0.0032287237160389948,0.013807661416095096,0.0058234701505280395,0.006735244668166107,-0.011790573129168773,0.0238142014887792,0.03048951770070763,0.0014183465795783049,-0.015438998492414273,-0.03431126609005898,0.030047160278922416,0.014289487599857105,0.026095010187026573,-0.028455396374312703,0.01946825569377496,0.0057279387312260755,0.02253969831470249,-7.091998142987649E-4,-0.0339876539838449,0.006436754355026949,-0.0077755611565134,-0.019404138964345594,-0.016442384610964225,-0.012897268914732623,0.005009355719557089,-0.008261616254517068,0.01976572044941013,-0.012492352067058288,-0.008624172174615275,0.028889318884346656,-0.0032413803294610217,-0.002056925501625276,0.012040381307015957,0.006829303673562872,-0.02233762060001778,-0.009573200636246377,0.03453320524378967,0.032651800436756216,0.0274248679588861,-0.02447479864958128,0.02106474924636355,-0.02350338404759764,0.016741110547235497,0.012552994982765225,-0.018596011194134888,0.012655814447098694,-0.03156369095526474,0.012263883159711227,0.013981328064377217,-0.006362070253720089,0.023404801921629626],[0.013291243727110047,0.03372209226064188,0.032680926265659944,-0.0061019680637762665,0.029404382976940112,0.009070246900322978,0.006769660518290334,-0.010118530565394135,-0.017315624076648748,0.03184778031330596,-0.004703257861249516,0.03505378519744342,0.015137013234716317,-0.006558235280023758,0.010535267095517742,0.004369854534131198,-0.03480825066493771,-0.03211024156229039,-0.030646365458802092,-0.02832459652573556,0.0059847528528893836,0.03531649748602053,-0.013189251698339113,0.011487962101158686,0.012148384722319414,0.0035749097770994315,0.02713884717471497,0.010189297818152388,0.00817150775059824,0.01614818257982679,0.011865006524619248,-0.03392863881236399,-0.01717361132883447,0.013234014722861374,0.01558408884512219,0.02337257822624734,0.0021071695463194696,0.0118858455834687,0.03431837991535012,0.021225294147578646,-0.010979450609218233,-0.024156845199148045,-0.01051775313100225,0.0014514409441836937,-0.023302926905405853,0.01338653115489371,-0.01064307442715829,-0.019179676602160425,0.01022283581262887,-0.01351086833454303,-0.018900640442759742,-0.003422779984255997,0.02946914677254782,-0.020438816755152918,0.003945762329908842,-0.021235908189530195,0.010021959163341008,0.03262718437102085,0.012710864954983785,0.03194129374978932,0.01494063921824903,0.02040771535088323,-0.03435808363719631,0.008096094907476687],[-0.02635013032940745,-0.01592925539860402,-0.009265985736953657,-0.03535285629039057,0.02721771483746775,0.024942386507439816,0.031178548071366517,0.012238026490897518,0.018739924856319517,-0.02220417837453277,-0.004871683719556541,0.02360071804567958,0.02067837587037237,-0.004530734865575933,0.02599243681379652,-0.017124837482092228,0.03493288725861762,-0.032071672444212,-0.004406981926741224,-0.024176872439604424,0.033303438824551404,0.010341766890751858,-0.010561983854780743,0.026801376252756824,-0.03131879395229681,0.014854039750238626,-0.02748075439795178,0.0353039675863637,-0.004922563796018528,-0.030486851594498533,-0.004568719851095019,0.024774637098485888,0.030316297436853424,-0.023323290329659217,0.009940067021585952,0.0035135888282365863,-0.021118678884132967,0.009315694039555462,-0.03244743805899891,0.023287038659944286,-0.024556431142343,-0.0016074545134831847,0.017007528295635597,0.005692592687588751,-0.016558282803192617,-0.009234529368003666,0.01120864300511675,0.018010493623160182,-0.012270071058107837,-0.0022791232371783977,-0.0333314807825788,-0.009391697739932854,-0.0013842907153042547,-0.016453343399299103,0.017597489199042343,0.01982212982671111,-0.006280090513613279,0.007244952908652441,-0.013360076962753518,-0.03496062906269451,-0.02170978476766873,-0.028599092786684065,0.026361780521628336,0.02645625163610401],[-0.027540539314924527,-0.035340200554293356,0.012783488263641847,0.023535390196736766,0.006889232243674087,0.022504337551921945,-0.005468323999829113,-0.030741680543263244,-0.016579309741694755,-0.010647450930160523,0.018552315586787285,-0.0338587535619218,0.03476796566548014,-0.02801385795283795,-0.005642743610887877,0.00808781841484691,0.01122086633648815,-0.01288786410025774,-0.005104906914515325,0.02891879155946636,0.00420146030772501,-0.032685708091078416,0.023345398896088894,-0.0061545346832705084,0.02920040405477061,0.014050934568793565,0.015718553142132583,-0.015758699535135232,-0.008753287044584755,0.030845196583694792,-0.015184225444663562,0.007385916483942814,-0.012503981287296604,-0.008464769044549814,0.027580010752931084,0.028550434228735218,0.006614451719740431,0.02597705574782581,-0.0134235329152984,-0.027137160222764124,0.02053089075064036,0.024635671783074884,0.020139003073677542,-0.03544885035364864,-0.02631325420913079,0.0026323386401426252,-0.01968039197951578,0.00426753416210518,-0.02758482802071575,0.023037431173396912,-0.03396008935643033,-0.011608555041342155,-0.00889770077397992,-0.012919428108367968,-0.003519627066652502,0.018922230409654604,-5.355940955702227E-4,-0.01593588816803224,0.008183139315708765,-0.01834048051683114,0.005188468104419117,0.013255436101480856,0.03287404318209649,0.026689252560375996],[0.026900603657036646,0.029612261274766634,0.03305675451259044,0.011602370749818743,0.03537614518671983,-0.003708376337559866,0.03042588156733074,0.021514340549961635,-0.0024850129463864063,0.02093622281979285,9.432806452847212E-4,-0.02488730475153431,-0.029266310522018706,-0.00456452115997357,0.030022834939981796,-0.008791851051933974,0.010785704807221375,0.021651632985149907,-0.006897877110863188,-0.017254726386918915,-0.02638680858578694,0.002769149275669085,-0.020483923978529828,0.007798504198123485,-0.031199025774256282,-0.03138841277054181,0.025313779867519884,0.02545254486573112,-0.027169051140417136,-0.0165263126861247,0.034903407601994584,0.021500312142816336,0.006052366491448619,-4.048033145530356E-4,-0.019256589427104866,-0.015413727186137625,0.03237546432511592,-0.017357715028017567,0.0032919843140934353,-7.928811880361969E-4,-0.0019798702654740897,-0.023966012009455924,0.032938521582313994,-0.00785927915120935,-0.02907801801469096,-0.01134522551690508,0.02167034587785337,-0.005163076375255553,0.032758112897240906,-0.028855552787718307,0.01906118705671018,0.023212817650241246,-0.017567425179774387,-0.02473256941602655,0.011947378498499242,-0.02899231972025891,0.03325733969877251,0.011692155182677584,0.027026708841706167,-0.022345274744819166,0.025977940655716115,-0.008999335679959664,-0.029427085804992432,-0.0049106250113342765],[0.021938659758629044,0.022327252857972553,-0.021922288236275955,0.02575141516211188,-0.014940055429269183,-0.032021386859606614,0.02605471748611833,0.021965254330368666,-0.034946516918220476,0.01071666858453768,0.004179831497061216,0.01061299807212942,-0.02828610355417434,0.011660370023637345,0.0012580100240555511,-0.0063080424933885815,0.00977165652879428,-0.02187286360872302,0.008910903117932458,0.0035429327446026954,0.02566960910459318,0.02218830041219922,0.020945122183105593,0.004105398750253714,0.016021163910390813,-0.01345840132706666,0.03265834136462284,-0.016356687911495263,-0.023292623337973096,0.0159360218261304,0.008584295833934963,0.008562159456993257,0.017287285612277936,-0.025894154000132237,-0.01063196294905789,-0.012081641114351283,-0.02951209690179427,0.03369580033916758,0.005742363249543342,0.00543467873171385,-0.02327837834182673,-1.198118240473635E-5,0.0028023683524934146,0.024565887390817463,0.03313519431187818,-0.03162635810210109,-0.020481097408036265,-0.009021459114091974,0.008482890784039259,-0.025266478440352576,0.01669345906266149,-0.011424992341259384,-0.0037199907531234267,0.020060402498825798,0.015622294842343103,0.007047332412565927,-0.033625786227849945,0.021483683433100444,0.013892159371510551,-0.02053731561078991,-0.02072855427262106,0.004204356687761194,0.026831018728787022,-0.023869520502367347],[0.0339844743761359,-0.011573548558758409,-0.016815394338286573,0.010267450024214498,2.6426138460789686E-4,-0.029246477680677507,-0.018416549775886682,-0.03538188838044962,-0.0316014993224012,0.007847429147524232,0.004591100898167927,-0.02808144280409587,0.02003237788718671,-0.03286394425409994,0.032439495185133393,0.03305409520815301,0.024540783371768862,0.015006700778298092,-0.0153236749259331,0.020670328100833635,0.025930435945576025,0.01008987198453234,0.013443078033882321,-0.007147303947486979,0.033646051105393995,0.015066887978474068,0.019828480286962775,0.002719997075165221,-0.004431864450718319,-0.007933068545134266,0.007557321022315615,-0.021759974395121156,-0.01565001080364909,-0.02441638720585515,0.026179221617104786,-0.02344410268972042,0.026190662268344454,-0.019919491744143987,-0.011084218232360348,-0.02567571945631478,-0.027249435816871406,0.02564092778332533,0.006979127092759908,-0.01713137680909441,0.00504423309669616,0.025578027092453888,-0.00893844673471278,0.0314845282483785,-0.022923899662549017,0.01771433828418885,-0.01104227740850376,0.015429153005225547,-4.2281735789030856E-4,-0.02107796080028938,-0.015510980022788024,-0.014446540377246487,0.0018819964986969456,0.0262011147450785,0.03419705969823223,0.021337959617251243,-0.007244372070013668,0.03420481611038459,0.02180296700172028,0.021126727045166088],[0.011697954824969492,0.017271940734333007,-0.033809252282343064,-0.008808010156759194,0.03520129091619633,0.03369341147374302,0.012381203292745382,0.004617135913672893,0.020476147720431048,0.013983614225026815,-0.0333825584128849,0.0032878093390233,-0.024855204227894483,0.007630642630238779,0.006284024307076569,0.031529171625715946,0.006762241898161927,0.027021102088074123,0.0029292364965762497,0.032407790014710565,0.016473426788875097,0.014403159262917844,0.027868088185531513,0.0074292898152604914,-0.014774607017527601,-0.03213416248392264,-0.0067160114761357316,-0.0055494991550833084,0.015866697491780005,0.006802042847472212,0.017419424826031774,0.02851598000864462,0.011611967061962459,-0.00667001803559781,-0.009649428719901336,0.016023607130209012,0.019298706700130768,-0.03204148157575451,0.028406059654937664,-0.01159207029253188,-0.012526555809100075,0.033967807355325126,-0.03091246812170188,0.007403297817320955,-0.015385107174833426,0.006965948940060076,-0.011335050364954611,-0.0015171417518889555,0.0060189239784140015,-0.008981761690734376,-0.03569014386316527,-0.007735761599992468,0.01189077348390044,-0.020800727969859385,-0.005447729623803077,0.01267104416984086,-0.0017001555751739211,0.03296111477208242,-0.03542711851544847,0.022584112115004447,-0.007434033263139445,-8.553737391431282E-5,-0.017913940579251164,-0.005963858481869302],[0.028220205656448838,0.012055501048916062,-0.013240491709100386,0.024983859477607662,0.03477537259602189,0.023282046385784648,-0.005889756606020297,-0.021666992332483623,0.03129418425659026,-0.03234309511007397,-0.012100283310967732,0.014050521645214791,-0.03127203166300804,0.03400867111300108,-0.005348080782695822,-0.020982008491818343,0.0242158568189693,-0.01331828705241584,0.0028942980722257744,-0.016810440696535516,-0.03187349060017228,-0.012013515504632382,-0.014784807322842921,-0.01824142967833181,-0.026979940318130436,-0.004841421172924528,-0.013899658024951474,0.015696368727979207,-0.01566427039123101,0.01341003376020039,-0.018673690326962564,0.008632039569678696,0.02547054853838052,0.0012350631310718008,-0.004549595982637694,0.03373673503507565,-0.006421934592569083,-0.026913857055804256,-0.0030694816880461285,-0.03565412316646424,-0.025974103045232913,-0.02927789657005899,0.018491467583333046,-0.022074040292206616,0.0038644813420266756,0.006519362338832149,-0.012187450922962233,-0.005330516403919833,-0.02355214225498251,0.03411607991517303,-0.0281272359546124,0.013767800647528257,5.108527215133868E-4,-0.026073013098395315,0.008784014234450164,0.03369563240652075,0.007545521161554864,0.027609600018624905,-0.0049028553190013325,0.021928705393473254,0.026947493863103023,0.02790911396422362,9.529872192524736E-5,0.020121334295890563],[0.03337722736572855,0.031366753020225555,0.03436362966756881,0.004335938286397967,-0.027479694845938575,-0.015035258710489384,-0.006453769122828751,-0.005113614835809841,-0.011280705861588256,0.014400763296237854,0.015824971437545958,-0.015564950814454416,0.014102319391549394,-0.02766875439274473,-0.02491226194215555,0.024603815568041264,0.013076092254663716,8.902336373374402E-5,-0.002981537855863588,-0.002002649846678531,0.0327087299116984,-0.012740632532905872,0.01601364624301592,-0.015324541867325469,-0.009773869972844214,-0.03191611769312927,-0.011250402005196008,0.002780630796090119,-0.011174512403554625,0.022173175985628044,0.016498207555316717,-0.03226203229406699,0.026599256969384703,0.013560490660780035,0.014548624865558683,-0.018051343767204815,-0.0310068573070194,-5.149278581480866E-4,-0.004860261403262629,0.030178541136794048,0.01813843849786001,0.016524450898944637,-0.0074898513369093325,0.0337052679106588,-0.004617701549443129,-0.007268377808798848,0.017913762232601167,0.006294248234218917,-0.02169400546429996,0.019402829119285536,-0.0277592838565002,-0.027636166741167048,-0.010161560290270827,0.011920208678432938,0.022246989456353713,-0.00397322165268891,0.0271849911565151,0.03053894682972866,-0.011345262123685449,-0.016643958760054412,0.018473868311743143,0.00824702832752391,0.022064417284276223,0.006031500131312747],[0.03454549610198026,-0.012278703620944867,0.030456020213263144,0.03534593787022375,0.03144601692854579,-0.0153845014635827,-0.014988690109116303,0.02765947189999352,-0.0034509332300547463,-0.00904268831947483,-0.0073643187812419235,-0.014444158778435294,-0.0274275015440982,-0.027533209349419874,-0.024195227721012198,-0.0033612336771434116,0.029964358920935352,0.005570472274899991,0.001741899045223861,-0.026203942475534585,0.009472781277741938,0.013790136516301304,0.033886678463812055,0.025720604022485702,0.030405550229037837,0.034499594473139106,0.02272864239479954,0.0058307418330269855,0.010376444005685725,0.0132864756191644,-0.012061100898234759,0.03218578377132625,-0.01504325734202064,-0.002091166830026466,0.0253734353201244,6.888827972489872E-4,-0.020357434069851306,-0.0076587270462467084,-0.0033228244551799725,-0.02611053405097791,0.01892459066521889,-2.908144233597993E-4,0.010024261224928414,0.022110300043921165,-0.02687970522551812,0.007285536806400869,-0.01834612915920137,-0.005504804648103416,-0.009074876934402707,-0.03490634213358874,0.0025664749979354812,0.006785067975749109,0.02778960093978484,0.007845878670671517,-0.007197037849180521,0.01208054012565775,-0.03310962945705832,0.009604950855042682,-0.016888712007201323,0.030342218157621854,0.01628221818316816,0.007357366742524949,-0.007123473419909476,0.016998174797997194],[-0.008500440814808989,-0.010485874789689128,-0.0263194675334268,0.02915810343663208,-9.579229303045997E-4,0.021786779003977616,-0.0043773346908132175,0.005859769062689428,0.026495978417852194,-0.018581227849763383,7.260058631477557E-4,-0.01456344563848371,0.020375140749182896,0.035424857187432116,0.006702254754437227,-0.005749489097272557,0.004645811271747113,-0.02761227284435924,-0.03160474183799529,0.028367276763622554,0.02600374663126258,-0.001574241381195773,0.023706553151888483,0.003820206918622038,-0.01750679697795896,0.031944784185125204,-2.2869476372485453E-4,-0.005461337867509737,0.03292053371750667,-0.0071687001103966945,0.010553452648902627,-0.0030744632083775977,0.02075976429253686,0.0022881850977718022,0.012654538786841734,0.009293105745277771,-0.03103089026190746,-0.03466503431715346,-0.0066731013757540345,-0.022031750053590888,0.012717904335331227,0.023589332447753943,-0.026441240095245493,0.018893027991703913,-0.001064183467695264,0.006528868898842557,0.014421121085299062,-0.012812673644649516,-0.007041157008824597,0.019691113548155673,-0.03548562186862655,0.02234878520623192,0.009594281275489587,0.012340831270279072,-0.013499665205455638,0.022302263924331534,-0.027743218851085112,0.007474765122074699,-0.020824354672052695,-0.03378007705921496,0.019632272884226774,-0.033158894125154124,0.001668044441042797,0.011167378938724989],[-0.0034172186156530304,-0.03306922115560309,0.013455367442606251,0.0081234315734613,0.01945626929611581,0.01476855615035742,-0.034881957685173194,-0.02262612218242831,0.027576828125770073,0.015643664014743947,-0.021009163785651833,0.01274739377029561,-0.02764656927412956,-0.0023979636348805716,-0.009402787278441146,-0.02119313393688522,-0.006953095805057255,0.02780901573101114,-5.234165603748447E-4,0.02043168718145407,0.004411429477839032,1.930284307555672E-4,-0.027661942296571623,0.013077883127783567,0.025615510016132534,-0.02762060567137055,0.009279847118081238,0.020683331019324312,0.010228458093064389,-0.023968854713996263,0.022884903614360328,-0.011354888710618231,0.012748499127306533,-0.0029289679058116564,-0.028550212583975308,0.012218989434462653,-0.02974713067122797,-0.015218605269336051,-0.0034219424658198444,-0.0035737432233416007,-0.0029165565028757097,0.021986087511039358,8.604052228363459E-4,-0.007102364543920902,0.006084362754198468,-0.011964680061879156,-0.013220037336404795,0.027566398956781982,4.687930523938228E-6,0.018050721260689823,-0.01637758170313317,-0.003707935224772197,0.0019536003545576335,-0.01791300340325593,0.036501541972870366,0.02953379661891548,0.034105380146567846,-0.016206807831124943,0.014027536025317726,0.008260291507523393,0.015126279122486042,-0.026063000870977668,-0.001783469951407833,0.0023707724444925085],[0.018394302521173803,0.018312713296998677,0.023950641129258352,-0.01336184072977828,-0.009545418407179887,0.016152329390240316,0.030849827429427726,-0.013220071924687576,-0.03582972421489222,-0.01641155572981131,0.019298014043037166,0.03959022675168819,0.0375383052679024,0.015041999488621643,-0.014825117890973315,0.005112759902983307,0.009204959906767233,0.011743247017546508,-0.005715343229991961,0.0011773794614141717,-0.012922017463649986,-0.028493947642470364,0.012819766931298599,0.005731759810559998,0.022633829631835158,0.02931504345422769,-0.049153559883579966,0.01703556354519569,-0.018803249714861563,-0.02914523583333603,0.00485407180389765,-0.015360240469262312,-0.010022740434682391,-0.004173541727244118,2.677211281406939E-4,-0.02377576211394717,0.004059135591268609,0.01046410054824274,-0.03415509157107998,-0.00945650018257291,0.04725973307278148,0.019454741200662148,-0.009115372941366525,0.050594572323372146,-0.020656202355503594,-0.03239804644930845,0.005592838185365749,-0.019629682349730383,0.03476199836650922,0.034254258372516305,-0.01735189294731887,-0.0032609637874185483,-0.001178502743378586,-0.018769620317830693,0.004642975693273779,-0.025088897846796895,0.027838073946410337,0.018416983803349184,0.00888443332438382,0.02260804122690388,0.006247050048208276,0.03588098280133767,0.010758576599902805,0.0036663353843148913],[-0.044511192713489425,0.0404564041362017,0.0353486702789697,-0.0024348942658830777,0.059391930348443915,0.09270422316569908,-0.08137946685342214,0.04928888864629377,-0.011274774684984125,-0.025852570267088346,0.041801010231714945,0.0714309370954281,0.009658084425436904,-0.03091358864217421,0.042708733821861126,-0.05613529296251836,0.04714189523356137,-0.05747523475434235,0.006915755357676455,0.020303005394928852,0.018221476807553982,-0.03491324884551074,8.184131751144024E-4,0.02666843883748326,-0.008083358335746773,0.04980704024359801,-0.12886775199851908,-0.03455666500395639,0.058864930394149015,-0.03606892858002669,-0.006863117280086548,-0.04192474061818718,-0.06017456034487952,-0.024152425257054935,0.04751534573932063,-0.006471360473590231,0.05896899929975019,0.009549963395890228,-0.05008249611878499,0.028425945788782332,0.06923352620391743,-0.05471396173903658,-0.013254188007112151,0.10327005328728163,-0.00948400979260338,-0.09637353019082479,-0.024064420692984534,-0.028676828065482052,0.025479939723378593,-3.326736372652872E-4,-0.033617829370356185,-0.010996207529038456,0.03603853668102338,0.04494953696080077,-0.003247886681840155,-0.05804964821739867,0.036558039689467664,-0.009900247287393131,-0.08681586172833422,-0.025263876573998464,-0.13755522502619966,0.0731584911263521,0.0021873992101003933,-0.04430445997873143],[-0.06759763805987151,0.005336924241924594,0.015849432666992614,0.04851305840540489,-0.007617079948203406,0.10727335366646945,0.034586014094091046,0.03813132473657406,0.02378571940166151,-0.02296157560245539,0.009865674302974425,0.047422141342670594,-0.012168987600322362,-0.027059399964604228,0.019792962753513006,-0.03406471123112676,0.05000890005266389,-0.031267788815417065,-0.03892611086890372,0.0640668499044423,0.06694539723465606,0.02039481892837515,0.033927190382693664,0.018628148850349226,-0.007779736439983042,0.02740701671023186,-0.012072424870505843,0.018838160585155177,0.08810044765476255,-0.0050721594545860005,0.008838592372090075,-0.004139364021354686,-0.024340938232589485,-0.017814974337010465,0.04205229166307907,0.020222831787988865,0.027818267734919726,0.014193615812135414,0.007440784669264421,0.03962131130697902,-0.015766397947428304,-0.0199471880432218,0.023105770762528653,-0.0021098965908544183,-0.025119471961455423,-0.07282789479154425,0.023905410327025263,0.025360852786739402,-0.03724070834572591,-0.021399069384712362,-0.03484227299791157,0.0023366558537680614,0.05062920967028271,0.0387664052840516,-0.03034160803053444,-0.023806538073084426,0.017056582890178338,-0.006297054002381285,-0.0892318516777935,0.032925465082037864,-0.011859250638488576,0.0327559766622422,0.005969426035144617,0.01260716848806221],[-0.08976131738161959,0.03103909392617588,0.02674062073377516,0.043043294006462514,-0.02324577057936737,0.10853224757836692,-0.008585911178198699,0.03568696803444869,-0.008598042861409362,-0.004906958637357127,0.0403360960575178,0.07273741401730936,0.005930547670269912,-0.046714224968132496,0.066914720598707,-0.024676588583138342,0.04530370173077389,-0.011550222091519766,0.019927675263682297,0.04190709574665469,0.0197186830672768,0.0024134506504110763,-0.004486520528073825,-0.014932217684924974,-0.035549208990135896,0.08165904479118818,-0.012673304976322096,0.029558984700563565,0.037509575769818955,-0.04244881255737699,-0.020910721755624525,-0.015690558302790085,-0.017955476669803152,-0.06401617567874303,0.05958936084269421,0.0461414990713796,0.031082899996840406,-0.03178537832409437,0.010108307461275933,5.995475387642093E-4,-0.014779913537553644,0.03186021222967624,0.019905713896403856,0.007843785240152973,2.5964012057939304E-5,-0.03036057632190626,0.012384071300426836,-0.027051423013783778,0.014897688097761123,-0.022444007462336234,0.008187738646875005,-0.08197780844940405,0.05338823596780726,-0.008440271664940097,-0.006878531172754868,0.027704946583701824,0.015891629781005553,0.04437684316393268,-0.08339421572844058,0.015854228053111145,-0.05962213835947434,0.023991352608923502,0.018845187142856445,0.049594438082855706],[-0.00741445575572405,-0.06501645189496384,-0.005861928030143364,0.07494121121353015,0.014969735853211066,0.017987128462081278,-0.03519712946400156,-0.031415591492476365,0.055474937662665535,-0.027946450188559003,-0.0319971771506627,0.05858698670619824,-0.015364557370270626,-0.09502285158610888,0.029357778894844352,0.006085279993707932,0.00889926411658519,-0.03160776085168586,-0.022572270262392762,0.002283322538553195,-0.007123659584687233,0.08978427090360615,-0.05840671273991325,0.0072325453094173485,-0.03152045533146127,0.07807333457832359,0.09344859611494097,0.11769947798599469,0.02146857528756695,-0.060903832705043175,-0.0019583768716476204,0.036228298126826874,-0.04094095407301889,6.00979256646994E-4,-0.00804925048197378,0.09924719541678403,-0.03661589865530975,-0.05968153399533525,-0.04746198313705287,0.027837257839842217,-0.10396189040263387,0.01871381753491728,0.038965031234382795,-0.0739527217731182,-0.00696084963424207,-0.12838199306973583,-0.05440599888200145,-0.030530231424573093,-0.025826293534730555,-0.009280476327353453,-0.058185796359944524,-0.12496923358352768,0.03458101724025763,0.06925459213959126,-0.054675049603776525,-0.02068284303264656,0.00707988299305522,-0.001454351558086321,-0.08297899934707867,0.021180228202911693,-0.003211603739939693,0.058769006299401384,0.018539338457537344,0.08748442286924264],[0.02919958728658643,-0.06662960014792668,-0.019914356233243148,0.0920744386158135,0.014649612326259068,-0.015966964698588458,-0.06397749550853303,0.012931815420441537,0.05340458964588924,-0.03583354940986706,0.014515594739638515,0.06500888654666123,-0.013431792807289884,-0.11736410575286213,0.043490899240353105,0.0642687503725865,0.017703884156893775,-0.04053320342267238,-0.054675509559099916,0.03070719193609635,0.04543658369774269,0.07370804947267573,-0.02534476647437927,-0.0011622045063876163,-0.05775740272849776,0.056912636913785314,0.03482765864942964,0.03939632201376576,0.08167159892836759,-0.06242210365303138,-0.011113307746005826,0.020411548512021302,-0.03354360004874929,0.011772429729486101,0.01611836283020016,0.09460107757629073,-0.03332126127821397,-0.037804751904989733,-0.047540602796455715,-0.016560285674725384,-0.0840627074951203,0.05133565788747267,-3.0273677514188797E-4,-0.11033259602409919,-0.00570158867184209,-0.08144931939398017,-0.030863118874861283,0.005976492240383957,-0.06305141278498953,-0.012357317105636211,-0.022405271155999124,-0.0749000698774322,0.05718523512689521,0.06000093760546333,-7.187989970060525E-4,-0.031870719761772665,-0.03656933684846246,-0.07585926163356597,-0.09986835059466452,-0.020180684122499477,0.04426664044697389,0.04620732213730269,-0.012755845032598629,0.10675498674450569],[-0.030182545012260035,0.03754634825708936,0.02124739515798033,0.11416817239522398,0.018195415270991323,0.10382299916726641,-0.053182808597271,-0.010751172656098307,-0.0082605532727498,0.05881876232548477,0.09343166688654113,0.11484964280606519,-0.010633699456847365,-0.14156647088800242,0.08199592607911071,0.03683086001291242,0.13915348473240996,0.005004087208062226,0.0018715839412012337,0.07335180631561063,0.019118461132945158,0.03934441457711293,-0.004862074419167802,-0.021756288301193916,-0.06351627740180062,0.12962814046611396,-0.0628174114696161,0.024126246752726076,0.12396280571953104,-0.05713986384817208,0.001607660300520294,0.028160575769345882,-0.08367088696995023,-0.035636715855328245,0.10968291115917851,0.06932299631773231,-0.05711281633947995,-0.017014047048265916,-0.05895068394525463,0.010917520632685888,-0.022912934482319625,0.014094213598727343,-0.10840141966802082,0.00820121596734837,-0.023614712719277873,-0.06815844620076757,-0.09385409311559993,0.02386766843549236,0.03537848262653298,0.0059322864818469,-0.01833270302496453,-0.07374144111791969,0.06853957704549284,0.045729692534016625,-0.030484785050554297,-0.003196977924426689,-0.00943168301208305,-0.04572836291505147,-0.11723490069921878,3.280417695638486E-4,-0.014324539304634518,0.10470483271309902,0.009368434755324243,0.0022173014696611087],[-0.08036309735168425,0.009971280228073014,-0.02717309995873472,0.0939494341638185,-0.01787145798599148,0.06878806928988822,-0.005500530786742766,0.013562656410044744,0.02735070763714233,0.09349865552948694,0.07684588216671877,0.09871610120953116,0.026761477709899714,-0.15157955586275265,0.10647380942659643,0.0385834448385481,0.03781269557941621,-0.032105107152451524,0.03222766640512851,0.06198378921637936,-0.046074066326461306,-0.030469386958940966,0.04822700458677069,0.03310192862744381,-0.06706295250944849,0.09074810315303375,-0.011249924317889784,-0.037032188244839316,0.0820940815558895,-0.10592340257498357,0.009958762745964512,-0.005370278301411587,-9.918606419046293E-4,-0.06565065681293647,0.06091049206261222,0.11050545715054276,0.007060438289787684,-0.040420725696146326,-0.037850495834864516,0.01982359153934599,-0.0357769480808778,-0.0060877715602449855,-0.0805591740663088,0.07539237076369275,-0.014409855680394197,-0.025054760780804066,-0.05284589955061572,0.008557573051409233,0.06589598877965577,-0.018366692548183336,-0.06388062888144344,-0.05961878994695491,0.03688336094590595,0.030344306787693478,-0.03591478387360646,-0.014867322820408223,-0.029266836154873146,0.028752115157430716,-0.034210928063437965,0.02996382210284859,-0.03748452891262291,0.06355072248565731,2.2891710596120195E-4,0.025151994529061413],[-0.01295105793825679,0.053467751183111256,-0.028550210406958404,0.07728542406648053,0.0012744607603113224,-0.03358573872372727,-0.05665340567306798,0.03519264685812947,0.005905961415448396,0.018448124682450363,0.09811931353425937,0.01542881778176865,-0.05912415082073284,-0.11990114718253647,0.11083821102498231,0.04518440239082157,0.00200821487622425,-0.028361477691106918,-0.08817954935536432,0.047047667443787425,-0.035041395559954246,-0.09324962550192686,0.029503458685145215,-0.046284694745996946,-0.0524591186273393,0.08201001876295924,0.06843108618398237,0.041671414492719806,0.09049941970608165,-0.05666597361334365,0.0528847905635309,0.032960169533297466,-0.036743515996549146,0.04261696305888801,-0.024542559603588435,0.13073865342782506,-0.05801079848251166,-0.04428317184091536,-0.03623750411449677,0.030187456184387264,0.03841726234672862,0.01803609596741787,0.026634936753354307,0.045267803537189635,0.0024743164059654195,-0.03326021750411995,-0.008090841025566809,1.6023583821456273E-4,0.06615630350012305,0.007881783806918985,-0.09409392898266397,0.01866899556297451,0.07037801668032685,0.07684689755458654,0.012313991353285696,-0.03549653454334498,-0.02184676436435359,0.04076020355798477,0.03326769536659301,0.0130675793259035,0.04227726482289035,0.017803965161670203,-0.017567490516086325,0.045726820820836886],[-0.11069973033850387,0.042502237053329096,-0.066303093825318,0.06793154875193969,0.06996169727303188,0.1042267282494818,-0.02757079907179989,0.07428427487387596,0.03977037035554067,0.030451268915208246,0.039113874687887434,0.12579243518471758,0.05285292222233896,-0.029074340477050993,0.12968868430413577,-0.01750619810389448,0.07864970549280285,-0.08710758024478991,-0.010269833156153919,0.12876371336024442,-0.08085347486591564,-0.058089254401795055,0.025582983777365904,-0.061977570973705716,-0.03868033646290954,0.07252751572716278,-0.047742021545390353,-0.03650005164368687,0.11659015338463813,-0.0845105001594064,0.028222242741772634,0.024535139022109843,-0.021404069427138527,-0.06595821169087933,0.13110880867075236,0.11011205928047407,-0.014277499307367292,-0.04756041231870246,-0.03715761245523475,