{"layers":[{"numInput":784,"numOutput":64,"weights":[[0.01625454857377629,0.01308739083998896,-0.01366289604766716,-0.015922964994704525,0.01182492512818383,0.0288123046194413,-0.009372649042049597,-0.0160179950398784,-0.002596173156489047,0.02020726991357398,0.02995198449062263,-0.004536358969765246,0.01785044151824625,-0.008102366117189381,-0.023044394435044403,0.006739279349263152,-0.020730887938119138,0.023283276563415785,-0.02341300445086768,0.006244812984735401,0.017948600483390007,0.005074310601061941,0.00571606317871862,0.018036424899332215,-0.03347012579810137,-0.010148577180205096,0.022699780773974235,-0.005879460946220089,0.033859691535420094,0.015243304130230648,-0.0013875345316832607,-0.014881678756299706,0.03213286676139047,0.02289227309902476,0.009760324846877284,-0.009348464718435898,-0.009981794616704636,-0.004667065347099264,-0.0030487789682307554,-0.0019508270802960437,-0.0022126770988879574,0.02338017314392822,-0.024926317533660123,0.023847588246011835,-0.0028352590956313467,-0.01567342916622784,-0.021716842326917427,-0.022909039937505902,0.02612048545195373,-9.578098695575687E-4,-0.005644878097783666,0.009490699382377073,0.014275617504798006,-0.013190824995880502,0.005115736109284047,-0.009213407879731366,0.026558185426059904,0.021837924475856998,0.008300977502512763,-0.008974331707928265,0.014089194947837818,0.029186755729112213,-0.021703780579867746,0.022080344051981383],[0.009138091100962331,-0.0026143377836896353,-0.013887203166610795,0.0028506738756692374,0.009650786746884861,-0.0266958697643739,-1.90936251719961E-4,-0.03376327383671673,-0.03310824880783931,-0.0011540103604067748,0.011075241507844358,-0.007445265702054131,0.03144089040609865,-0.00824208257733633,0.010445141342688773,0.019318974126710065,0.028145913987029203,0.007059788367501263,0.03400246225845774,-0.03020820621891057,0.01965147828051254,-0.015798406964373735,0.028514666409254118,-0.009011704027104113,-0.004906460347467064,-0.011976837258232247,-0.013203752045191586,-0.00409028985098426,-0.02882493457994114,0.01751095044395611,-0.023510018722650173,0.021813622851527308,-0.02572931462236708,-0.0290752273613246,-0.03378358093699047,0.003452477980839395,-0.015557265276382275,0.03339252300060793,0.028892934214397266,-0.011146989539680519,-0.03471029868194763,0.02211386605786161,0.0015353074064111286,0.02393968250055007,0.005961546327937066,0.013446147810536775,0.004027300094217994,-0.027446419734312433,0.006322045492449278,0.028224448954066804,0.00903394037171229,-0.008387072058451009,0.02883036391073161,0.023835685792596595,-0.017129026345276157,0.033016872874980195,-0.007318845998885493,0.005252479905468629,-0.017273928497202422,0.022981825568119927,0.011370248165656174,0.008150482485170385,-8.430446816481893E-4,-0.009894956221987041],[0.016998688020849084,0.025382963641545193,-0.011446635100410146,0.018430704616784286,0.016148443210064825,6.115882052165146E-4,0.019672137042318905,-0.008850908004701752,0.025916011342697266,0.01407809385447,-0.024276374693701364,0.021432919714821932,0.016103539544338723,0.0210624803015405,0.023088636826795492,0.02502024644560367,0.03464137181046564,-0.026490950963958797,0.008149630299923034,0.0030624772272392986,-0.024806304065632945,0.0024697149925852952,0.0034995523449569367,-0.012245716825322129,0.015723191100087533,-0.008014560140128404,-0.03462524132461151,-0.028364402354681278,-0.028295935911335644,-0.023341025137602847,0.02840241596649625,-0.005795827203809603,0.02481853476773488,-0.011677831987406928,-0.005485594136367598,-0.031970946751858687,0.007349604971183278,-0.023845202819898333,-0.0012691627615717008,0.005196553555203962,0.001235733645649709,0.01508340023238251,0.012599373560621819,0.025079325125092936,0.020309424123591775,-0.01500769746588611,-0.009322401402946148,3.817219979077421E-4,-0.015398374313849739,0.03392911311782574,0.005135941350253819,-0.02696198157491366,-0.004671178243529948,0.0035120793938824358,0.005481101384260151,0.016252607387791773,0.006861012383235229,0.022718251930329367,0.027411647079896396,-0.009083886436006812,0.010453753750846125,0.024292230170336358,-0.02879582956649034,0.02952246389455316],[0.008101607586324602,0.006165328452065235,-0.02420990595045212,0.0356925247192632,0.006391036332640582,0.019943049372258537,0.0012485338229886336,-0.030377571481615524,-3.0218573732460063E-4,-0.023152628429877285,-1.9051704784392838E-4,0.01350524645306726,0.010916155238139531,-0.010081669617379203,0.003633971692290643,0.0190801174588658,0.001838040384098405,-0.02307046415783804,0.015185361946462417,0.00337196548044428,-0.002820871086822686,-0.011502677874513026,-0.03278597093292595,0.02125470471689869,0.014643148067399175,-0.014022359430475162,0.009960845602032038,0.004701318673576617,0.0011874437902676235,0.002519944554283972,-0.016856969856078968,-0.024381797945188393,0.014226481120703816,-0.00763117640448861,-0.0032380583841004457,-0.016572636408275655,-0.0012549221747230291,-0.0061136064384227275,0.006337665929385917,-0.024227301976869817,-0.017096927956510893,8.114719608796775E-4,-0.018027318890365674,0.009456998623169248,-0.011444798765733604,0.011118028358883496,0.022390779098455556,0.03467898041772254,6.127417846803246E-4,0.03205700867809263,-0.016640914614297904,0.010262941071260911,0.03176557965922886,0.006419279011578024,0.017537782643109907,-0.026285152643910292,0.01390754778857183,-0.025542445632957305,0.002670994837511899,-0.03097375712172941,0.016092832149154784,0.012537429392342876,0.024276136375339444,-0.0013899991138667878],[-0.011860248525499526,0.02202348063234009,0.020465044014329303,-0.014981877682310907,0.0019474172808765747,-0.005568547014487533,0.0330955091412244,0.03173294935375525,0.023486442502497023,0.022920607901429767,0.026820671532329775,-0.011089194897795767,0.025838372382327435,-0.005667517732652536,0.007204753920275784,0.03091965202339789,0.03330414500385958,0.008775315725927236,-0.023378960047635143,-0.005007154295849137,-0.03152031389893836,-0.007650059616576023,-0.030715268517116985,-0.028537766507966925,0.029735269654827843,-0.021272679073639746,0.004499302860359972,0.0044072102619546905,-0.029979844975347034,-0.005936957792403005,0.004295998321800593,-0.028552547038064112,0.007916864196099627,0.030027005053839595,-0.03330646704615217,-0.02289811124048048,0.03553291532276805,0.017251723838231894,-0.0312010622466794,-0.012936704173422336,0.009427807200995342,0.016259853134192037,-0.03366067753995116,0.022325579618070055,-0.008242067585749968,0.024920968317785442,8.153717236211007E-4,0.022349067229865523,0.034896356600946865,0.0035663323659587765,-0.03484235151510779,-0.024641779758572534,-0.02605209754063129,0.012486879264111897,0.013546364961577644,0.0300073460059311,-0.006452984999850721,0.027368368114658606,0.030924161200822285,-0.025405361497972977,-0.003331987707095482,-0.02515009218186218,0.01697524890202581,-0.0165325074202496],[-0.03324849455642758,0.027113556717539723,0.002248913383290609,0.02809964618893164,-0.034028565684376656,-0.003062136607829248,-0.013615114381026099,-0.024609534656017933,0.009077111238483933,-0.002737409381250896,0.012909844301160878,0.005181438395804935,0.00822956214814134,0.014872673876185794,0.014675327680919503,0.0013761065131904543,0.013897141030436837,-0.017968961989934876,-0.021302420306270966,0.0063873293661528665,0.008753165776736785,0.027057833320198493,0.003225182542976593,0.03406260354206693,-0.025800329145076205,-0.012174780415043551,0.02472918114585292,0.011754395076747064,-0.014516516829021085,-0.019088078790005687,0.021039973326713406,0.010665037050880097,-0.012912134540284408,-0.023402391301154377,-0.008097326318272058,0.010719057866197772,0.012317946909422362,0.007402260906857828,-0.020212040300209906,0.017714155770224584,0.011179462915805079,-0.021652764222650476,-0.035264313065722204,-0.022196087955719358,-0.004078954884717029,-0.020895869361290016,0.0044667112384808505,-0.02538632402283436,-0.024601254432837116,0.02170479886815853,-0.0050256388542988285,0.004628654726073187,-0.015129273136863828,0.0282252796288727,-0.03127055340581658,-0.007365572358551889,-0.0016314330317509346,0.027970789051045608,-0.0010699061652387368,-0.01192226844654587,-0.006437770627528903,-0.035393105402333605,-0.03252839915445579,0.032392214585885384],[-0.004532829002429659,-0.025310757569227117,-0.03278396634973346,0.006600124993827973,-0.0159944969432643,-0.019859234502230743,0.017135199931845906,7.133937664358578E-4,-0.03152831541245523,0.009839671099110674,5.551600766892491E-4,0.034473882638388575,0.023652385217752314,-0.02752906621397209,0.006331481665359509,0.01707792526034033,0.004853012276198443,0.0013012309242479425,-0.011096722835597601,0.01886797573774697,0.012389684085162023,-0.018437564910467004,0.008667940788280004,0.026258188571772634,0.0316440081669287,0.024100245192721588,-0.01672692293635727,0.0052483578069147776,0.032548617687827845,-0.03513743810639222,0.016094522754048917,0.023057577544999208,0.029517084734208464,0.020095148880539822,-0.029640292328895295,0.014532250091661876,-0.034933221696011256,0.011780108333984208,0.026083681599641653,0.03005290347103414,0.001993133529281884,0.025467101066793077,-0.007788825575708821,-0.0353196249829307,0.032795907622237504,-0.026791970360789077,0.0052447914318484645,-0.012898245383467732,0.012560774898767548,0.022098921385819266,-3.845922749209838E-4,0.018702592449540152,0.0212345248719483,-3.278772407367323E-4,-0.015883843719863667,0.014947408399819173,-0.02251503313239841,-0.013217985637594219,-0.01140978223753616,-0.026804762824311282,0.01625010832204754,-4.545551558672787E-4,-0.015693447091736524,0.033111031304717604],[-0.008630322556449339,0.015762490328215042,-0.01278063035403013,0.03367132298979439,0.01621274711169375,-0.024803225039265502,-0.00298472213681258,0.015832319816663765,-0.019603471607226988,-0.008576651306480632,-0.02206470887636611,-0.016340942688694873,0.008104951571520476,-0.0014871318248453097,0.03553116593255401,-0.026608826981922795,-0.0039815968811350135,-0.00995756601514381,0.0010631004445098647,-0.01331303340154492,-0.02782761716274313,0.03366277386096315,0.01645389288294834,-0.02171414872489112,-0.020255810474769216,0.00456592002879078,-0.010987868567825083,-0.007583201252039841,0.011823084842324543,-0.02431315261260337,0.027952264806969582,0.002171634370132125,-0.009634892729589235,0.0027656206186830097,-0.03021316964237457,0.02175679112206376,-0.03380291224361321,0.005635859793779119,-0.010197161649813926,-0.009821735422073714,-0.02574121981529608,0.001862712046101619,0.010631759802007201,-0.019212109018440185,0.023542546432153665,0.0236999726714676,0.01352355232647503,-0.025775483138866222,0.0344071925307706,0.0014147335370638787,0.004768290400517675,0.02833551536951253,0.01424886553186153,0.011053004679247865,0.003060021462278033,-0.026623262321833468,0.02876473511221913,-0.008737228718989052,-0.006533716638794682,-0.031551982299994924,0.008815825120191292,-0.02529112737078939,-0.01708940663305998,0.018583954216396033],[-0.010673267900464736,-0.01652148216332134,0.019265517841653867,0.014043024314866726,0.0067520032976616,0.004687071187594466,0.015576371207414412,0.014122142292761247,0.01396323505306327,0.03510811419932718,0.02401870184949782,1.2563294232408633E-4,0.020252954730403963,-0.009358765453147835,0.016650920913110035,0.023080245687495178,0.015225626916674045,0.03208106062598651,-0.0338577416316809,-1.745810784319663E-5,0.0172238728827063,-0.008466665549154158,0.008007238081236474,0.010649098598910634,0.013905092742769099,0.022509647790352194,-0.007824683505737213,0.02989892127907319,-0.008217108468136796,-0.015921012966959556,0.010253876179391186,0.025402999082328615,-0.031306637080859366,-0.0231099266735972,0.015604509229899024,-0.025626471530026205,0.019666905275996006,0.019260739962762664,0.007774948218860076,0.03090649404169816,0.00829622540563611,0.013430683092133815,0.0023407193454615632,0.024521773974762674,0.03096178475412289,-0.0230795122043476,0.00895445523312626,-0.025020992078751095,0.021635911603516245,0.001732781008369179,-0.00562318316997317,0.0116421713245962,-0.020992571329420284,-0.01655781182899455,0.02775681628302167,-0.012478709067454248,0.008207143933767964,-0.02409338639051743,-0.007558909340166714,-0.03564977379855019,0.030756677054242485,0.003964604034733682,-0.026450240374034394,-0.027192276412579475],[-0.03434847616324537,0.0203479534701696,-0.020824570417824404,0.02125517335022914,-0.006847184844509191,-0.004436180315497188,0.02534144923854052,0.02286279390142156,-0.03338496503514324,0.02354360459173894,0.025081510637299607,-0.008130679288481974,-0.0063381865510513625,0.025702369402779,0.013032305348743159,0.024968587430496274,0.02338194842977543,-0.0011544587770977918,0.008764057035128725,0.019153997232475413,0.022381219109015017,-0.007615236804936865,-0.011003781088856999,-0.002935504952720166,-5.072917316081123E-4,-0.025275127418372588,8.572934923443845E-4,0.029248999732720216,0.032433233083825196,0.02888766047275818,-0.023122631376649525,-0.011628317206082666,-0.01173230466874859,-0.025126108631056368,0.021735064205416422,0.028932401472706884,0.02749246967472845,-0.02049553710665956,-0.026225535352281747,-0.02813933747219821,0.02458729585328848,-0.016475439975143707,-0.027609235550967875,-0.0279281214969469,0.01172738845975228,-0.006541673925024352,0.014127193211221878,0.030180251253007526,0.014135867505755675,0.02349455561414527,-0.01569817342169677,0.005614439326248348,-0.01899415296063454,0.01628045901972573,-0.02138043266140498,0.011666222197451582,-0.0035399191891471128,-0.007670805171038813,0.023379196606301045,-0.005052844174758375,0.009215225477682172,-0.02419224486621363,-0.007870783535449542,-0.0062377633238063935],[0.018906299730278003,-0.008806738689851315,0.029530827317400386,0.032032882869286655,0.0014047249504335652,-0.022189111362001888,-0.013105521529349358,-0.01952862370137867,-0.012212474390767772,-0.029547550310709537,0.03408248708486714,0.004725008556316849,-0.01097117807677309,-0.013021670862320343,0.02492832103863115,-0.007400594346003295,0.023844580527340585,0.03374132325834082,8.706177204883774E-4,-0.03362045932024175,0.0032852313778518683,-0.01316112017661486,-0.00843474617973376,0.013122386180740853,0.009780570851606551,-0.0255425008633417,0.011821980271978996,-0.008688611391914887,0.008969209570246113,-0.012794693276992475,0.004170237560391008,-0.017845931755910108,0.03550479575111892,-0.006378202576919638,0.007120516690858256,0.005213156276528678,-0.02944819797544712,-0.02013548104123454,-0.03067566359365102,-0.017582917506841416,-0.0354206074090657,-0.005527327905334826,0.022204756341553,0.02608330814016535,-0.0028103583305739144,0.03252545642014998,0.025373260801069518,-0.011735186765126573,0.006076304553516923,0.00987749439867458,0.024553329084429965,-0.01664653327179961,0.031231003635596513,0.014607273294534269,-0.01777501944586859,-0.002270609837367575,-0.020376384459670525,-0.020642437505351035,-0.02892665379976672,0.015047392921724054,-0.008788562496877967,-0.03369244778650921,0.030996828962063117,0.02778553991656319],[-0.02072262865455926,-0.03247625882816069,0.010477784978122255,0.01780428123532768,0.012475124329003256,-0.0026097180897853844,0.013969711997692352,-0.02912283495441293,0.016855096830444012,0.005005282963842711,-0.012819092548642701,0.028170340749151708,0.017843854397449604,-0.02286667909414213,-0.008264434291725424,-0.028532190756281675,0.0289385465524785,-0.03490270313285567,-0.007473556584673413,0.03141986593250873,0.011469758654500235,0.00901795695385134,0.00513851116551279,-7.666710494703529E-4,0.006753319163311272,-0.021361964157242477,0.012734698828864457,0.026309797275791736,0.006865119937266168,-0.012685449216516287,0.01889589108539155,0.027657909433024104,0.02599005367350213,-0.02108715054968014,0.02652617208675262,-0.02225680057947003,0.017959704493341513,-0.020853113887945886,-0.019786130575394013,0.030366027427840215,-0.028510932265459737,-0.01376115462996073,-0.005335002445156675,0.021459995104836656,-0.011535379341248358,-0.02081078393657866,0.014998100506513337,0.025380095966633865,-0.016146797666988462,-0.025972880533543706,-0.012763069463032406,0.017016098496378407,-0.018749688004576333,0.030578610400182615,0.016402722008512012,-0.013220776534979946,0.03005356943735362,0.033119438794559745,-0.0019519567104714203,-0.00825933362723476,-0.03269660087613462,0.009196620848706061,-0.030253274155947592,0.03252026670269231],[0.015202330817918159,-0.0015657306178090734,0.01368357363303242,-0.03360779996255974,-9.99012803021518E-4,0.038694343301298256,0.01850965623062727,0.028108463903051235,0.03422333543558995,-0.002481751495162677,-0.0038276819194573088,0.019143891112305796,0.007188768230090158,0.01559652350545588,0.009591573272643872,-0.012571779314716614,0.027832557351604684,0.004483992294557147,-6.859472818902603E-5,-0.025073407738555716,0.029430145228063267,0.018038392062665633,-0.03834842327919299,-0.004477573689145926,0.0214358010736035,-0.006569883302134714,-0.029796433589374012,0.016579048843113474,0.004119719281121951,-0.037570004224270946,0.014790025702719693,0.024165216496504903,-0.020469694893833223,0.010803871753439224,0.0326481409761365,0.010219292913900505,-0.004728658270201594,-0.018641784729476318,-0.04356051424679378,-0.02650178622487485,2.912535443532764E-4,0.02606747926181894,-0.024729934004577108,0.022598706006787993,-0.0067506698187614934,-0.01929457459219694,0.002000172676515124,0.014355371023100121,0.040083749409201376,-0.021520378563820854,-0.0031599655064492387,0.009132645181054009,-0.008489210696479265,0.03377389516401623,-0.009631087446162073,-0.013919175032318572,-0.012291711161318178,0.034947342282587675,-0.040631618576136466,-0.004066641430081369,-0.03982678046960143,0.010882432574720925,0.006215031525300315,-0.007293412441487156],[-0.035297192579592775,0.02121862737984083,0.026553709639695968,-0.030869115377749726,-0.03325080709214125,0.05363709933239966,-0.001210121318724,0.016933648218425534,0.03098438520484847,-0.02326624974494271,-0.01908961305914873,-0.01678596274207249,-0.01461917014930767,0.026507285608393272,-0.02644392572332189,-0.003865555029248415,0.020712289623675887,0.017801987627693146,0.007398652402870956,0.012688804550917483,0.008942524279699242,0.02539727197041101,-0.0715252597438131,0.01759025354118422,-0.02119890759464005,0.03925132595478863,-0.05662677051120189,-0.005467886609199869,-0.023344437579228525,-0.0020272413221100096,-0.016742439705095362,-0.015964366785850403,0.002793269748839079,-0.031840789244679917,0.013496409750149575,0.03262977596515446,-0.011052283858216827,-0.07007511695226432,-0.004183561017998163,0.008070443884260746,-0.0033580397122886627,0.008454512068225943,0.011739571704683253,0.041427072774134335,-0.004496816138426371,0.016900291076472118,-0.008843675831008297,-0.003281348681841114,0.04136701838057726,-0.00928939689633882,0.005325394321451883,0.0069119115648339485,-0.007031397412234928,-0.03360524769643852,0.014387079281701382,-0.010296569069787686,-0.003379669412599803,-0.009175319899444262,-0.05024557966340392,0.008133437989831602,-0.021727167205671218,0.014814818857039376,0.01531632513590538,0.023936691920610705],[0.018988629374169688,-0.011939459120479126,0.005767328006835525,0.024753027756059476,-0.006199624120772249,0.008434800568908916,-0.030098968364005108,0.011287855925955092,-0.023229638891554678,-0.02728997122941492,0.024622521399345856,-0.009375015013855528,-0.021348798373788214,-0.032758846993829034,0.0069022037682567,-0.02546457122519808,-0.01615808618749818,0.009839724573510022,-0.030215165961170704,-0.019063070940394333,-0.020763432804602928,0.007605658484465463,-0.016311649100552546,0.004726540743735566,0.02221599746406992,-0.014251879841790617,0.027982567192595988,0.019584348611940916,0.006031433730451486,0.03233257734506574,-0.013009480115113712,-0.018510437556991548,-0.024279150621479503,0.025441558081736343,-0.007859814535997448,0.004073936768486579,0.026229544753056538,-0.004245649618678782,0.002215940492794239,-0.025447355921375068,0.006272024075886318,-0.003153983987233172,-0.02584352970210994,-0.01829652926324919,-0.005471642146996212,0.03229021209895982,-0.022013977652219074,-0.004208592564203784,0.01922824150320868,0.014624699532434787,0.009221831587848995,0.011295373842396697,0.008603877663522237,0.013121448529250318,-0.03234078067941614,-0.001195860158175238,-0.029302238821078918,0.01583597481000725,0.035532767261502424,0.009831214649844822,0.0015426299663929613,-0.03070027974834882,-0.020340766324343527,-0.03238473932481873],[0.013204744158360609,0.002634321603677877,0.0257101674139446,0.00757125527955601,-0.032200483342022294,-0.018922733928748065,-0.03398659421669275,0.01412627118245875,-0.01329574416024304,-0.016964263975286265,7.500862030886177E-4,0.027046213569858594,0.028694155945174615,0.01177342806110666,-0.023245551129273602,0.009682112624648298,-0.004710776099607679,0.03330887200420676,0.029498532825173413,-0.030384357561289065,0.014674821538687844,0.0335205800337541,0.016322476083841853,-0.01101743165988804,-0.026071887924700495,-0.024732053386939006,-0.02427620448805999,-0.018007045606715816,-0.022262183228299804,0.030831854938021517,0.019808581693200728,0.02842632187873306,0.02088027184264605,-0.020449470127668803,-0.010101160297734979,0.004930773625531332,-0.010490409293938872,-0.01901450475949071,0.02441850612247675,0.021380900993562685,0.005261835977617887,-0.011279753488472028,-0.026730761738728383,0.011601248839303519,0.029387090417967127,0.0016667628566247096,-0.012517146850217493,0.010553508634642201,-0.022964859905342732,0.016519816409426076,-0.025821993250812067,0.03169916585718601,-0.001201487744502057,0.01667891277490436,0.005708311286477829,-0.03194528586147451,-0.004492113217766141,-0.031428325859195354,-0.005149204560679326,0.003937384433794489,-0.013083430369306086,0.02252094525582824,-0.00592878923625887,0.0035225479161056636],[0.01076054822484966,0.005036487963796029,-0.01004706736144165,0.017726891327030796,0.0022344178201141713,-0.014910047399611428,-0.02820927759340811,-0.0019377061860523473,0.02140230628309165,-0.016845959104677555,-7.191893821733812E-4,0.02220184027583297,-0.026055396266015756,-0.014801384131115702,-0.02180630828751443,-0.033985672540632866,0.03567934136283099,-0.03524626622290096,0.017547669065014537,0.027491428137718668,-0.012381764252845451,0.034920378548283865,0.01588943965271253,0.03504632571302203,0.023809280670491022,0.005142443775928041,0.007724571137658691,-0.01616568060309649,0.023423166756890122,0.0049038173862471935,0.008241780769979548,0.025073157205784694,-0.0043135712601639065,0.029664589187310724,-0.017620472570936272,-0.029535814830617402,-0.017215140721560454,-0.022410281102483085,-0.009865597912000248,-0.018971976485047972,-0.00110072081379193,-0.02104775344849219,0.023808268288944594,-0.01302963990341787,0.02166347076318834,0.0020825204752816157,-0.016793643750065042,0.032584663558438885,-0.007305918466037056,-0.0067578798036819765,-0.011225433343751128,0.014821893071858525,0.01214864058069326,0.029969193343927874,0.024586608270586903,-0.028272888765184166,-5.0829698648748226E-5,-0.004586595763321211,0.018674832225626315,0.0346018658893111,-0.028063290069818413,-0.027903293797825135,-0.021129059474338414,0.028356736078007354],[0.028510532361693913,-0.021170909784419323,-0.006201122919217919,-0.01192969490636334,0.03339794632615106,-0.022966435365705615,-0.004772609217196006,-0.015159414131049494,-0.014618108274147064,-0.03322235636371144,0.016787273532918066,-0.022254606749314444,-0.029630038234778465,-0.02163061550382024,-0.01062649072872406,0.0025479064910945504,-0.03202308481135412,-0.01468812821306734,0.028242905278605002,0.014549866234516855,0.03295631893627456,0.004435152644454915,-0.023402684102076306,-0.020149718246188764,-0.022644594089510764,-0.019432389718325265,0.03245430793567668,-9.305229933695741E-4,0.0013236398760922974,-0.023830444067211843,0.028422410411745716,-0.006796292846472865,-0.02663462856971629,-0.013355189759105632,4.740797652215689E-4,-0.003029606143278058,0.030204805745029283,0.022428312768228438,5.17671555564433E-4,0.033645169849182234,-0.0048157547454592475,0.010847878047688886,0.03565284292252153,0.029836684925947668,0.016530114927048613,0.002747624257000623,-0.016976572889274757,-0.016820804595740636,0.017181175660164295,-0.021917822640020502,-0.023985117988001133,-0.022310924840425326,0.02617972529829632,0.01685864464059614,0.013751683841971863,0.007672664355417127,0.013593643293804096,0.022632119405009983,-0.017138362987347142,-0.006982464673757,-0.023435072437721572,-0.016178743014229603,-0.0302819944486295,-0.010695230895051826],[0.00908316717218089,0.004831995971623339,-0.03143934990822501,-0.013125394867017089,0.003888748687464186,0.03435977716213132,-0.0011088083057615675,-0.0033810298076788954,-0.01847945762710133,0.005140736391010005,0.020048961666825047,-0.02028083908687861,0.033222007499241535,-0.022159742464571704,0.014761220535258253,0.0223667322711336,0.00120818731354532,-0.005439692568511734,-0.0075628770634614175,-0.015299632631742006,0.01595955981192894,-0.019670808076281233,0.008468748429585749,0.022904134003509703,0.008604338670016325,-0.03037679870726112,-0.03504284774453,-0.03392844263094298,0.03136435237597637,-0.03482669132213274,0.02252517881614673,0.025045433345899988,0.007613834379825815,8.887545733490661E-4,-0.01635944372699466,0.004709464311612264,-0.033236036046400595,-0.020316952753523757,0.005152334999414515,0.01270613176493483,-0.03063265405233774,0.01888801154929096,0.03296974906507667,0.034857132574204926,0.008821573104245957,0.003645184831090101,-0.0035864111767310936,-0.03361756604241509,-0.026446200033231202,-0.03497168348677359,-0.017682410186047184,0.0340659289746581,-0.01812540768979088,-0.02103854038592382,-0.02769164598183157,0.017799687592472316,-0.010629278414760404,0.02425449296595898,-0.014867363840933337,-0.005259294829675203,0.01576289365480858,4.2438049787194406E-4,-0.02342679585852355,-0.014366175058353628],[0.00172865403326384,0.03126348794045059,-0.03045802602952486,0.02354922849580715,-0.028002955803053134,-0.017358637529315806,-0.026495618432785615,0.004638385065640143,-0.00808274367649457,0.017069360004912507,0.019757797950510914,0.004242806949752407,0.0035455823908873297,-0.006881649604071298,0.015830709515884157,-0.02163313824603068,0.014083505650327581,0.02342977227875205,-0.034468957501847156,-0.008422210728370278,-0.0014796583786544518,0.030799825604403697,-0.017619804483937875,0.03210866857305094,-0.016127527209958914,-0.02664057499688925,0.014752501136402425,0.02188485890143724,0.03303885060618814,-0.02420938759810402,0.015283639436037768,0.017657034991353467,0.02772396108913876,-0.024758390245035858,-0.003555241050143186,-0.027738462195853422,-0.02360003561636754,0.02527067150389498,0.01860141556835136,-0.003472869212216892,-0.026538830191148142,0.02733474256391975,0.013531070927659657,-0.024636635696626663,-0.019005395203666682,0.019899734064307173,0.02668814652863764,0.0032427289878277127,0.009236115353396166,-0.035529240998210275,-0.03451834595165244,-0.013945105117384575,-0.03562652099285099,0.011437246363210148,-0.01724713989533795,-0.020404590227956137,-0.015674875881111137,0.006599374022138916,-0.009776451114300437,-0.02881830492034618,-0.0055349095512025204,0.011588757616428112,-0.014070619655430794,0.00292319927021939],[-0.014018032057659247,9.75121018760556E-4,0.03541448398012609,-0.0027040833696625227,0.0067944741880013315,0.022804222568521326,0.011600216263382606,0.02074122616150206,-0.012729467894064697,-0.03235886703354453,0.0013240751394603043,0.009025175596361202,0.014695974831623024,-0.030389206791992123,-0.015282694522672105,-0.03522874034068022,0.021513164158598313,0.004292301317177513,-0.013148660670403718,-0.03422552691304607,-0.00862949412621491,0.024062690175258337,0.03229143639771922,-0.007582974278561717,-2.9482814296292813E-4,-0.018399621657631798,-0.026220992776886592,0.022308045436367035,-0.022362267157831888,-0.02039495255621976,-0.026634888018516354,-0.02126785036936374,0.019388738461469775,-0.022059242719613483,0.01650791095648806,0.02804370799795618,-0.012909216180818384,-0.011637151897394964,-0.02021641682267472,-0.028786654880808574,0.03133673699283226,-0.008253616542778959,0.02237191040884311,-0.005107699379143357,0.012503912134117785,-0.005276684565515071,0.001793060865065294,-0.019534306607001204,0.033968305999180284,-0.012428614778674352,0.011205213964172669,-0.012953749574599683,0.02662929740642549,0.0016514235335203162,-0.001076303640324429,-0.002355941860978396,-0.016724817077077316,-0.007338711129888336,-0.02502314391111344,-0.024593027534089228,0.031233408139661505,-0.03310738394585824,0.03447207751155125,0.004574627518697749],[-0.018962141518161547,-0.021316146393181967,-0.023835829875470893,0.002912289638093154,0.011794817284837118,0.0012166814527998346,0.024040809719351026,-0.025396510965218833,-0.03517519327160215,-0.004582623663684757,-0.0014628379831560432,0.02488214841488143,0.030285340106228565,-0.012714568561749786,0.01787849659023167,0.02293336421298751,-0.001731869132507169,-0.030378055785398577,0.010454217693536834,0.020643814428881396,-0.007972217059077595,-0.03013040690917168,-0.013950858980839729,0.025923982011048015,-0.0077482298324332444,0.028747626021136317,0.004341012026821015,-0.009445148373327383,-0.0023763540077390167,-0.02828819602604378,0.02188854105938436,-0.02473992549278633,-0.008780149347396404,0.012705058449214053,0.008167370270626868,-0.02960070115196094,-0.005484530885881768,-0.021381692273281783,-0.03150899536788812,-0.006394661093564307,0.0338127902021141,-0.0023618348675213713,0.01116537369032989,-0.001296033651631913,0.03203428369938755,-0.001923812161132267,-0.00917318594184601,0.027646343562236837,-0.027961278944241195,0.030638735848091958,-0.021825140423830665,-0.009621167243799751,0.01306834514476396,-0.029306923437994837,-0.008909109180988544,-0.033426720887906,0.008187840881929698,0.00648544223106412,0.00200250973673657,-0.012057277507314279,-0.003796428779885333,-0.025529561575720075,-0.002974033764902549,0.02333014057363681],[0.012268701540441889,-0.007510086567431398,0.01818064945793614,-0.006261725520563548,-0.022813860389590046,-0.034506951810804605,0.027963561886144413,0.019538341249695015,-0.013683123299886546,-0.031753299756574614,0.02436908164070183,0.03296878784903257,0.02498627385032387,0.0307601213494088,0.0326117917644372,0.018569232831231637,-0.011644967125269672,-0.03505880700838873,-0.021213877725830024,-0.02761044488098723,0.022742219464121836,0.003883504422814662,0.010476160433385473,-0.01661619397975895,-0.010502287707466203,0.035298047196565596,-0.0015164547066469397,-0.00551376817711145,-0.0039937134377002114,0.026521265297324546,0.018085210891589154,0.010757899479215816,0.012694119250561717,0.0031098545323031135,-0.0038626555948692415,0.0019728738142009944,0.0285719910420985,0.013414976240258296,-0.006664225238122331,-0.0029173656303332586,-0.009112068941857763,0.03057153781236886,-0.016688136230149513,0.031013641628145783,-0.0016958341463012242,-0.003243876817240246,-0.008013166397140812,-0.03407018883309157,0.014516017404631487,-0.011925562616421826,2.97782404953579E-4,-0.016284965983914792,0.026108171036327517,-0.013678612520755829,0.019616723207271734,0.01971485965416625,0.01326793735141749,-0.013885857204561614,0.007624368259172731,0.008292699530615311,-0.02239700447675878,-3.2632330730425485E-4,0.017358410888782958,-0.03292435989971389],[0.00631379024943859,0.018251792396102876,0.02077503643273055,0.016031099285852668,0.017777209421273206,0.006011480607278907,0.006156158097235472,-0.018843159442883426,0.0016366132816117665,-0.03236000233492771,0.0017780810761770197,-0.015131373169796403,0.02247825010133076,-0.026322275155130238,-0.016427424968863315,0.018989682483296633,1.054472829583359E-4,0.033195988574064875,-0.03222697567609585,0.0030122018121324485,0.025585468226412975,0.014910709462842111,-0.029253474894545564,-0.03570045311512206,0.006353841884790196,0.0065045552461970935,0.008795895799749629,0.023842495113943284,-0.02999688941593904,-0.0035802925958889737,-0.01789768175976363,-0.026068772674512804,-0.03361436780383188,-0.008752317711840858,-0.003687545181622382,0.035513797344432455,-0.02296203938876952,0.0022249908189985734,-0.0060179381625399654,0.025938711436033577,-0.0017415196625256621,0.031957731990153095,-0.0038287805067689757,0.0093668551708641,0.00944065625237906,-0.018369461240711094,0.006230209110341072,-0.029042220118890856,0.014338450593504597,-0.006108938407592396,-0.011066088684021678,0.009130087746785285,0.035532563264877214,0.004483490089825308,0.02290215287731774,-0.02223456945148866,-0.00566678981323462,-0.017752483389414986,0.01839804347950272,0.003598951720906811,0.03398293310859123,-0.0076970994768778235,0.010411617174100487,-0.003926963223619144],[-0.028117094752863146,0.03538982135764152,-0.021587921261610788,0.014768878259437313,-0.017627489155414105,0.026003265859266565,-0.01928271621334106,0.02031435352080818,0.029630537006624505,-0.012568837927976917,-0.019773513157964693,-0.03445991046757582,-0.009463110116924371,-0.008347460729242924,0.00786338956082091,0.0274752957117476,-0.027306233242225433,-0.01515500184126559,-0.025233148268442203,-0.033887393361778734,-0.02817421939787444,-0.013581342483325343,0.0040461585662315514,-0.020130537496129298,0.011174254464734246,0.016751101127376027,-0.035070528941742694,0.010332601319254722,-0.0224427997623452,-0.003855691284507848,0.02780654213998731,0.015906315172484076,0.014483609341071131,-0.020753870856635926,0.01799989404060084,-3.201823543415345E-4,-0.01934009064326805,0.016703970929893903,-0.013764606281947294,-0.030243990497455985,-0.010449376077754853,0.026289905710602815,0.020437720244267685,0.030442964897646186,-0.016216913118630428,0.023440075230497775,-0.031922739024170255,0.0215291907865519,0.024260290535511056,-0.02248430290278359,-0.007729077468749004,-0.03108435898224592,-0.012133439007957292,-0.0034533838110985854,0.033904672128052406,0.01173290950548304,0.026760724214868428,-2.386292238602935E-4,0.010485911690505103,1.5966710863202227E-4,0.017879186448110342,0.013839933914410525,0.021677628295385457,-0.02837903153054589],[-0.03372583147116765,0.011261166046368239,0.022942297397919087,-0.0034029760870818277,-0.008281335100823921,0.011642110558087773,0.015288769907291451,0.010342711845480182,-0.018237468131984805,-0.010419350555913294,-0.00494429465693503,-8.799322430973318E-4,0.021837550628843436,-0.024783273846331243,-0.0013053454898693329,0.003365697465929946,0.02836932631955533,0.025091763558600162,-0.007793798388263875,-0.02159017921366915,-0.028696986092314546,-0.01908902941452762,0.021805016444454022,-0.026923698305514172,0.0351313037067379,-0.02035804712836687,0.032972789233779685,-0.00941942038503588,0.032426540951077436,0.030015292042676903,0.007873327915974464,-0.0011092115858878846,-0.006118315130861402,-0.014928593083807316,-0.0052770163019320105,0.001983481052497912,-0.028900274736844977,-0.010648254444473473,-0.007153778802772308,0.012066637098427535,-0.011447452957424505,0.034089571178998426,0.013800795340997436,0.03300157869503531,-0.01645627133616315,-0.0285406910493718,0.033557972575559564,-0.008881893399872085,-0.022344592260841487,0.005307801365975037,-0.01672934201052463,0.002811895853066142,-0.012819981764471482,0.005101665028331949,-0.03191525734117086,0.020168633010095503,0.017719011862758396,-0.017917813840249715,-0.016682181206774543,0.03208989927062003,-0.029098609152465076,0.007537145338598386,0.015144758221118913,-0.023855913350385536],[-0.009536664552478749,0.02839197434135485,-0.002737291063448047,-0.021511027302451982,-0.023549138839709143,0.016419140943692748,0.00300201661283669,-0.014289088604532658,-0.014225444753765748,0.03140763513035694,-0.0017102020758460773,-0.002415364083767619,0.014758884737740736,0.014195310302615765,-0.0352403345457435,0.02500599182247054,0.01040284671626077,0.023973984954706522,0.009848484658742314,0.011258948088458143,0.02466077203023565,-0.01855471103309904,-0.002356474950121891,-0.01836626440899788,-0.004123689696766765,-0.010480446041781943,-0.025173511908773583,-0.01664231833111116,-7.266865990761459E-4,-0.023689078439891605,0.01601903260208135,0.01626292712450399,0.025552910389779304,0.026903348789814246,7.39038474549639E-4,-0.008261423801654717,-0.005404638371527389,-0.016398372633355886,-0.025686498428038294,0.007584520762613439,0.004303730534760059,-0.015146974372397187,-0.0053942591174505694,0.0322575561778554,-0.03296006258936294,0.009300321432263003,0.011015555741528389,0.0251058509720669,0.012177980043678418,-0.020780076321040626,0.004758416814580303,0.008096898837300612,-0.024108820544624477,-0.014518937245414976,-0.017219215706203595,0.006399498813289352,0.02982879053663947,0.00984783291346727,0.03325180140130238,0.018553698098668144,0.018822304318367875,-0.00292184100017446,0.01838687250876977,-0.0238605217911141],[0.027050216799332265,-0.01686191034078548,0.02897753371364645,0.007835466094039028,7.53566623682795E-4,0.0026607527416367006,0.025852994754593715,0.01925726852278745,-0.004938357932990942,0.03567929121485645,0.0037247606307632525,-0.004875951460222532,-0.0029564419819000137,0.02493832496120986,0.03246673554774402,0.024121757361926302,0.021032856508866913,7.385221268382654E-4,0.017002066307382886,-0.017830989688524954,-0.010135741786765746,0.018865425986637388,-0.030395285980864842,0.01521850652218874,0.021200279343748105,0.020125240959227266,0.00757832329917561,0.009671654216507397,-0.01124682619495419,2.1393047883136053E-4,0.03209021215199673,-0.015910478229368853,-0.018932390147721783,-0.03534673124980544,-0.032442779506529656,-0.005564876994192677,0.03562155550748273,0.035338278546273805,-0.026026026918733576,0.0022946882634024795,-0.0023872016949779773,-0.01285936386811406,-0.027342708389883823,-0.0028868466907855063,-0.030502274850897133,-0.0035694390870346327,0.006195746487500946,-0.010558278658594045,0.00770892002630146,-0.02168444394829644,0.028797952555013516,0.016818678284964052,-0.013001183010524005,0.0044194683458100605,-0.020558670020504415,0.02718869155982452,0.03339510112177191,-4.317086880223126E-4,-0.0013366333985589396,-0.001860878858279656,-0.01904719571501193,-4.7571536356116087E-4,-0.01806160913406813,-0.01487689994702839],[0.006776540124073868,-0.0013685256300053586,0.03263034134096807,-0.031751875131636555,0.014592679106654776,-0.031239235169783185,-2.084637143828703E-4,0.02799298580799281,-0.030524527062975156,-0.010728501160178617,0.017732101391741726,0.02537488382930775,0.02088753743071803,0.020410095559519528,0.019599911306976612,0.020194047867276195,0.030840689842843785,-0.03464075036605205,0.004758410022510333,-0.01082206278806622,-0.022710431878463815,0.013319216792585431,-0.029042207565822542,0.00413112596561296,-0.013019673342187121,-0.01959719018736027,0.020021022812024825,-0.030001103546613162,-0.033109742984126785,-0.03324204489392837,-0.0042756691645146295,0.018358018896675907,0.020539805888703203,-0.015661039311965122,-0.028115031678263076,-0.011028483757662156,-0.01659232056696215,-0.005584435094219028,-0.022622836146462495,-0.03217173815362182,-0.009567473190953602,0.02723755086944081,0.022880334560698934,0.013104448477319253,-0.0018589510693494521,0.0239764075639459,-0.004092490916563655,-0.009267723586864134,-0.018554837254504044,0.02885842124433061,0.030352190030592988,0.0015988206250284265,-0.03225704624554745,0.010143073329223642,0.034428589130882876,-0.001460759985817628,0.015782314268899436,-0.02628507194611951,0.03360621305773919,0.006090368646552855,-0.020483111450765517,0.00968951768729976,-0.004187853145681787,0.012290496214197515],[-0.010670478965978843,-0.01941620902862618,-0.00234952457095717,0.028220159798485134,0.03451908580442303,0.004983981256033403,0.03409632724253625,0.007477149565556149,-0.015300620634016548,-0.0010275748775763441,-0.029937593441546322,-0.0013478138497351386,-0.013399196853951467,0.023135669516174826,0.008979682006446197,-0.0023084630560753967,-0.011874508329785847,-0.025659369462227702,-0.03177577834706566,-0.026200993550326058,0.030527255848336772,-0.02708076080689052,0.03243029211182085,0.03367089334039919,-0.016302463077598344,-0.015412192975246437,0.003455858730962229,0.021516591882762264,0.007309318213403787,-0.00336889888172812,0.022867622006750885,0.026494376836643248,-0.012283488185381893,0.011031129265245465,0.0235744302310415,-8.276091878325817E-4,0.02702703341675793,0.009031551793702186,-0.014053898697174636,-0.03559109972324876,0.032377693580103374,0.02495727710107444,0.0018377634492586859,0.016776348515810224,-0.0012903374479906748,-0.029473246400109048,-0.02688767354035182,-0.032240801742975174,-0.017011044387056338,0.017258900434919906,-0.01048463563542505,-0.032849674950825754,0.0318369974880672,0.031030302396338843,-0.027320835521819298,0.0014975977025783141,0.0193605524796813,-0.026333069678734007,-0.0328127781352311,0.022968502799455004,-0.022401891980475208,-0.015484459477539323,0.006017238014437273,0.01117750112766327],[-0.012997426857629064,0.030232818053974105,-0.009414793543982176,0.018358517358731737,-0.032670612944635274,-0.007873087927776277,0.005035628849881052,-0.019522549850079854,-0.015519518797881706,-0.009856765586313114,0.0017917731017133168,0.0077530402875628825,-0.03373193833423698,-0.021852760345739693,-0.006447725659612023,-0.0024116273320555054,-2.92214114765575E-4,-0.02776442841674041,-0.019817836914832774,0.02682440400683067,0.021471621658410267,-0.02188219575597579,-0.02984550658553292,0.0070823103759883555,-0.0027594618161748924,-0.02056032837073219,-0.01750377977069353,0.026763425428480408,-0.02796069363727277,0.02197951834907664,-0.02056420037055615,0.013166633583949506,0.01935272301434895,-0.021057330590673082,-0.003573973520485282,-0.02897924426737979,-0.020942446186883092,0.01010351384137072,0.019209453289640473,0.01808493175130778,0.024385795672452693,0.03230238923661777,-0.021465944148469418,0.030057578758567183,-0.035165880351457283,-0.013492008262785038,0.020584913860549937,-0.002717146209004817,-0.010562865571276954,0.0315918883999347,-0.03482625791202017,-0.029633113268537813,-0.0025858254572913492,0.017129679227079253,0.012793338213563177,0.016528643611453776,-0.03483359144990336,-0.02734226441817925,0.020084325830888847,-0.005259273311573791,0.03137170095326444,-0.029696137726490646,0.031076890891430484,-0.02882189188372214],[0.002641741856729052,1.4603466866393498E-4,0.014474716234531122,0.022901733303669077,0.005155179826781803,0.014464198883092177,-0.013329158069527176,0.017059460917694454,0.03286183258265865,-0.023192622627814317,-0.03244605022740995,-0.009097003541965742,0.02740946426615521,0.023073441789963532,0.021478931118885332,-0.005403675665181851,0.011733044524444187,-0.009693861285039731,-0.020962720881485018,-0.020156912648973003,-0.026018575954697816,0.02322482526581461,0.030756715654263942,0.022787233182721887,0.018280495371733985,0.014331014681663834,0.01729975471331198,0.0023003048054177234,-0.021968783000376815,-0.014931886887383155,-0.016453792047583658,0.028945626033103234,0.011729284627743086,0.030089389280341303,-0.012436542805293865,0.007032996961343256,0.027813961398644265,-0.018642790864545313,-0.025823463996066266,-0.0020385004172186073,-0.02905080651692945,0.003553815779887662,0.02236169582164034,-0.03393573844701559,-0.02401779676973873,-0.021440971867208034,0.027431076419911864,0.0284173008014587,0.014756132860842557,-0.011171054947378268,0.025809185549982943,-0.002444951101082845,-0.003597470214392257,-0.03260803261550788,-0.016447073626692985,0.01503352832077,-0.023436341307994504,0.0030071692904346603,0.02106435534544593,-0.004273178976322852,-0.029091828263785882,0.015662250764411093,0.021403454016891445,0.009062322974634107],[-0.0038463839776613894,-0.021401616932656426,0.011081447663339176,-0.028760185502838497,0.020551822407878284,-0.013008524038091544,-0.032624615157742225,-0.031040029860082412,-0.005015360577658961,-0.025400875532336796,0.009209246570619674,-0.03385505674103779,-0.01478456239687516,-0.02748489423425106,-0.015916135959720554,-0.011317152037492104,-0.009521943664614181,-0.011957534241301913,-0.01466557802989793,-0.0032403957100284844,0.03040230270853097,7.828304586749658E-4,-0.034982738177563,-0.034097198269329054,0.00878711192573038,0.011337008908003585,-0.008499263699069153,-0.00405738346608806,0.006537138456344549,-0.03448753970117437,-0.020821736734446265,-0.023892021453559256,0.0157433995585607,-0.0013390903217496595,0.03396825958270903,0.029205505168685555,-0.010421382728772412,0.015129693206585986,-0.015289387297664549,-0.006567458920671286,0.018061968509591235,-0.006071387809047189,-0.008966073265171293,0.006332333994420014,0.021117180540126266,0.022476093956389588,-0.022965997720278457,-0.025844653623620182,0.004883920981522885,-0.02364414739069373,-0.03398382637635658,-0.01547751496685229,0.012475566767602567,-0.014531975776798012,-0.030988006953806598,-0.02055972958026269,-0.011378328716589881,-0.002361305902406936,-0.019378625216230395,0.03440690204242348,0.009544836205126568,0.01302683198473129,0.004392237884262185,0.03192581619982049],[-0.006161143097206183,-0.011766204241089054,0.00596534246194913,0.015166454399823257,0.03301693234647737,-0.0029875049850480928,-0.005077011088282333,-0.010320786352276411,0.003584964869222787,-0.01486098920494299,-0.013348377063371353,-0.01991375089371236,0.011913445587438834,0.01670467432138583,-0.024674559731511333,0.025160993877283728,0.03172718727918944,-0.01960491547769941,0.03256000442519531,0.022454367277844774,-0.010487350805062976,-0.0283404500580723,0.030108281957128002,0.02833052005039444,0.01139735317055894,0.0353253252986967,-0.02842683331873827,0.035425119867168904,0.012578432507581623,0.021795009330578125,0.024117364935071984,-0.01413289923193136,-0.010855209226275253,-0.03319046977553812,-0.02811214021571183,0.013389740495688444,-0.010609941701462663,0.010992452096344868,-0.004909422717995931,-0.022874725753533293,-0.008837860154686216,0.0011366440534874378,0.032840722095434496,-0.021956006469237403,-0.03478683940571861,-0.009556301248453712,0.020715476808370277,0.01725069178950769,0.01850764454811145,0.022084397383093198,0.023018601750323185,-0.020505402747511014,-0.009518849447479416,-0.021633415565938157,0.025006736759797966,-0.005280300461294239,3.546598903053763E-4,-0.01126376257736596,0.02176611271325578,0.0021352340886281232,-0.003855914562349128,-0.03121472120085341,0.01527395337490898,-0.02841898743428947],[-0.03549759132552518,-0.02900916690517896,-0.03540298175047093,-0.019507119712492717,0.03259142452011661,0.03934841350004188,-0.035430065562244685,-0.01751359101352746,-0.007969607601553477,-0.019584355211142233,-0.018181109167984013,0.015271007815308579,0.024334775240688954,-0.008478646498303943,0.026019350006956887,4.6106538806386764E-4,-0.02736131627438014,0.022498239930095348,0.026283336694677518,0.0172461689526235,-0.011818644195448537,0.006837459354205599,-0.015289350905147119,0.014019608054737238,-0.029000222640473784,-0.007097592243224867,-0.010273074346481689,0.00883191020143701,0.068355606350327,0.032867691918470006,0.00471427790103693,0.009607122416073453,-0.006347948436442432,0.021247645588056956,0.01632054301426145,0.009463625063824668,-0.012431608960237244,0.012950487336451287,-0.06025102868965802,-0.03305908662684284,0.004380182804312211,0.024417854777533752,0.016962942477002193,0.014709030761740271,0.014351698911178235,0.03413842202941496,-0.02011684687212649,0.014943557202679937,-0.020787075481898072,0.028148809997874544,0.021099827695095993,0.018173364615743464,0.0320161055281672,-0.0032660143805889187,-0.03567281294481426,-0.017227281612526523,-0.029240708762901975,0.018240104253789205,0.013487068494352706,0.0020811904058956354,0.03144334188996353,-0.009027022827187557,0.03598735002094872,0.021152719182005175],[-0.00660784105940457,-0.014804131581142558,0.020036083312291616,0.02103982451188785,0.018039768350419975,0.08870126009851219,-0.022068032401847685,-0.02043528513445357,-0.0361568557077645,0.030501824633694604,0.01093007540452009,0.049276918763110064,-0.03667839149753375,0.005921287409468541,0.045835868068330426,-0.03192850898632382,-0.006882181696565324,-0.021440449568590342,0.03279295991692513,-0.02313522028801011,0.03678171571575828,0.02810379294353326,-0.025861277762730964,0.0038500702582318844,-0.006590190434550383,-0.026898306984846746,-0.008911883076403697,0.030490373625152105,0.06968349170826126,-0.03237209992101441,0.0011957227052963066,-0.0173712601753644,0.03151884197319353,-0.0017218958641307932,0.03141896752490037,0.0183400090001992,9.970255015264052E-4,-0.006227419327357907,-0.05506428939184832,-0.022142798590009297,-0.0010042204266617059,0.03828523869030393,-0.03465100834944142,0.012530155222247506,-0.02773001577417764,0.0013582565176924741,-0.00855193011944536,0.06758546087333224,-2.4014061191217435E-4,0.03956450835580894,0.018674652613710936,0.007740898274290685,0.02565885542883205,0.00923728688620162,0.01200170738670857,0.008125929855867726,-0.0032239695057527623,-0.011975975481917324,-0.03235646880184352,0.0036885068397582792,-0.019279221650454634,-0.02238710945636639,0.04189323123543431,0.00590519155537166],[-0.08214991089470879,-0.021478373277338873,-0.05703961642241946,0.0048642440286422225,0.03232420343466454,0.10342339153276092,-0.011471417008844314,0.013006037420706258,8.323907999628838E-4,-0.0010408491197415877,0.03562361376879614,0.0751383515309978,0.004487329350966359,-0.002773062815127297,0.032729427824889835,0.015472207546823321,0.033557439502862475,0.012158192266638444,-0.005523863856214557,0.025264197387814633,-0.012587937757310291,0.007353670955654434,-0.006130896095306065,0.01585294987764999,0.012566172144507639,0.01908292518777289,-0.035617783467765146,-0.013886262327314575,0.11072573216155045,0.013110603564765119,-0.012598507616460142,-0.012449650295075885,0.022003012632168972,-0.044808624211943135,0.048920988835068235,0.014111160639113201,-0.041862770603292285,-0.031595286511574,-0.08127332631575727,-0.040463730586787074,-0.005154841725142348,-0.015378691160450774,-0.017914848126391922,-0.024911794542080954,-0.012745472091763334,-0.010745512482448486,0.008980387680255351,0.09535499775246412,-0.007848612690875074,0.013824783759839742,0.019841225933599046,0.03552734916033314,0.03398633854442052,0.025387570534062154,0.01234484197722496,0.01187291715578861,-0.003917677726092428,-0.016124905069526668,-0.026816932677101994,0.039867415292878496,0.0378334489029309,0.03769801758202634,0.033077314364525504,-0.02056504231874821],[-0.011685650024292477,-0.019935633283103184,-0.03935657705574286,0.02287284014616343,-0.0036330091013978914,0.04430137285455559,0.01834715853421662,0.0075229312845973674,7.114244046884037E-4,0.03726513675908797,0.023022180313516622,-0.0043494978559599105,0.01893518861005837,0.004769645637856641,0.03826815214197913,-0.001732971615872541,-0.021500529947645463,-0.024073591201018273,0.020663801547341543,4.71782445635814E-4,0.0010101425143859103,0.020293187167805843,0.013073910136558519,0.0284219734040548,0.012170380221613953,0.036868061607570946,1.5503614634546724E-4,-0.02705488108729133,0.001308774791739245,-0.012226205771355499,0.029793388187510848,-0.015329003608242044,0.03424548661589108,-0.021273606202020137,0.04325412799506807,0.026730921505233488,0.019823343399418544,-0.016860237865597483,-0.03986689641424603,-0.002656112971193993,-0.012380300183457616,-0.023237066245184384,-0.027596851551452944,0.013310536512727806,0.02863511939725799,-0.026536082883379372,0.02088895506184641,0.03939299233475782,-0.013163561908724088,0.03428958802000295,-0.00746207822409383,0.0031290242219017103,-0.025796251840384837,0.006196139242325687,0.003573907486782224,-0.022800010709073937,0.033086058477251525,0.015859926768839013,-0.004323707848636095,0.02527067271911076,-0.02895770085622088,-0.02560202021814468,0.017320595308935996,0.025452440307747924],[-0.03786154451383507,0.027195562177378875,-0.0054405043747272445,0.01375274095190313,1.2611033453743407E-5,0.05520529044397583,0.01787310205416712,-0.0035595512983446756,-0.038071727626055984,-0.016572788803890685,0.028149839959738278,0.023917142422195628,-0.008922184223136242,0.0021592434325556123,0.039418776542082076,-0.012253528815001774,0.03460919990052056,0.011218554733551272,0.027049933347216372,-0.017663316393257838,0.01725192034099707,0.02410573893553308,-0.038935131713152986,-0.0030428899014785745,-0.018506022773405795,0.007812554521896954,-0.03960377086206913,-0.04396585891191693,0.016313328562875914,-0.03673168950741374,-0.025024997975629407,-0.020269645218218862,0.031274305252720444,-0.03428205353809072,0.04987462519586645,0.035410195454042705,-0.023094295902738773,0.005137702122491963,-0.042924831736121064,-0.023802523438578593,-0.01756771990252404,-9.27406291277102E-4,-0.005829503443824544,-0.007452357897800738,-0.02907637770535081,-0.012852965823964054,-0.03180181015929562,-0.0017704424435435937,0.035811522355071373,-0.03784142273595134,-0.017969567396645056,0.023531769053261455,0.014177968804093267,0.002580065479090299,0.01773225750488666,0.016482227412474636,-0.0022467575684558968,-4.924117861924469E-4,-0.05959111632497772,0.02004381365556806,-0.041169265386731504,-0.0022325531121374508,-0.0160148588879573,0.010274074248362085],[-0.0648707614033182,-0.034129471168983586,-0.018873821180430822,0.027157056885489837,-0.013610287754120447,0.04049144654431574,0.008211113965311835,0.025670922058944775,0.009503228203443032,-0.015466272625618116,-0.01068972153445994,0.024424482290277768,0.03632108821823302,0.029480241681562307,0.0074766691005649435,0.01482406443388075,-0.013031694214612016,-0.008527349049441134,0.029279008628593995,0.0010064074044055888,-0.007293710437851742,-0.02074863274487175,-0.008154984596695686,0.016247519278441865,-0.03402179968115882,0.0185433636153118,-0.04685679077786896,0.005413715420068219,0.04310519829303588,-0.019336499301680087,-0.033330374648354914,-0.021053914797340884,-0.008563130540987864,0.003222999397533725,-3.51230580659693E-4,-0.025556831697020502,-0.03350762764208919,-0.03037679991365252,-0.03379578092780516,0.020901028954657494,0.030765473437078413,1.5655888063308175E-5,-0.0023888390529040434,0.03962995375090579,0.022634456636230132,0.007944386198352282,0.0031609625784681738,0.023672801828999016,0.009813250055607634,-0.003551157701112597,0.0028717239950857973,-0.032891614212346404,0.01026447501431562,-0.016950730990751603,-0.0049537158673115065,-0.03379883060706308,-0.00981077065124558,0.02191673097124568,-0.060861823696050504,0.028872724363864916,-0.02036103980093756,0.03810864731783266,0.05438614322865543,0.009995611640623176],[-0.09856158895431391,-0.03287654893115714,-0.04116722928092655,0.054041603116925734,-0.0408975186579294,0.13851935606760848,0.0165674505839839,0.03130179841572205,-0.014877527389641534,0.021480849021814647,0.036222625557022825,0.10546360846812369,0.04127236666188035,-0.0328784459444756,0.029088599729908148,-0.008078105300893115,-0.0014786116046858738,-0.008735365707926532,0.0038172775326076698,-0.022120551505159753,0.031726163326377975,-0.03399166787450067,-0.06225858765007045,-0.010060786951942966,-0.010137322669903743,0.0880003783055677,-0.16515968136655446,-0.04091635744758096,0.048603537497543384,-0.01628773590687633,0.00900862865362051,-0.016401655730633513,-0.03332684484409099,-0.0713569911088958,0.06283645592951453,-0.026029119982092477,-0.006539546754321502,-0.07663770698493819,-0.0805213446033629,-0.005366818851636609,-5.056713612051488E-4,0.007689009610066168,-0.015496531813330659,0.022879549184200206,-0.047130202440911394,-0.06866657413466998,-0.09250667153028139,0.017633372139811573,0.009935889018879747,0.016544374953844657,0.023406794609301597,-0.048167409272000423,0.04633890044853353,-0.028505265768257564,-0.004019588093603113,-0.029094407795805497,0.02923650338968934,0.036896991830845154,-0.1110055117121431,-0.020080012596898754,-0.07827848962444206,0.04195224412365116,0.030554903357282618,0.03622188677199243],[-0.0807579264178099,0.008637367304487234,-0.06595277397594011,0.043040920747024196,-0.02251599412146073,0.06374640789575371,0.005358888154892122,-0.03563649991434817,-0.04171603278544301,0.008812558776599652,-7.64425262873919E-4,0.041208929184140444,-0.030445119665505508,-0.0242973786883305,0.017830023325619792,0.011774858284089152,-0.01704642005423011,0.015182224462237695,0.018433346708741007,-0.02606264885269067,-0.02084122168803023,-0.026275984039415157,-0.057889406370916816,0.0017191582320615175,-0.0297917607170624,0.026010222375805886,-0.07102589488793898,-0.05361820217049324,0.03648400873064975,0.010985300623178032,-0.0115263321114238,0.03368334260030444,-0.02366944469724435,-0.04103189306564455,0.02879436040471246,0.018674932763956507,0.027753980448534936,-0.023426780388993238,-0.05064910030767285,0.01646801932868254,-0.0022168082340934497,0.02982263743872491,0.005904169006326772,0.0320438914942098,0.02492238176018114,2.050992107122294E-4,0.023044448727275478,-0.006543710246063918,0.015740236975880686,0.03125440701277145,-0.01740232859730112,-0.04439283287849064,-0.0015752370227954038,0.015118162264004578,0.061048296069227466,-0.03485998680679179,-0.02317068504851274,0.03353878178690018,-0.10553980991608194,0.0357884170966599,-0.04361288320528995,0.040190012815701066,0.0344635974626576,0.005537599389832623],[0.014962108517129572,-0.014431096794062404,-0.024225972271750638,-0.047459035348427554,8.779425694631894E-6,0.024005036102289188,0.011386913625395331,-0.03875660897255408,0.025875986263089915,0.10007375716664929,0.016483926427439212,0.02027518571680707,0.009025115160986946,-0.02390674220542533,0.04522131732531813,-0.10735865253550686,0.04497892274468822,-0.01042076502198835,0.1088374429307881,-0.009952984868543879,0.051795845137272783,0.013200302022409162,-0.07423409325258772,-0.018778391433516343,0.027865532046791867,-0.0020723776637475337,-0.00519992059963301,-0.04948143454563498,-0.030538676486136094,0.0211625991763608,0.03703080168997543,0.00417613204594444,-0.028508192104929962,-0.00895011428434665,0.013559642985464455,-0.0634489797781703,0.07947133466610408,-0.013841342989739873,0.027365803070642784,-0.01609557754006376,0.012598135907564515,-0.03767633104580296,0.00858185284002068,0.05929288898563104,0.04179170769453326,-0.04001665492248554,-0.018406497521904014,-0.010571504758495113,0.01624890439883388,0.03317755218596045,-0.010939830551178215,-0.008834585612884515,-0.04244816432189136,0.027447426787399754,-0.01488497254571867,0.05158007881374014,0.0136897529612364,-2.82831226290631E-4,0.025833943611448376,0.05481596535240946,0.02507153621391502,0.02216054978568203,-0.03049061151905714,-0.09538620607927246],[-0.10003840197051721,0.016253830736747764,0.05956481707023427,0.04188873697703691,-0.03803654411773553,0.01811836435581692,0.01247837594714134,-0.0037212754497807383,0.006563812472542397,0.08432524777862528,-0.012174801699857117,-0.021588670421326835,0.023047724892953304,0.052875996822402994,0.167713504150744,-0.14142948816161757,0.032896276504710636,0.07952210336576444,0.09513447999200482,-0.05835207884337787,0.030153268279884238,-0.023996548363740183,-0.07486968715082364,0.002554344004061691,0.021363438106348675,-0.04097638379616811,-0.03531217513239343,-0.12013823968017234,0.02117978952133466,0.03165580148025328,0.029586287414069844,0.006281959058721266,0.056199822034320314,-0.0021969023400308114,0.12047871217996897,-0.04973061612864812,-0.021225513677416923,-0.0019816654080305404,-0.02613580097516154,0.020579859379495108,0.01530221704235842,-0.033020375003873705,-0.03910645991330636,0.05668573874926744,-0.018816569708643927,-0.05752043919889477,-0.027342054406218508,0.05754567843392015,-0.043107324601134867,0.007372931519358385,0.023415952097055867,-0.04938517326919614,-0.005818179634599829,0.0030778779015668903,-0.03147966667548341,0.1597879758093329,0.03859135684065854,-0.07717267536038021,-0.002222778811265415,0.08793004702284252,0.09655862451605078,0.044145415303159616,0.0016598305515760907,-0.06740648526675229],[-0.18642648644331686,0.007560633854798244,-0.0995649446748816,0.10749539337552583,0.023696748268420862,0.09026594982766169,0.004262004756257635,-0.03343065101549135,-0.030607405198195974,-0.007428881005668962,0.023415501383221106,0.027531171247567557,0.03303223089844361,0.03389153212821054,0.07634909635268632,-0.031066695114087314,0.014889570305982308,0.136756154197427,-0.036051304868387916,-0.03190352647530972,0.05213939902331712,-0.026606545519933328,0.014756003283129813,-0.07846574382209494,0.028500893479381187,0.019507101045429777,-0.06786743715663894,-0.024012915870599835,0.04228264903032867,0.05904042635345131,-0.0031638464050055904,0.0840155828634576,0.05620682966731767,-0.061197036177829185,0.026892019397921612,0.014462810192784439,-4.900964461100158E-5,-0.025776055128677557,-0.003415960375736688,-0.002601656549312638,-0.06257636427928709,0.005149528015210601,0.00740398106979188,-0.024779867877485644,-0.016348366743428204,-0.03253451213734059,-0.0012682325978884937,0.05831385177887514,-0.04121276917411514,0.030280946731387846,-0.03264810760958547,-0.027118156116850197,0.030340008037327643,-0.06453945955984294,0.012205277394812473,0.02213062301200838,-0.009659887379352373,0.013349629985470445,-0.006456551431696024,0.029280551077549073,0.022126455587497384,0.036707486395649615,0.036699346262469325,0.06595573411584706],[-0.12303949743820437,0.030634208480247217,-0.04552944476702794,0.021984238733016723,0.013341481695049144,0.05640044454469733,-0.011532607000718677,-0.02302123141573166,0.012805119034598236,0.009110207787120421,-0.004498473025961425,0.007832690966323195,0.007249626489855641,0.027029956244155072,0.030008171014463632,-0.019944965621996366,0.003071000368003359,0.07467314355360638,-0.04050601345583083,0.006517765881804838,0.018861881323641912,-0.02259047192431064,0.013386727865331655,0.0032743023724134293,0.025176904110897336,-0.003594963364988769,-0.08624852587536343,-0.01087622606387014,0.04975874869210812,0.03811027606253369,-0.026308835165099933,0.019625102725070096,0.020534791682336212,-0.03999455294956629,0.053408571724902265,-0.02328712694622111,-0.023524638832225102,-0.012668898069880766,-0.05374978493324765,-0.018787472690791118,-0.015839668066923027,-0.02571220581167992,-0.005305202821556827,0.025244284621033956,-0.012772125931153537,-0.027081196284131127,-0.002387277347246156,0.06808241145590449,-0.008903667887848481,0.01966396456188995,-0.04096267494696468,-0.01248673488269785,0.021127351497769124,-0.021375744939595084,-0.010309714476898975,0.008609413513786779,-0.012553055171971297,-0.00842095075943959,-0.032184632930816165,0.046052970177516944,-0.04287329896146064,0.042440196022612696,0.013664055047196757,0.07536432431918796],[-0.03050099235930293,0.04547994222971744,0.00355446771890822,0.048382881022317435,-0.041867821650367905,0.02207735026513534,-0.012413279330310467,0.012411495721676375,-0.05752415470470105,0.05636137964324496,9.180438850510875E-4,0.10170372699257565,-0.008542716969780989,0.029082815855094268,0.04939256747906305,0.024826204745131298,-0.007779430774903668,0.011071390598892202,-5.19992593864694E-4,-0.020182560905685713,-0.012144230971593773,-0.023668941033955206,0.030129848200744637,0.029253463489498286,-0.020759120550470776,0.011867057079226652,-0.1528111151059703,-0.0015612203955302744,0.02385812549871784,-0.03285260530549069,-0.016840249009613745,-0.059967739117806035,-0.03003803273159816,-0.05447820068315382,0.009195321207984788,-0.026103893056900158,-0.014994643251772119,-0.0077634035240407556,-0.06120062970993644,-0.030308481544021333,0.11689313359003962,0.01332437966264515,-0.0823530636354847,0.017025082331002556,-0.005052315131340215,-0.06617107692441979,7.155131733237009E-4,-0.007717691132528997,0.07681162268804413,-0.017282551408030384,0.024206929918236395,0.0017582283636293514,0.033352264727098624,-0.03015627849615392,-0.004910662144710502,-0.00299690332959882,-0.013387141181241975,0.021896672037469336,-0.15797289759073538,-0.007335284105331119,-0.03274637991976734,0.025832648120544668,0.042373708792398684,-0.014564310285291773],[-0.037950685703481486,0.05662601515668213,0.003013684856865103,0.016862837008936874,0.012772697135362481,0.052095928868084874,-0.022781850278963567,0.011499363727722315,-0.04276888547703408,0.030846202460745088,-0.020996564394349562,0.09774092830524296,0.03460110093149799,0.028140096939137566,0.051026822632598105,-0.03223101603821176,0.014026943210409086,0.005967210797567339,0.07254475184584375,-0.015808343118722087,0.007265662902354189,0.03166701980149667,0.04396638000022445,0.02413539135469374,-0.023024312704965435,4.0766157452524457E-4,-0.18647707793006307,-0.08405915043628358,0.04320823215578211,-0.019946301215234625,-0.027117121133038883,-0.030201725805221437,-0.012157789842056456,-0.0182373023081345,0.03728331725720788,0.006412362739319646,0.023154135198398002,-0.1260455839531974,-0.06420550228796627,-0.018239226144835294,0.09553708242998463,0.03230082356657198,-0.07809106595742722,0.0590862595684018,0.0038472814002508487,-0.034255312710648175,-0.01923309092384511,-0.06208561670908588,0.07634762010452206,-0.026743694408188943,0.029764275455124545,0.017713222389681,0.0015155652200730318,0.019690254264769096,-0.01640689756839901,0.02569898387976113,0.0037695670329214166,-0.03401772117506696,-0.1635600181000713,0.034855740854539734,-0.03181332989484354,0.06626856093864694,0.009722345390631968,0.0044836791718107],[0.0184172172467387,0.05928518009745097,-0.02526856447906494,0.007071947627191468,-0.04884551608033208,0.00608645234211161,0.019995431876856037,0.0019598417457186027,-0.019796227592594737,-0.006790745842831122,-0.02646832824659599,0.04301580629392442,0.03358766707662497,0.007728436439052086,0.0502742261263075,-0.038662470436694116,0.020157365389812047,-0.029358214115501404,0.012174536997246802,0.003940617292550629,-0.010819249761976698,-0.003642616600172462,-0.006661933991985089,-0.009258357033235961,-0.031010223042716577,-0.0032329478697815076,-0.07120795235620082,-0.0400948860484816,-0.0020565969148905574,0.020524934485623217,-0.020132724364401056,-0.03313434358876274,0.011369615928086219,-0.010442706767810629,0.05195738587091826,-0.02434611341906031,0.037458931664200404,-0.03433545901038328,-0.02876315090556344,0.0061414576387503915,0.02850663882711189,-0.007528693049978977,-0.02748712933763621,-0.02035195660046183,-0.038887788076666506,-0.04832956694845064,-0.010462494421599246,-0.032243780270878694,0.1313063669770373,-0.026987333586315707,-0.02645614959568493,0.04177413007672363,0.021835671932417176,0.02734280414930194,0.009439818754413493,-0.011055192650735431,-0.019311017227892,0.027718540219910173,-0.09804177709556751,0.026985280590084263,-0.04580237483652749,0.03350767494506531,-0.009654021812323435,-0.0013277947656029228],[-0.024907340408150094,0.016395008361043125,-0.041822846752631086,-0.019266099012238448,-0.06288259397527173,0.009853205629200508,-0.011883503468847124,0.021787163004078926,-0.061902294599972874,-0.0179801623581629,-0.007133092953078675,0.06354829580240556,-0.002496138661150572,-0.03331835624319723,0.04783929639972051,-0.0030561008318322914,-0.012962427972797468,0.035046919383999786,0.04117892385673598,0.020792801823876855,0.03910569022089692,-0.001774010141069788,-0.04006741239279463,-0.025376787757462452,0.02004699103270033,0.0172806318481768,-0.03610400916378211,-0.017282410714358452,0.030195197629560973,0.014968789638620835,-0.02221800379782023,-0.02118656771387415,-0.034565350897693636,-0.013743431453499537,-0.010865329298671815,0.02154406593532197,-0.02534967666234717,-0.055672585613262014,-0.0457632616633146,0.0222751413765512,-0.0035087857721304424,0.003388717059212727,-0.026471678397928487,-0.015406839943035412,-0.02373082565174465,-0.018246346293591436,0.02643848900200809,-0.007615257481476381,0.024771560267926075,-0.005650095143082893,-0.002606158505159024,-0.03653652768418284,0.04625958903930237,0.02654346733082533,-0.012230746542163051,-0.01290117854862534,0.03129238521110002,-0.0091032843290838,-0.0564790853269629,0.03382307581695937,-0.00656666380342231,-0.009501333809177122,0.016361577413786032,0.0017674552489597621],[-0.04345328319196678,-0.00228188473343529,0.017919888302323987,-0.02399078985651773,-0.0013742831439677982,0.03574667217102497,-0.004906853777628937,0.010254594708240115,-0.045908121582989486,0.02991347005009498,0.016229924832059213,0.02530579562233003,0.01257130241989769,0.012304901794455127,0.010725530982048287,0.030523836352591673,0.0075935741520662976,-0.02780590837680472,-0.028916311986548555,0.00483741019352404,-0.018528512128523047,-0.0021551673744359457,-0.026257249713027533,-0.03547824721076254,-0.00738434847065633,0.014903593489621725,-0.043041600079485924,-0.01703478717560791,0.023231397982748023,-0.012587928174058927,0.012139487775464666,0.023089994591278272,-0.03747174253973016,0.00399005409572078,-0.024342989337304347,-0.03046358619278103,0.018490883695857333,-0.02231969764865378,-0.0193401628325925,0.019965261760042118,0.017415219813325493,-0.020688384436728924,-0.02502340328190731,0.03238457847993313,-0.022371287061840106,-0.039252595354571894,0.013119665468333598,-0.009970499184507391,0.013644971298052111,0.013720280720662897,-0.009485528942101112,-0.01890784732712731,-0.00436929236065918,-0.0120334740822299,-0.02389367644297984,-0.006448363159435717,-0.02884583457615623,-0.02562488581572606,-0.027020917475007067,0.01791158460629171,-0.020837943828034385,0.023805104851786364,0.02269199686201146,-0.0017675808874928534],[-0.02629959435579239,0.009071867193402179,-0.0201677795442023,0.00794918684354973,-0.001233163742903728,0.025425962726001467,-0.03217749438064982,-0.015629089804368862,-0.0018105371258706781,-0.017742482256415976,-0.0059606799442275295,0.003110470509428852,0.011091731612700693,-0.0032278217132622497,0.015726272448270257,0.005871526920992013,0.007191010377673792,-0.011659889565566085,0.02369468133794396,0.030026889671375484,0.0018625611232314918,-0.015325539570372582,-0.03673333013665962,0.03005156785101432,0.013954326739360262,0.026162978586446707,-0.030393845602071163,0.01786495094426734,0.007100837994951411,0.022147898482532236,-7.328303932019452E-4,-0.034123235272818415,0.005871236906410045,-0.008496470743509014,-0.018125290493389668,-0.01639324948670974,-0.014873553380369952,0.0016966253835034358,-0.010715908949191059,0.019745374168385347,-0.012520085629951994,-0.008433137852994125,0.027300925080809463,-0.0037406560739673142,-0.002309068277663969,0.011304846732769403,0.006833507897754604,-0.021723233639824605,-0.008801618189514217,0.034687944951221066,0.03246829438988995,0.02559112416709763,-0.02308968875362733,0.021179310618442183,-0.02387071175912354,0.016898549182377792,0.013039996673484931,-0.01873766723361437,0.010005072361736575,-0.02991309762562607,0.009683536009550256,0.014605806546023194,-0.006002768566600354,0.023746764217332385],[0.013291243727110047,0.03372209226064188,0.032680926265659944,-0.0061019680637762665,0.029404382976940112,0.009070246900322978,0.006769660518290334,-0.010118530565394135,-0.017315624076648748,0.03184778031330596,-0.004703257861249516,0.03505378519744342,0.015137013234716317,-0.006558235280023758,0.010535267095517742,0.004369854534131198,-0.03480825066493771,-0.03211024156229039,-0.030646365458802092,-0.02832459652573556,0.0059847528528893836,0.03531649748602053,-0.013189251698339113,0.011487962101158686,0.012148384722319414,0.0035749097770994315,0.02713884717471497,0.010189297818152388,0.00817150775059824,0.01614818257982679,0.011865006524619248,-0.03392863881236399,-0.01717361132883447,0.013234014722861374,0.01558408884512219,0.02337257822624734,0.0021071695463194696,0.0118858455834687,0.03431837991535012,0.021225294147578646,-0.010979450609218233,-0.024156845199148045,-0.01051775313100225,0.0014514409441836937,-0.023302926905405853,0.01338653115489371,-0.01064307442715829,-0.019179676602160425,0.01022283581262887,-0.01351086833454303,-0.018900640442759742,-0.003422779984255997,0.02946914677254782,-0.020438816755152918,0.003945762329908842,-0.021235908189530195,0.010021959163341008,0.03262718437102085,0.012710864954983785,0.03194129374978932,0.01494063921824903,0.02040771535088323,-0.03435808363719631,0.008096094907476687],[-0.02635013032940745,-0.01592925539860402,-0.009265985736953657,-0.03535285629039057,0.02721771483746775,0.024942386507439816,0.031178548071366517,0.012238026490897518,0.018739924856319517,-0.02220417837453277,-0.004871683719556541,0.02360071804567958,0.02067837587037237,-0.004530734865575933,0.02599243681379652,-0.017124837482092228,0.03493288725861762,-0.032071672444212,-0.004406981926741224,-0.024176872439604424,0.033303438824551404,0.010341766890751858,-0.010561983854780743,0.026801376252756824,-0.03131879395229681,0.014854039750238626,-0.02748075439795178,0.0353039675863637,-0.004922563796018528,-0.030486851594498533,-0.004568719851095019,0.024774637098485888,0.030316297436853424,-0.023323290329659217,0.009940067021585952,0.0035135888282365863,-0.021118678884132967,0.009315694039555462,-0.03244743805899891,0.023287038659944286,-0.024556431142343,-0.0016074545134831847,0.017007528295635597,0.005692592687588751,-0.016558282803192617,-0.009234529368003666,0.01120864300511675,0.018010493623160182,-0.012270071058107837,-0.0022791232371783977,-0.0333314807825788,-0.009391697739932854,-0.0013842907153042547,-0.016453343399299103,0.017597489199042343,0.01982212982671111,-0.006280090513613279,0.007244952908652441,-0.013360076962753518,-0.03496062906269451,-0.02170978476766873,-0.028599092786684065,0.026361780521628336,0.02645625163610401],[-0.027540539314924527,-0.035340200554293356,0.012783488263641847,0.023535390196736766,0.006889232243674087,0.022504337551921945,-0.005468323999829113,-0.030741680543263244,-0.016579309741694755,-0.010647450930160523,0.018552315586787285,-0.0338587535619218,0.03476796566548014,-0.02801385795283795,-0.005642743610887877,0.00808781841484691,0.01122086633648815,-0.01288786410025774,-0.005104906914515325,0.02891879155946636,0.00420146030772501,-0.032685708091078416,0.023345398896088894,-0.0061545346832705084,0.02920040405477061,0.014050934568793565,0.015718553142132583,-0.015758699535135232,-0.008753287044584755,0.030845196583694792,-0.015184225444663562,0.007385916483942814,-0.012503981287296604,-0.008464769044549814,0.027580010752931084,0.028550434228735218,0.006614451719740431,0.02597705574782581,-0.0134235329152984,-0.027137160222764124,0.02053089075064036,0.024635671783074884,0.020139003073677542,-0.03544885035364864,-0.02631325420913079,0.0026323386401426252,-0.01968039197951578,0.00426753416210518,-0.02758482802071575,0.023037431173396912,-0.03396008935643033,-0.011608555041342155,-0.00889770077397992,-0.012919428108367968,-0.003519627066652502,0.018922230409654604,-5.355940955702227E-4,-0.01593588816803224,0.008183139315708765,-0.01834048051683114,0.005188468104419117,0.013255436101480856,0.03287404318209649,0.026689252560375996],[0.026900603657036646,0.029612261274766634,0.03305675451259044,0.011602370749818743,0.03537614518671983,-0.003708376337559866,0.03042588156733074,0.021514340549961635,-0.0024850129463864063,0.02093622281979285,9.432806452847212E-4,-0.02488730475153431,-0.029266310522018706,-0.00456452115997357,0.030022834939981796,-0.008791851051933974,0.010785704807221375,0.021651632985149907,-0.006897877110863188,-0.017254726386918915,-0.02638680858578694,0.002769149275669085,-0.020483923978529828,0.007798504198123485,-0.031199025774256282,-0.03138841277054181,0.025313779867519884,0.02545254486573112,-0.027169051140417136,-0.0165263126861247,0.034903407601994584,0.021500312142816336,0.006052366491448619,-4.048033145530356E-4,-0.019256589427104866,-0.015413727186137625,0.03237546432511592,-0.017357715028017567,0.0032919843140934353,-7.928811880361969E-4,-0.0019798702654740897,-0.023966012009455924,0.032938521582313994,-0.00785927915120935,-0.02907801801469096,-0.01134522551690508,0.02167034587785337,-0.005163076375255553,0.032758112897240906,-0.028855552787718307,0.01906118705671018,0.023212817650241246,-0.017567425179774387,-0.02473256941602655,0.011947378498499242,-0.02899231972025891,0.03325733969877251,0.011692155182677584,0.027026708841706167,-0.022345274744819166,0.025977940655716115,-0.008999335679959664,-0.029427085804992432,-0.0049106250113342765],[0.021938659758629044,0.022327252857972553,-0.021922288236275955,0.02575141516211188,-0.014940055429269183,-0.032021386859606614,0.02605471748611833,0.021965254330368666,-0.034946516918220476,0.01071666858453768,0.004179831497061216,0.01061299807212942,-0.02828610355417434,0.011660370023637345,0.0012580100240555511,-0.0063080424933885815,0.00977165652879428,-0.02187286360872302,0.008910903117932458,0.0035429327446026954,0.02566960910459318,0.02218830041219922,0.020945122183105593,0.004105398750253714,0.016021163910390813,-0.01345840132706666,0.03265834136462284,-0.016356687911495263,-0.023292623337973096,0.0159360218261304,0.008584295833934963,0.008562159456993257,0.017287285612277936,-0.025894154000132237,-0.01063196294905789,-0.012081641114351283,-0.02951209690179427,0.03369580033916758,0.005742363249543342,0.00543467873171385,-0.02327837834182673,-1.198118240473635E-5,0.0028023683524934146,0.024565887390817463,0.03313519431187818,-0.03162635810210109,-0.020481097408036265,-0.009021459114091974,0.008482890784039259,-0.025266478440352576,0.01669345906266149,-0.011424992341259384,-0.0037199907531234267,0.020060402498825798,0.015622294842343103,0.007047332412565927,-0.033625786227849945,0.021483683433100444,0.013892159371510551,-0.02053731561078991,-0.02072855427262106,0.004204356687761194,0.026831018728787022,-0.023869520502367347],[0.0339844743761359,-0.011573548558758409,-0.016815394338286573,0.010267450024214498,2.6426138460789686E-4,-0.029246477680677507,-0.018416549775886682,-0.03538188838044962,-0.0316014993224012,0.007847429147524232,0.004591100898167927,-0.02808144280409587,0.02003237788718671,-0.03286394425409994,0.032439495185133393,0.03305409520815301,0.024540783371768862,0.015006700778298092,-0.0153236749259331,0.020670328100833635,0.025930435945576025,0.01008987198453234,0.013443078033882321,-0.007147303947486979,0.033646051105393995,0.015066887978474068,0.019828480286962775,0.002719997075165221,-0.004431864450718319,-0.007933068545134266,0.007557321022315615,-0.021759974395121156,-0.01565001080364909,-0.02441638720585515,0.026179221617104786,-0.02344410268972042,0.026190662268344454,-0.019919491744143987,-0.011084218232360348,-0.02567571945631478,-0.027249435816871406,0.02564092778332533,0.006979127092759908,-0.01713137680909441,0.00504423309669616,0.025578027092453888,-0.00893844673471278,0.0314845282483785,-0.022923899662549017,0.01771433828418885,-0.01104227740850376,0.015429153005225547,-4.2281735789030856E-4,-0.02107796080028938,-0.015510980022788024,-0.014446540377246487,0.0018819964986969456,0.0262011147450785,0.03419705969823223,0.021337959617251243,-0.007244372070013668,0.03420481611038459,0.02180296700172028,0.021126727045166088],[0.0116896071285493,0.017275517525205827,-0.03380175979857785,-0.00880511803406139,0.03520052825016394,0.03370920052371143,0.012384512038166694,0.004618681654554168,0.020474484782225785,0.01398798054056134,-0.03337897084793911,0.00329504174787875,-0.02484640086538848,0.007630991653536311,0.0062898500234687725,0.031532026336761644,0.0067710926495129576,0.02702238859071621,0.0029274512631101255,0.03241000950444334,0.01648850292214884,0.014408509026931412,0.02787761325636194,0.007431323773504617,-0.014781067951072856,-0.03213261046750707,-0.006719718839588229,-0.005548214604288336,0.015870779085023896,0.0067984831620839965,0.01741448977145721,0.028513217503278003,0.011608340472700625,-0.006670923213295522,-0.00964488737416801,0.016024594391044047,0.019292175403940393,-0.032042808794391295,0.028402925576698195,-0.011591015757398163,-0.012527194118384544,0.033967413080667586,-0.030914383605042884,0.00740443851266352,-0.015385168052448408,0.006961301825980303,-0.011331571998778992,-0.0015053338571990062,0.006020228006285986,-0.008980034055035273,-0.035690505402773465,-0.007741676968137886,0.01190050750967495,-0.0207990528886139,-0.005447766715421889,0.012672090344328453,-0.0016923594769598274,0.03295953350924829,-0.03543668878357029,0.022588359605981684,-0.007432909171185304,-7.592850458629723E-5,-0.01790391861222541,-0.005960107470043733],[0.02758886263184489,0.011047366159407743,-0.01320425082004375,0.025468660685315656,0.03155990954561078,0.03148672408399319,-0.005869808690717863,-0.021622378521466597,0.019709833909184397,-0.028825949851500964,-0.008296744618726431,0.016856954466376632,-0.027891325385023914,0.033905210456770106,-0.01175992205457118,-0.020705257608721866,0.024253715455889294,-0.012747913932249244,0.0029057061747322067,-0.03226488129941551,-0.03176131690114111,-0.011914628316295917,-0.014874235470991724,-0.018240130830177077,-0.026980572691588534,-0.004832604179382018,-0.022434381624276693,0.015700110739762293,-0.015441962125264497,0.013899419686271503,-0.01977346593425743,0.016407572579006043,0.014888775290158718,0.009735420581213327,-0.004777132343936603,0.03373974414880584,-0.007928125180042545,-0.02694225965281258,-0.003165337704073938,-0.03562147091081644,-0.04098242445035822,-0.031032643370658176,0.014651542237707219,-0.02218771596891092,0.0036298167616189442,0.006547944438365537,-0.012183850894951144,-0.0036983915201720895,-0.024723861382447827,0.034113193955569644,-0.02817879390871018,0.01233642422905047,-0.017837326789191348,-0.026280510093265347,0.00880161952955871,0.03381582455854015,0.007706901903473223,0.02643735381750407,-0.006245894276761658,0.007449447967240154,0.027612590341882234,0.027832535007591665,0.001695914177607724,0.02441161123538007],[0.033039960614222014,0.0312183566294004,0.03248953221616544,0.004853496701311405,-0.030065544867562632,-0.009350914683408885,-0.006450873654674592,-0.0064677787304103515,-0.016683684277141557,0.015609632427158635,0.018097155997114794,-0.013974614360336495,0.015412013933830173,-0.027670901351138793,-0.02471661385308207,0.0245248338333451,0.013390697947545363,3.9538339835086815E-4,-0.0031436791444772474,-0.00732424451556523,0.032921060120433034,-0.012807469799699342,0.014409145397554838,-0.01532522921729969,-0.009783167865058704,-0.031884026591794706,-0.015150929712676162,0.0026056937987272537,-0.011082450124971431,0.022382926594837524,0.016178415601854804,-0.029110450060324235,0.023373365617701883,0.013253361741956939,0.017489417502783596,-0.018028594391674344,-0.03158770827382989,-5.793151746741017E-4,-0.005860129913929912,0.030151081031288992,0.012911491792507678,0.01583757247000338,-0.009153777471273267,0.03403920669731091,-0.004933481742112865,-0.007169465174292326,0.017896452745956307,0.009352851099198796,-0.02218118890046136,0.019380505567047963,-0.027846799571726692,-0.02788412323561109,-0.01244221683974945,0.010309742401750501,0.0224626865682479,-0.0038534398507488574,0.02738483487319847,0.03009741993773993,-0.01438731955901725,-0.021752981871211403,0.01851011261219981,0.008645175691713755,0.022737434149935686,0.00959747465452838],[0.034364253251820874,-0.011813372283720796,0.0302056391388851,0.035403396558174656,0.03071496856791548,-0.01513572653708427,-0.014916638211635235,0.0275987836013763,-0.00370567705175191,-0.009045643192013815,-0.006398203379582189,-0.014156890944737932,-0.027436406720515685,-0.027526316600875067,-0.023023455455787357,-0.003992184722762608,0.030027085420137562,0.005581360766676874,0.00198677157903932,-0.02601034301060069,0.009525378461997146,0.014065363701028033,0.03333360209611846,0.02573573074185028,0.03035833335601761,0.03504197225004183,0.02261008036083584,0.006060797678253398,0.011609735786524043,0.012887307081845727,-0.011794879420979865,0.03260488124358761,-0.014896725418678713,-0.0024836281439018612,0.0264348323117766,6.981436780551495E-4,-0.020205957344746825,-0.007978153549233596,-0.0046546729260030575,-0.0260546727662104,0.01942243735758017,9.216209022463387E-5,0.010314802694852581,0.02262003100775605,-0.026541744638604165,0.00715499123616405,-0.018419067276709677,-0.00529528403995834,-0.009378432908120366,-0.03488079546224639,0.002552686417695443,0.006802463183031213,0.028093319169484317,0.007912541161712838,-0.0071669101115608026,0.011906022288412303,-0.03294488595888119,0.009916677521257551,-0.01733512753283942,0.030584896025807762,0.016238682747593654,0.007211433175846949,-0.006836288572367601,0.016717824395359834],[-0.021379485550173764,-0.006748839973631289,-0.028029519124918734,0.031733091542866035,-6.375718397166579E-4,0.04304652318461415,-0.004551422995675624,0.004923633610944033,0.024596631612350574,-0.019176933913354493,0.0034461207572152475,0.003919359366736874,0.016450400321937234,0.035027150471618494,0.026647967686756757,-0.009825981824015565,0.007418050990825968,-0.02741425147715811,-0.03251420216671325,0.031189804898009477,0.027134870732140617,-6.024875017832873E-4,0.018126262253793924,0.003942681297987667,-0.019094883474711187,0.034987033835321694,-0.0077015219836307,-0.0029268241799302905,0.06065072781790624,-0.011311923352586208,0.011787298802049423,-0.0017670275234249295,0.02774138204058164,-0.005596155519138946,0.02068669399070155,0.009505001887642119,-0.03511643953411351,-0.04094199575128422,-0.0343233781525993,-0.022023612274960844,0.017105861279139798,0.02951973156934999,-0.02592539538874528,0.019476446833350685,-0.002578865080491125,0.0013376789827403866,0.012881266598554226,0.0024929051679795262,-0.008001678615804147,0.02870581651040314,-0.036276868052825,0.019706452074651996,0.022764453945289583,0.012924033996527431,-0.013380540904974994,0.020924393212841237,-0.02521259423126011,0.009867023272920316,-0.033536352114166994,-0.018890112454187768,0.020274811404448322,-0.029500975518892046,0.009702856994995636,0.010490228604670433],[-0.06047609614770804,-0.023854733798892795,8.06185415152597E-4,0.020172645017955557,0.020488535293382317,0.12004989777017253,-0.03704635519774528,-0.029746370027557784,0.014556950535696748,0.01469694098158895,-4.3369534367477153E-4,0.10208491135139718,-0.044245828332953666,-0.004229043063707788,0.06592482838782933,-0.026738946581598096,0.008216318181190474,0.027269710833827367,-0.001831442785283191,0.023511472305952102,0.010504857410954456,0.0016019390042216178,-0.04848820460481645,0.012041485922371604,0.013158015956969011,-0.01965018340782289,-0.020419518334546572,0.029002776510588253,0.10645604743588429,-0.03213252333262699,0.02396752773929682,-0.012127883718475592,0.04771996657401744,-0.041215058893130645,0.0033643414349457256,0.01363131755169695,-0.05395354500683878,-0.0341312218092866,-0.11012207841587865,-0.00546962816870006,8.084372106282738E-4,0.03541333940207483,-0.002910327267903452,-0.012118116662242415,-0.004969190200239698,-0.026006609717699122,-0.021056338811249582,0.09823159285330083,5.828655552844553E-4,0.061971771101325304,-0.022169915850803395,-0.009276064466613824,0.05399244645495738,-0.01793106007455775,0.03387306213359465,0.02509963983577193,0.04269211343665515,-0.020002119645115477,-0.04466471825676987,0.0710553837401562,0.019384103409880355,-0.01308516187484382,0.029255527786785872,0.008999562834587698],[-0.05959163502610299,0.06140974900125895,-0.033440876209380195,-3.314241784728422E-5,0.014609099644593684,0.1274823397123826,0.022034150170842325,-0.001346447701032707,-0.05430800267677332,-0.03919144650029537,0.054486335313205854,0.1513882513300902,-0.01847532890378049,0.007140285090307377,0.06584834319328403,0.008881893829916467,0.014739029122666237,0.02035551298653502,-0.042449154304335775,0.0195371481941518,-0.012039189407594048,-0.013593814315861727,-0.006460491400529364,0.003788518590004262,0.005313529256860389,0.0516387313508918,-0.06821290027833486,0.09099978220029117,0.14600026927737134,-0.06416321018869243,0.02545793838711764,0.006058386172534717,0.06809443904107636,-0.07148808906139717,-0.0020260427349400325,-0.0032919377767757583,-0.010248904982902847,-0.022500175587089253,-0.20041525087229312,-0.01953635334749997,0.03544005788593251,0.07166502034069538,0.02726004681318388,-0.005256128502212781,-0.032617308010011954,-0.0772760274359402,-0.009414003883664446,0.07685383918606088,0.02988201770628409,0.06758186213384654,-0.03665870728936293,0.0025192703773601922,0.04723625578572525,0.016703295311018967,0.008136435508958081,-0.07240788687253023,0.02584015009937256,0.005465212170524526,-0.08293432738517507,0.10166347656556597,0.025014540624457116,0.04150303964072462,0.03340410826278934,0.023181107261409914],[-0.025168396922125306,0.08895775978013555,-0.019517952292845885,-0.012719063676539697,0.09632710020623507,0.12853116481204443,-0.07020154135767842,0.03507345046523868,0.01430208934893747,-0.0834819503192304,0.08810359232449706,0.12078728294924836,-0.0873020400263844,-0.046155782160632076,0.09327283399198265,-0.012477844642623746,-9.822389919971382E-4,-0.03595425203399351,-0.11560849198916126,0.021057144158566677,0.007057945165420521,0.032270433875807886,0.023076362750405324,0.007910393800714677,-0.016946752329529503,0.044361158258031594,-0.027848599429056525,0.1364701769770526,0.10360347135554944,-0.12098625614713912,0.029312332412317472,0.08502666322723582,0.04539442581998452,-0.07442858183040246,-0.049508723895859044,0.055729690775748436,0.039930265289937275,-0.034862377953656334,-0.138734147304881,0.011585157001342097,-0.009791424360363524,0.09233970175812471,0.16025438069438683,-0.06115390467835284,-3.966386846644212E-4,-0.09271376934943232,-0.01600325015222394,0.04413777969867902,-0.06847843654480808,0.04232116380387596,-0.062318427273669444,2.551741350192539E-4,0.03411362984670682,0.07743931122770685,0.03996626571407357,-0.14569382998965089,0.01145472557748159,-0.01733514691076968,-0.05430017035633266,0.01641243651644137,0.0014261415725758113,0.0355387461052529,-0.036263597372595734,0.05337896889768401],[-0.06596443769051033,0.0645892700350572,0.00830140103986972,0.056677283609938234,0.03641677122142649,0.20032975657858432,5.268868148359288E-4,0.014276349042925072,0.04685068386805509,-0.05514252343504888,0.13722973727679538,0.12814049512990228,-0.01912809402170342,-0.09628146936638175,0.11544525872244181,-0.016482409070258826,0.06021442222272661,-0.07354819216579488,-0.16985959089310282,0.06774811434304043,-0.02122717209313439,0.06297930846443815,0.022732088187264812,0.09328215194327405,0.002095046671525478,0.072606811607809,-0.008279881899915725,0.05631190588333225,0.09076417954694882,-0.13081440969629282,0.038154596569297046,0.16076805791764565,-0.017778191879323432,-0.13397655750264062,-0.02322632027237585,0.05495221461478633,0.06224885142480116,-0.10858653258654123,-0.07921746311485012,0.034330672745466084,-0.04883344222067872,0.03702611504289575,0.08106698478029567,-0.09555828658403323,4.887872754897345E-4,-0.13750588175553766,0.05442834254806352,0.06920585164734165,-0.1588375338636712,0.0032829646899993526,-0.04308354892055945,-0.0290730859346959,-4.8428400537761505E-4,0.06268291884351988,0.013255119719325638,-0.07661159613968262,0.08061366617761022,-0.009256494023026498,-0.012548888413486736,0.05582038068126064,0.07092510166920299,-0.0033855434084971744,0.04852696677575112,0.08614036673459816],[-0.1620614256375174,0.09604990332267332,0.02340746444011543,0.04203105446970058,-0.021376858607978624,0.25059661279886825,-0.057517905810339776,-0.020507355290867547,0.002010748571308557,-0.025603680116499175,0.07579123541010464,0.16012293878279069,0.029357558849875755,-0.1594308241329566,0.17052917998341516,-0.02267891135475561,0.06953708513670463,-0.09081548906373374,0.01758411965142192,0.11456612583330571,-0.0032367322723870547,0.03376888686862025,-0.042063980196059454,0.12539215912093182,-0.03916890908845899,0.10713760485706451,-0.0020892722140371457,0.11658441043972241,0.16018069180505645,-0.20966982772191722,0.014824838462596622,0.14083062019024337,-0.06682716505387486,-0.13191009097247425,0.09674196072691538,0.04639387712376793,0.043968911985376766,-0.1936470796182071,-0.12118989370687795,0.005950712278960494,-0.04870782486271025,0.07548218157826717,0.022308549775427608,0.0022298813303740445,0.032970722302308915,-0.09766223135197984,0.021668096115323277,-0.011711387763571751,-0.05392971800524545,0.06629064734951158,0.049174337427238146,-0.1385309213485724,0.06536973141956293,-4.095429170532618E-4,-0.051537693013649986,-0.02133135119172612,0.07171207152465572,0.026550069274705976,-0.023174824405009384,0.05178085252465574,-0.05455289102627118,-1.4582191190307635E-4,0.11910592926909921,0.10503553612598786],[-0.16729468111725332,0.015102503994192879,0.001077021153770135,0.0712667535156922,0.0033004770722482304,0.2242354581135092,-0.05540955490401793,-0.054404145355309484,0.021568637324518584,-0.03336648222645761,0.06278585195874117,0.2840697241405991,0.08002986100556617,-0.1831977628737821,0.07604181855306898,0.07478942302162848,0.11655550573420781,-0.09711706069730702,-0.008737759859632762,0.026769725411988885,-0.10524485947681815,0.05824251466113348,0.03348008160645368,0.014499851349759486,-0.0710535561168972,0.14765152925769837,-0.012753309285355943,0.13505739929713206,0.2293790032421019,-0.26148768416056417,0.037085611850120555,0.2875609664024168,-0.10253877296002945,-0.09888176433086372,0.1524374694062644,0.0711374596013895,-0.016414047524774215,-0.2506085705872169,-0.0775579390922478,0.04293249276864054,-0.16959031579558947,-0.007406804319910904,0.16824378025871536,0.12101521854727408,0.03027070534268396,-0.2581909149829365,-0.20794787170657528,0.011472195968598692,0.027135212932063314,0.013891921650093685,0.0016986817954683048,-0.10722420594184137,0.008775160819137956,0.06694126970210437,0.04720384492539821,-0.08234029636113145,0.026908347401536418,0.1246664141864353,-0.11891682400021891,0.09162356870663314,-0.23313427833361136,0.032145422342800684,0.15750174467505,0.02732424707073669],[-0.09394090933168125,-0.13903228432577933,0.12046091362744867,0.0971253731842892,-0.001541199227360467,0.0358656823392608,-0.053455480278239646,0.07903029339635907,0.07723955609515232,0.04782407511841997,0.16923156428528074,0.207012709696035,0.20184305793743929,-0.11034177139165215,0.13065935965611675,0.24359560701302793,0.06991526339208734,-0.04912827336712173,-0.029616595141857244,0.10938748062737594,-0.011465064003365145,0.03721797438104862,0.15690489584275236,-0.10082198416124669,-0.15269670415090494,-0.15155001436349388,0.3342070449926021,-0.03630211599363605,0.28162283495638957,-0.29094701697236014,0.047730922146311014,0.21658425214765126,-0.023616781581390203,-0.05584455251355887,0.22068408013545984,0.10147304821487071,0.09186759268767339,-0.18572200542481251,-0.11270261902093676,0.011468377709488397,-0.1961993560080725,-0.051797847218017765,0.21590383104402994,0.06186107416844463,0.1222299780848993,-0.3480713657313274,-0.015907652381682246,-0.037896598543357196,-0.06148650501835615,0.08303128609380563,-0.011463347296198877,-0.047029275481702715,-0.14959584071971918,0.09963692415954122,0.20664691101336063,0.14007842489520447,0.04817624510998679,0.04944976100666682,-0.0770632366977963,0.1298251267123749,-0.11981577103013952,0.059148642999279744,0.0589605517464797,-0.14108325630545795],[-0.005108452520117777,-0.08235817563748805,-0.030269623158988096,0.11472544883818242,0.1538332084102201,0.05796942424320098,-0.025026151839735677,-0.0028253259995391785,-0.0026214033259063184,0.023265919226425007,0.08203363740782271,0.2502283266317829,0.07149321350666217,-0.07687535022004863,-0.10852958097421363,0.15484632493196726,0.11737858035964227,-0.018232859085590775,-0.015598024247606656,0.03980350850296403,-0.035642215311113154,0.05395960219216548,-0.0037623755973492613,-0.21255068051470294,-0.12688047639781388,0.12461418853954859,0.3824283990074368,-0.19191101932455562,0.338660175176592,-0.22981311973694,0.029496337872768126,0.21474762913388765,0.04017956175449817,-0.36587334649749204,0.014041477305488602,-0.0025231725683043825,0.24383133818361533,-0.1411693331313762,-0.1536555537607823,0.03753267884600629,0.1177562021664726,-0.030758422572574218,0.18719152413668677,0.07220850886939346,0.059785284014536,-0.3079434666202939,-0.21133632538013702,-0.16847549331078046,0.10756076574360543,0.03735974662367796,-0.03424690676694858,-0.008880784288351588,0.039802017192712445,0.09605901310954572,0.28728303739535477,0.03183083076532791,-0.0011655408854099982,0.09576258292479121,-0.29820049212368577,0.2236578453446398,-0.240502255963816,0.027585389306166098,0.06504334932306031,-0.1529124696458588],[-0.09110979067619106,-0.02994643198592519,-0.12794308014502734,0.07346476966836626,0.04700221541393209,0.07144980483265002,0.0962297258361591,-0.019909268555911533,-0.12573737539562482,0.19181044755791835,-0.03714659880626049,0.24914320783926136,0.06345805958773648,0.34186372005452326,-0.07631478887163107,0.14596616394270126,0.10176244310306982,0.07448977161098155,0.08543557037484567,-0.0024647741641528136,-0.06691861031039961,-0.024200244917590763,-0.009050933193659771,-0.14746964692506387,-0.06181058692998816,-0.011853863786188424,0.16033449692250018,-0.40841025550254195,0.3757637810743132,-0.18522597847056227,0.027106213678115117,0.027782519996218086,0.12694368698001746,-0.4131619461070591,0.10760792901492623,-0.26178311246571506,0.025009052332421754,-0.016429100996846194,-0.12329903888545876,0.03496658063946685,0.18186652266270786,-0.06688281796922975,0.1112128778530347,0.14484458393005323,0.10860407137070817,-0.03379254332363012,-0.21777916701631556,0.08731127098653303,0.22305453957953233,0.10282075245813754,-0.03852289976192011,0.06362721769299096,0.07491669639920726,0.06963617588588644,0.20819176864580538,0.44315635083151883,0.07818060948364954,0.020523764335318266,-0.10904438856793398,0.24060460145254553,-0.14525327009673802,0.014631831881815625,0.1520241255551422,-0.27038827247439257],[-0.0629511925393538,0.05640824327934477,-0.08869841824979813,0.07119828063898877,0.03213762100074187,0.1261582076856619,0.06409843344015238,-0.05988211812996636,-0.26812234354939296,0.1591370864151135,0.1814716983028787,0.22190679678748707,0.11045675353905786,0.07540298704243766,0.10419721439018811,0.10084414903353771,0.09037776205534206,0.13487663195202435,0.12693142040150776,-0.02075512130287936,-0.05744534736055099,-0.1903771409800167,0.1114111076689007,-0.12903096765746405,-0.03652330446145177,-0.0012455017138858012,-0.07646700680893297,-0.19843862692157177,0.3909795677952774,-0.11480233398470935,0.0732176477589147,0.0377982675479167,-0.008652144973787818,-0.238536541741361,0.1794853571535015,-0.16763881991381147,-0.17390707988526963,-0.08111507562513075,-0.11329835701597503,0.039370772159861886,0.1358793699042181,-0.0019397027031025423,0.0966699443894069,0.13873902260335516,0.07991007260228974,-0.0013938367872675264,-0.07558034604212621,0.26979428287353296,0.0769879731903207,0.09080603597079998,-0.07284639415009882,0.11537700299493113,0.09537295886872019,0.15244527727263885,0.1110723818223166,0.40598297280118234,0.11044236297128117,0.02945137140169248,0.017039298535838597,0.14865791353991079,-0.022206566490490798,0.0651125976080789,0.03639398062033029,-0.3056895048427626],[0.10617169705406652,0.07242707345114004,-0.11638198896646719,0.008245334468513377,0.06909040372987746,0.0997906688248591,0.15710438374815971,-0.07505358085228747,0.05007295763799856,0.029602644159102395,0.10652124892402112,0.2223305383873928,0.06183239449624335,-0.15166905835930802,0.05862621243943601,0.021312952321313233,-0.10124939201329589,0.04736836584774127,0.2768533542409493,0.053950971066086165,-0.04012699110927084,-0.15588374422701579,0.0073416461057742395,-0.042250866233424236,-0.008121078139389263,0.1365509560594667,-0.11883501541847306,-0.030690133974533716,0.12162492065066106,-0.13085319139831372,0.03227057784533866,0.13313172299360165,0.035256179485835336,-0.19914551015367646,0.23977727360411172,0.030923448998742165,0.08971592615747045,-0.0955186705368611,-0.078498858114915,0.07652479958053691,0.16943204270367948,-0.06547703977959732,-0.09623045129105662,0.21700158281199644,-0.055936223720453114,-0.08094591097073359,-0.14603841955532393,0.13546308015768835,0.1346369987380658,-0.01178171662656415,-0.13879078187901608,0.06263789225026573,0.09196966536431662,0.14293651517589162,0.12079718950254685,-0.002505473001441888,-0.016654263597879387,